tree
version=v4
num_class=1
num_tree_per_iteration=1
label_index=0
max_feature_idx=19
objective=regression
feature_names=Column_0 Column_1 Column_2 Column_3 Column_4 Column_5 Column_6 Column_7 Column_8 Column_9 Column_10 Column_11 Column_12 Column_13 Column_14 Column_15 Column_16 Column_17 Column_18 Column_19
feature_infos=[-0.034381546199245605:0.065191617927956358] [13.393153582185892:13.950915194970477] [13.393153582185892:13.950915194970477] [13.393153582185892:13.950915194970477] [13.393153582185892:13.950915194970477] [13.393153582185892:13.950915194970477] [13.393916067926225:13.941004820463784] [0:0.047298975034897758] [13.396088393010242:13.937589446766022] [0.0012084176212949567:0.056827193638149413] [7.1471972859324655:7.6387568550930514] [9.4889746539166087:9.7114065740084499] [7.1471972859324655:7.6387568550930514] [9.4889746539166087:9.7114065740084499] [3.5:6] [1.3200000000000001:5.9500000000000002] [-2.2000000000000002:3.52] [0:6] [1:12] [1:4]
tree_sizes=3245 2989 1402 3025 1918 3122 3130 3328 1775 1309 1806 3341 2510 2736 2192 2166 1648 1510 2245 1618 1440 1377 3093 3422 1689 1374 1246 2428 2052 2561 2117 1893 3579 1225 3007 2188 2397 3093 2318 1740 1664 3159 2302 2635 3178 2155 2061 1226 2468 2606 3049 2092 1690 1718 2005 2050 2429 2496 1866 2471 2235 2655 3112 2937 2161 2253 2791 1988 2319 2415 3322 1815 2978 2407 2031 2154 1608 2785 1645 1662 2250 3016 2451 2419 1532 1997 2788 1935 2808 2532 2645 2471 1517 1959 2159 2787 1849 2632 1654 2367 1937 1403 2244 2591 1650 2609 2587 2018 2370 2377 2101 2246 3095 2085 1393 1986 1643 1919 1821 1926 1768 1345 2065 2094 1966 2148 1914 2041 1818 2465 1440 404 951 2084 2226 623 1321 1439 2127 1825 1510 1225 457

Tree=0
num_leaves=34
num_cat=0
split_feature=0 0 11 11 12 10 17 7 17 12 0 8 10 12 12 10 13 12 10 12 10 17 7 18 7 5 10 7 10 12 16 10 7
split_gain=0.00238989 0.000715074 0.00060511 0.000456728 0.000375069 0.000331389 0.000273834 0.000496684 0.000240921 0.000197048 0.000225016 0.000194366 0.000404496 0.000682732 0.000510104 0.000221516 0.000216296 0.000133989 0.000448676 0.000342648 0.000151116 0.000126516 0.000113546 0.000110688 5.07686e-05 3.84777e-05 0.000184253 3.67123e-05 3.14212e-05 1.43921e-05 1.3934e-05 8.53261e-06 3.8109e-06
threshold=0.0020533974698073725 -0.01085198164072043 9.6610656069219356 9.6560993340103014 7.4447748264035711 7.482228714152531 4.5000000000000009 0.007125806770781202 5.5000000000000009 7.448217365090799 0.011436917785374591 13.752744285002114 7.5705721086584292 7.5734644567617666 7.5662307809939398 7.4833259648608852 9.5466658342704935 7.6107017796264289 7.5892725813649138 7.553082068327158 7.5662307809939398 3.5000000000000004 0.0035577747498042492 2.5000000000000004 0.0047187814786629149 13.731585175181525 7.3247173755966708 0.0066744075226893027 7.5107999349534724 7.3129236764038161 1.8250000000000004 7.1914029665483197 0.002347137644869257
decision_type=2 2 2 2 2 2 2 2 2 2 2 2 2 2 2 2 2 2 2 2 2 2 2 2 2 2 2 2 2 2 2 2 2
left_child=1 4 5 8 -1 9 7 -5 11 10 22 15 14 -14 -13 16 -3 18 19 23 -21 -11 32 -7 -17 26 31 28 -27 -24 -29 -10 -2
right_child=2 3 -4 6 -6 17 -8 -9 25 21 -12 12 13 -15 -16 24 -18 -19 -20 20 -22 -23 29 -25 -26 27 -28 30 -30 -31 -32 -33 -34
leaf_value=0.00033135714002761814 0.00046088924890524366 0.0005639105827382545 0.002576804347086395 0.00033135714002761814 -0.0014944707917063612 0.00049602534930106017 0.00032357741110256038 0.0024014052922424257 0.0001375344966557606 -0.00034116091477373887 -3.2889625659998666e-05 -9.4989149939580738e-05 0.0018218576384056667 7.0947713246368458e-05 -0.0014856069576973286 0.00033135714002761814 -1.3792638036372914e-05 0.00033135714002761814 0.0025617324545562379 -0.00026997490132204448 0.00068137683073850406 0.00038148245022709729 0.0013882745551814721 0.0013057840172456146 0.00089417864239576031 0.00029121285436107798 0.0011919749566794775 0.00033135714002761814 0.0005468504631404201 0.00068557066457138787 -3.5758302353358488e-05 0.00033135714002761814 0.00033135714002761814
leaf_weight=20 20 59 20 22 37 41 22 21 20 34 23 379 24 103 29 48 269 20 20 23 41 21 35 128 38 43 27 29 65 51 31 28 22
leaf_count=20 20 59 20 22 37 41 22 21 20 34 23 379 24 103 29 48 269 20 20 23 41 21 35 128 38 43 27 29 65 51 31 28 22
internal_value=0.000331357 0.000120441 0.000886628 0.00017337 -0.000927547 0.000801503 0.000916308 0.00137057 0.000127259 0.000474019 0.000670956 5.83932e-05 -6.49333e-05 0.000351805 -0.000210712 0.000233743 0.000110229 0.00102429 0.00108309 0.000926322 0.000331357 5.31527e-05 0.000849061 0.00114859 0.000627999 0.00036917 0.000555003 0.000325149 0.000384398 0.00104948 0.000109417 0.000331249 0.000331357
internal_weight=1813 1314 499 1257 57 479 65 43 1192 206 151 949 535 127 408 414 328 273 253 233 64 55 128 169 86 243 75 168 108 86 60 48 42
internal_count=1813 1314 499 1257 57 479 65 43 1192 206 151 949 535 127 408 414 328 273 253 233 64 55 128 169 86 243 75 168 108 86 60 48 42
is_linear=0
shrinkage=1


Tree=1
num_leaves=34
num_cat=0
split_feature=0 0 15 1 10 5 13 3 10 13 13 6 13 13 17 10 2 13 1 15 0 18 6 16 10 10 6 10 13 17 2 1 0
split_gain=0.00127488 0.00037099 0.000346262 0.000188145 0.000286207 0.000363319 0.000544134 0.000227345 0.000215245 0.000240566 0.000164385 0.000251687 0.000190421 0.000200782 0.000150406 0.00016974 0.000135554 0.000128624 0.000246678 0.000127173 0.000103589 0.00010112 9.3209e-05 0.00010766 8.32522e-05 8.19051e-05 8.02572e-05 7.00336e-05 6.92109e-05 5.94712e-05 4.55205e-05 3.43259e-05 9.37847e-06
threshold=0.0021401882464928694 -0.01085198164072043 2.9100000000000006 13.738089265061442 7.3296016036905955 13.722846722649283 9.5373755715638584 13.543045235756304 7.4939629182311487 9.5657570244448245 9.6262771180975815 13.754078713334868 9.6016727433639488 9.5842287979994296 1.5000000000000002 7.5926181926648244 13.784535620676236 9.642512320806274 13.843611869906718 1.5700000000000003 0.0046772862114927713 1.5000000000000002 13.742690609633753 -0.4649999999999998 7.1654200210536692 7.455168343483547 13.407913724741498 7.2574010723692615 9.6084484705082058 4.5000000000000009 13.733757908888089 13.401887190685487 0.0054525908033502555
decision_type=2 2 2 2 2 2 2 2 2 2 2 2 2 2 2 2 2 2 2 2 2 2 2 2 2 2 2 2 2 2 2 2 2
left_child=1 2 -1 4 7 6 -6 24 9 -5 12 -12 13 19 15 16 -10 18 -16 -2 -13 -21 -11 -24 31 -7 -26 -23 -14 -19 -27 -3 -30
right_child=10 3 -4 8 5 25 -8 -9 14 22 11 20 28 -15 17 -17 -18 29 -20 21 -22 27 23 -25 26 30 -28 -29 32 -31 -32 -33 -34
leaf_value=-0.0014661925476443798 -0.00012601641416288732 0 0 -0.0014794437718927695 0 -0.00046333212113311374 0.0017162696952109774 -0.0009704996748723919 0 0 0.0018314547091934743 0 -0.00057321587874475705 0.0010286800543331362 0.00010044844527395627 0.00036245457766006346 -0.00059719186433018279 0.00079617305280821511 -0.00039313338796407004 -2.0901346259465452e-05 0.00068541391254692263 0 -9.0955287768863954e-05 -0.00064815350001118681 0.00063571553361497645 0.00044981603406716507 0 0.00051336017933510366 0.00017840774161020744 0 0 -0.00047376576041437563 0
leaf_weight=36 38 26 21 21 29 26 35 25 57 38 21 29 20 46 268 20 118 25 129 22 56 36 98 89 21 28 134 168 26 26 20 40 21
leaf_count=36 38 26 21 21 29 26 35 25 57 38 21 29 20 46 268 20 118 25 129 22 56 36 98 89 21 28 134 168 26 26 20 40 21
internal_value=0 -0.00014766 -0.000906734 -0.000108382 5.30267e-05 0.000407947 0.000928071 -0.000119523 -0.000185492 -0.000429514 0.000417661 0.000787663 0.000295865 0.000399305 -8.18159e-05 -0.00030089 -0.000414532 0 -4.34883e-05 0.000264116 0.000449212 0.000358831 -0.000301198 -0.000391646 0 0 9.59619e-05 0.000431965 -8.46575e-05 0.000456768 0.000185465 -0.000300315 0
internal_weight=1813 1330 57 1273 384 138 64 246 889 246 483 106 377 310 643 195 175 448 397 264 85 226 225 187 221 74 155 204 67 51 48 66 47
internal_count=1813 1330 57 1273 384 138 64 246 889 246 483 106 377 310 643 195 175 448 397 264 85 226 225 187 221 74 155 204 67 51 48 66 47
is_linear=0
shrinkage=0.298099


Tree=2
num_leaves=14
num_cat=0
split_feature=9 10 12 17 10 12 12 14 10 17 10 5 7
split_gain=0.000732893 0.000288436 0.000593001 0.000265634 0.000231183 0.000629262 0.000547442 0.000107802 0.000327817 0.000256886 7.07848e-05 3.19954e-05 2.25397e-05
threshold=0.01892039622910667 7.6107017796264289 7.5972783697151884 3.5000000000000004 7.5757231005535806 7.5780610686998342 7.5724206694843881 4.6250000000000009 7.4447748264035711 1.0000000180025095e-35 7.5849890095011157 13.892934347860875 0.0064381389121545684
decision_type=2 2 2 2 2 2 2 2 2 2 2 2 2
left_child=1 2 4 -2 6 -6 7 8 -1 -9 -7 -12 -4
right_child=3 -3 12 -5 5 10 -8 9 -10 -11 11 -13 -14
leaf_value=-0.00066141872643749088 0.0016690319946886581 0.00077792796887822589 -0.00036438431843560946 1.9345288579394439e-05 0.0016292506536806927 -0.00029943305996946336 -0.0012075385173128974 -0.0003743888596483947 -2.8381538628472209e-05 0.00014262374301591497 0.00038877675562369742 0 -0.001589947300129582
leaf_weight=84 31 37 21 24 27 39 36 96 763 570 37 26 22
leaf_count=84 31 37 21 24 27 39 36 96 763 570 37 26 22
internal_value=0 -3.24956e-05 -5.382e-05 0.00107077 -2.17467e-05 0.000354549 -5.73668e-05 -2.55118e-05 -9.90525e-05 5.81474e-05 0 0.000209645 -0.00114776
internal_weight=1813 1758 1721 55 1678 129 1549 1513 847 666 102 63 43
internal_count=1813 1758 1721 55 1678 129 1549 1513 847 666 102 63 43
is_linear=0
shrinkage=0.298099


Tree=3
num_leaves=33
num_cat=0
split_feature=9 11 11 9 3 10 6 5 10 5 9 11 11 10 10 10 10 7 1 10 1 6 10 1 9 9 10 2 10 1 6 9
split_gain=0.000399009 0.000249178 0.000154243 0.000336162 0.000264886 0.000395034 0.000400531 0.000223131 0.000193905 0.000251595 0.000172896 0.000209138 0.000241716 0.000157845 0.000157039 0.000156336 0.00015497 0.000144856 0.000107859 8.35949e-05 7.53665e-05 7.48401e-05 6.68073e-05 7.18357e-05 5.19656e-05 4.55887e-05 3.76998e-05 3.48559e-05 3.16605e-05 0.000100571 2.0599e-05 1.90114e-05
threshold=0.01892039622910667 9.5886080347541913 9.6081428631848684 0.016682541540400071 13.756291057587051 7.5236811320327339 13.81285770260479 13.885502821112862 7.4869075154261022 13.820000339354564 0.0098313954158858064 9.5570457823780846 9.5733084655840681 7.5958069980380136 7.5757231005535806 7.5657389047075219 7.4849358950074958 0.0021470480363626012 13.757351503371618 7.5681519529298287 13.74132551478216 13.92844781118688 7.441038267570387 13.790705307687608 0.011946212926328323 0.010133196637222621 7.5176077974379272 13.878954620416797 7.5013196621156437 13.764743302552128 13.888800036133008 0.005869735992367466
decision_type=2 2 2 2 2 2 2 2 2 2 2 2 2 2 2 2 2 2 2 2 2 2 2 2 2 2 2 2 2 2 2 2
left_child=2 -2 3 4 10 28 19 8 18 -10 16 24 -13 30 -8 26 17 -1 25 -7 -18 -15 -20 -24 -12 31 -11 -17 -6 -30 -9 -4
right_child=1 -3 7 -5 5 6 14 13 9 15 11 12 -14 21 -16 27 20 -19 22 -21 -22 -23 23 -25 -26 -27 -28 -29 29 -31 -32 -33
leaf_value=0.00032009685398513561 0 0.0014155711965434031 0.00025245759816589495 -0.001155670662807843 -0.00081801342923717069 0.00014266807620392016 -0.00063994272980042398 0 0.0013968682180594391 -0.0001885109160177917 0.0002816717312488321 0.0011504126619230792 0 0.0004621734232538338 0 0.00080732260885800142 0.00076164335607170543 -0.00016589098077926528 -0.00075690218747548506 0.00087281492349887337 8.7559008734272521e-05 -0.00015731741245705302 9.0511026674123428e-05 -0.00053218981425844449 -0.00031613109660590572 0.00062984037070403691 0.00014380555398005697 8.5734874705290691e-05 0 -0.00053592828535447754 -0.0007081904651851463 -9.3590162995367871e-05
leaf_weight=55 27 28 23 26 79 140 87 24 23 36 20 43 22 29 54 47 26 421 20 24 119 24 47 21 30 20 100 34 29 68 43 24
leaf_count=55 27 28 23 26 79 140 87 24 23 36 20 43 22 29 54 47 26 421 20 24 119 24 47 21 30 20 100 34 29 68 43 24
internal_value=0 0.000788765 -2.52927e-05 -8.51199e-05 -5.66763e-05 -0.00023119 -3.78741e-06 0.000106323 0.000223098 0.000391962 4.84724e-05 0.000385154 0.000739761 -0.000223111 -0.000392489 0.000254088 -3.38693e-06 -9.58278e-05 0 0.00029042 0.000254525 5.84479e-05 -0.000252653 -6.27878e-06 0 0.000242647 7.42454e-06 0.0005863 -0.000587536 -0.000330984 -0.000543253 0
internal_weight=1813 55 1758 1243 1217 481 305 515 395 240 736 115 65 120 141 217 621 476 155 164 145 53 88 68 50 67 136 81 176 97 67 47
internal_count=1813 55 1758 1243 1217 481 305 515 395 240 736 115 65 120 141 217 621 476 155 164 145 53 88 68 50 67 136 81 176 97 67 47
is_linear=0
shrinkage=0.298099


Tree=4
num_leaves=21
num_cat=0
split_feature=11 10 2 8 17 9 10 2 11 2 17 10 6 7 10 17 17 11 17 7
split_gain=0.000260025 0.00022062 0.000247313 0.0001919 0.000185785 0.000431901 8.27245e-05 0.000188573 0.000337524 0.000131166 0.000122916 0.000107016 0.000145936 0.0001016 9.70615e-05 7.86108e-05 7.23726e-05 5.90074e-05 5.59025e-05 3.20779e-05
threshold=9.6544170328641883 7.6107017796264289 13.922569226631017 13.885852704872741 4.5000000000000009 0.01627861057024715 7.5657389047075219 13.799889048094309 9.5938085407423745 13.868577166487876 2.5000000000000004 7.525103441942834 13.756360663689046 0.010465815188052873 7.4964221072604387 1.5000000000000002 2.5000000000000004 9.6131619822540149 4.5000000000000009 0.0064381389121545684
decision_type=2 2 2 2 2 2 2 2 2 2 2 2 2 2 2 2 2 2 2 2
left_child=1 3 -3 6 5 16 7 11 10 13 -9 12 -1 19 -10 -13 -2 -11 -5 -8
right_child=4 2 -4 18 -6 -7 9 8 14 17 -12 15 -14 -15 -16 -17 -18 -19 -20 -21
leaf_value=2.3400759912968447e-05 0 0.0013920294439080602 0 -0.00076688352448690822 0 0.0018093312749313108 0.00027026551075516071 -0.0014565515458272403 -0.00065253199502209546 -0.00035389876397938453 -8.9560417982674815e-05 0 -0.00024172236459232168 0 0 0.00042341927943711892 0.00052337942281703402 8.963165187949145e-05 0 0.0010418493612258466
leaf_weight=807 32 20 23 42 34 23 64 28 23 43 22 28 229 23 184 87 27 33 20 21
leaf_count=807 32 20 23 42 34 23 64 28 23 43 22 28 229 23 184 87 27 33 20 21
internal_value=5.84571e-07 -2.53043e-05 0.000629887 -4.63803e-05 0.000435353 0.000684711 -2.19959e-05 -5.01606e-05 -0.000280951 0.000157663 -0.000988618 0 -2.88899e-05 0.000382195 -7.75582e-05 0.00027396 0.000130958 -7.52579e-05 -0.000564862 0.00053991
internal_weight=1813 1697 43 1654 116 82 1592 1408 257 184 50 1151 1036 108 207 115 59 76 62 85
internal_count=1813 1697 43 1654 116 82 1592 1408 257 184 50 1151 1036 108 207 115 59 76 62 85
is_linear=0
shrinkage=0.298099


Tree=5
num_leaves=34
num_cat=0
split_feature=0 0 6 11 10 9 13 10 17 0 5 16 9 0 1 10 11 0 10 10 5 6 17 17 6 15 17 9 9 15 9 9 11
split_gain=0.000321198 0.000143253 0.000288976 0.000475968 0.000231868 0.000179586 0.000109691 0.000107925 0.000145002 0.000195088 0.000147037 0.000166063 9.9356e-05 9.07163e-05 8.02157e-05 9.31495e-05 7.89078e-05 7.44841e-05 6.81126e-05 6.64873e-05 0.000135356 0.000126421 0.000132282 8.51605e-05 6.45904e-05 3.90073e-05 3.58233e-05 3.17625e-05 1.82066e-05 1.42926e-05 1.37068e-05 3.17707e-06 2.19935e-06
threshold=0.0043173312229658487 -0.0010604457845682089 13.631453067500177 9.5635924577533107 7.4145608156475999 0.0062060031747278284 9.6667836842108787 7.269454168913378 1.0000000180025095e-35 0.0097308625849263936 13.795817794597129 2.0750000000000006 0.0048750022448606923 0.013001281819440715 13.537778598522049 7.2541354078396152 9.6496914740068771 -0.0051098784892262819 7.5790350979259493 7.5623669103909856 13.868577166487876 13.758160305093915 3.5000000000000004 2.5000000000000004 13.838727435904621 3.5050000000000003 4.5000000000000009 0.0056452528671562087 0.0034191355162532136 1.5450000000000002 0.0061053178125953502 0.0090258858391262502 9.5661039142881972
decision_type=2 2 2 2 2 2 2 2 2 2 2 2 2 2 2 2 2 2 2 2 2 2 2 2 2 2 2 2 2 2 2 2 2
left_child=1 2 3 14 -4 12 16 -2 -9 10 11 -10 28 -11 15 -1 19 25 27 21 26 23 -23 -3 -19 -7 -21 -12 -6 -14 -22 -18 -13
right_child=7 6 4 -5 5 17 -8 8 9 13 18 32 29 -15 -16 -17 31 24 -20 20 30 22 -24 -25 -26 -27 -28 -29 -30 -31 -32 -33 -34
leaf_value=-0.00016616655389722158 -0.00011828686541884036 0.00024435800415922561 -0.0013630006663842703 0.0013004272345062756 0 -0.0003519539121281553 -0.00066707554009610634 -0.00023596470509943947 0.00069014101023639161 0.0011251773577327959 0 2.9347601358782681e-05 -0.00010411303775850236 0.00021791820915805806 -0.00045951117230619423 0.00043940295189047842 0.00051840917884929784 0.00024334271108118015 0.00013213007067020688 0.00063700889952236143 0 -0.00040730059550810906 0 -2.183323320460585e-05 -0.00019786806170912449 0 0 -0.00058956964667908449 -0.00023300827291377769 -0.00086466853032267376 -0.00016221084014757952 0 -8.8061396991725635e-05
leaf_weight=39 34 149 20 27 23 73 20 23 71 48 20 27 25 40 34 38 30 98 31 50 31 134 134 255 27 27 26 25 79 61 47 25 22
leaf_count=39 34 149 20 27 23 73 20 23 71 48 20 27 25 40 34 38 30 98 31 50 31 134 134 255 27 27 26 25 79 61 47 25 22
internal_value=0 -5.96214e-05 -0.000177085 0.000168866 -0.000302545 -0.000234696 7.5451e-06 0.00026138 0.000324877 0.000393556 0.000182079 0.000399147 -0.000452894 0.000788657 -4.89347e-05 4.7835e-05 3.0457e-05 -2.29612e-05 -7.44927e-05 0 0.000183211 -3.30203e-05 -0.000197918 6.01406e-05 9.53691e-05 -0.000236406 0.000474878 -0.000362306 -0.000161985 -0.000720558 -1.73297e-05 0.000376669 0
internal_weight=1813 1472 571 138 433 413 901 341 307 284 196 120 188 88 111 77 881 225 76 826 154 672 268 404 125 100 76 45 102 86 78 55 49
internal_count=1813 1472 571 138 433 413 901 341 307 284 196 120 188 88 111 77 881 225 76 826 154 672 268 404 125 100 76 45 102 86 78 55 49
is_linear=0
shrinkage=0.298099


Tree=6
num_leaves=35
num_cat=0
split_feature=11 3 12 10 10 12 10 12 10 10 3 10 3 10 10 10 10 10 12 12 10 18 10 12 12 3 10 13 3 17 10 10 13 3
split_gain=0.000146839 0.000535504 0.000162569 0.00054603 0.000179047 0.000234052 0.000292322 0.00022453 0.000163334 0.000136216 0.000142624 0.000133394 9.92113e-05 0.000210734 0.000103719 8.94096e-05 0.000119415 8.90643e-05 8.23017e-05 7.83783e-05 9.13954e-05 7.17579e-05 0.000117509 9.47537e-05 3.58304e-05 3.55608e-05 3.66648e-05 2.98996e-05 2.88903e-05 2.6562e-05 6.95666e-05 7.07796e-06 4.8029e-06 3.80353e-06
threshold=9.6081428631848684 13.729407710420617 7.5517936177771885 7.5662307809939398 7.5170152878086727 7.5020540245139271 7.5001894491984178 7.5205678336445736 7.5325888200296154 7.4055621629667829 13.884569985021388 7.5030470433092216 13.740247928158167 7.455168343483547 7.484180381456194 7.6070806426448359 7.5892725813649138 7.5849890095011157 7.525103441942834 7.5342684090976659 7.5476282535228068 6.5000000000000009 7.5176077974379272 7.553082068327158 7.5768503958019959 13.918517392489647 7.6183886730053585 9.5848857055669026 13.756291057587051 4.5000000000000009 7.4869075154261022 7.5610201247209874 9.6350850862636417 13.765794827650517
decision_type=2 2 2 2 2 2 2 2 2 2 2 2 2 2 2 2 2 2 2 2 2 2 2 2 2 2 2 2 2 2 2 2 2 2
left_child=2 -2 4 31 5 6 12 -6 18 -3 21 -7 13 -1 -14 16 27 24 -9 -10 -21 22 33 -24 -12 32 -27 -5 -13 30 -23 -4 -19 -11
right_child=1 9 3 15 7 11 -8 8 19 10 17 28 14 -15 -16 -17 -18 25 -20 20 -22 29 23 -25 -26 26 -28 -29 -30 -31 -32 -33 -34 -35
leaf_value=-8.2062652934124155e-05 0.0016484642130820187 -0.000582938224200891 -0.0014650073862903701 0.0002485511126466539 0.00099358798432742099 -0.0012597154370828571 0.00084570602523773833 0 0.00084741521127068011 -0.00047729440743934047 0 0 -0.00050064016812839782 0.00036986995103877865 0 0.00058764385335170885 -0.00066498923589544245 0 -0.00061360362302220978 -0.00011540008966036518 0.00042657076225883031 8.4300439137088674e-05 0.00064678481104580297 0 -0.00081117516739283042 -0.00038106409521562653 0 -7.0139199442454929e-05 -0.0003828736180502626 1.3192708532654885e-05 0.00062852504710325858 -0.00036660582569413084 0.00037900645754904302 0
leaf_weight=461 20 25 30 40 31 21 33 27 23 25 31 35 81 114 114 20 26 20 32 43 45 75 32 67 20 26 20 37 41 59 76 21 21 21
leaf_count=461 20 25 30 40 31 21 33 27 23 25 31 35 81 114 114 20 26 20 32 43 45 75 32 67 20 26 20 37 41 59 76 21 21 21
internal_value=0 0.00012891 -5.67384e-05 -0.000325698 -8.2147e-06 -7.07405e-05 -9.44476e-06 0.00023888 6.17002e-05 5.69892e-05 0.000102976 -0.000509539 -5.48235e-05 0 -0.000238807 0 -9.72256e-05 -0.000125668 -0.000284899 0.00030523 8.74959e-05 0.000210388 0 0.000225493 -0.000444147 0 -0.000108525 1.04265e-05 -0.000213416 0.000324249 0.000402134 -0.00114412 0.000252038 -0.000341913
internal_weight=1813 538 1275 174 1101 900 803 201 170 518 493 97 770 575 195 123 103 138 59 111 88 355 145 99 51 87 46 77 76 210 151 51 41 46
internal_count=1813 538 1275 174 1101 900 803 201 170 518 493 97 770 575 195 123 103 138 59 111 88 355 145 99 51 87 46 77 76 210 151 51 41 46
is_linear=0
shrinkage=0.298099


Tree=7
num_leaves=38
num_cat=0
split_feature=0 12 0 17 18 0 0 0 13 9 14 17 7 0 18 7 12 14 12 12 14 9 7 12 13 1 9 9 9 9 9 9 7 17 14 13 12
split_gain=0.000133289 0.000204238 0.00033167 0.000107777 0.000198877 0.000102252 0.000101319 8.64412e-05 0.000110385 9.596e-05 8.79187e-05 5.85231e-05 0.000156848 5.37513e-05 5.22538e-05 5.14337e-05 6.21912e-05 4.19875e-05 0.00013377 4.18605e-05 4.03673e-05 3.99461e-05 9.27036e-05 3.64009e-05 3.32119e-05 3.28354e-05 3.25274e-05 2.98474e-05 2.9612e-05 2.47266e-05 1.94183e-05 1.72914e-05 1.54485e-05 9.72181e-06 8.49342e-06 3.43935e-05 1.93897e-06
threshold=-0.0010683789138239417 7.3129236764038161 -0.0067972432608760505 1.0000000180025095e-35 10.500000000000002 0.0096203531406642302 0.014600086790959923 -0.0095797644544139953 9.5790550466036795 0.0098313954158858064 4.1250000000000009 2.5000000000000004 0.0080690026631930565 -0.0060594044381083725 4.5000000000000009 0.0017231123227392177 7.3178927865006882 5.6250000000000009 7.441038267570387 7.4882179658176886 3.8750000000000004 0.0051545368307424535 0.0037279231030671843 7.5623669103909856 9.616505234643844 13.731585175181525 0.007242433627109782 0.0039498336344234363 0.0076529737511590963 0.01245881556392813 0.0040258782440159369 0.0059003590789485144 0.0047627524868902532 2.5000000000000004 5.8750000000000009 9.5589916975468974 7.5082140866247462
decision_type=2 2 2 2 2 2 2 2 2 2 2 2 2 2 2 2 2 2 2 2 2 2 2 2 2 2 2 2 2 2 2 2 2 2 2 2 2
left_child=1 2 -1 4 17 11 14 20 9 30 13 12 21 -10 -7 -13 27 18 -2 -14 -3 22 -5 -19 -12 -18 -23 -17 36 -11 -9 -15 -16 -26 -4 -36 -20
right_child=3 7 34 5 -6 6 -8 8 10 29 24 15 19 31 32 16 25 23 28 -21 -22 26 -24 -25 33 -27 -28 -29 -30 -31 -32 -33 -34 -35 35 -37 -38
leaf_value=0.0012538542981390124 -0.00071467038430083328 -3.6979219015127352e-06 3.8413979215079376e-05 0 -0.00085968291421561972 0.0010850123139854318 0 0 0 0.00025169396393697868 -0.00041168632053302447 0.00040744009917573822 0.0010659686700797606 0 0.00038450562403427347 0 0.00020059372751547166 0.00041919935730682772 0 0 -0.00073222345565253605 -0.00021544461995818466 0.0005975617268387921 0 -0.00013906180912267086 0 4.6977139905073523e-05 -0.00032856903236012214 0.00027205431918338158 -0.00017721520274754598 -0.00052780498799969409 0.00048161963242467846 0 1.3746455277012279e-05 0 -0.0004214219064727712 -0.00011309566468809913
leaf_weight=22 26 31 33 59 29 23 34 20 23 24 36 27 22 25 20 33 78 31 20 20 48 59 34 20 44 473 82 74 33 21 96 47 23 50 25 21 27
leaf_count=22 26 31 33 59 29 23 34 20 23 24 36 27 22 25 20 33 78 31 20 20 48 59 34 20 44 473 82 74 33 21 96 47 23 50 25 21 27
internal_value=0 -0.000122895 0.000231068 5.13866e-05 -0.000144644 9.19668e-05 0.000390244 -0.000213972 -0.000132036 -0.000320354 0 5.40196e-05 0.000170252 0.000220586 0.000605446 0 -9.3798e-06 0 -0.0001183 0.000713701 -0.00053005 4.41518e-05 0.000206363 0.000209437 -0.000156322 2.03419e-05 -1.63981e-05 -0.000223548 0 0 -0.000464512 0.000361019 0.00019316 0 0 -0.000123621 -6.09687e-05
internal_weight=1813 566 101 1247 186 1061 100 465 386 161 225 961 276 95 66 685 658 157 106 42 79 234 93 51 130 551 141 107 80 45 116 72 43 94 79 46 47
internal_count=1813 566 101 1247 186 1061 100 465 386 161 225 961 276 95 66 685 658 157 106 42 79 234 93 51 130 551 141 107 80 45 116 72 43 94 79 46 47
is_linear=0
shrinkage=0.298099


Tree=8
num_leaves=19
num_cat=0
split_feature=11 1 10 1 11 4 10 10 4 13 4 7 10 1 10 11 2 11
split_gain=0.000105528 0.000174188 9.19235e-05 6.31096e-05 6.96121e-05 0.000100339 0.000216637 0.000168162 0.000132201 8.47431e-05 0.000110021 8.57754e-05 8.15994e-05 7.3607e-05 5.81479e-05 5.69513e-05 5.55259e-05 3.16003e-05
threshold=9.6544170328641883 13.757351503371618 7.6183886730053585 13.884569985021388 9.5886080347541913 13.544357572467691 7.3227613817240949 7.3502945669022273 13.611556513084624 9.6030957223510072 13.866678731697954 0.0032299500700715966 7.5757231005535806 13.531156054857005 7.4690353587255549 9.6036181690336893 13.899391936250687 9.6093211538342462
decision_type=2 2 2 2 2 2 2 2 2 2 2 2 2 2 2 2 2 2
left_child=2 -2 3 4 5 6 13 -7 -9 10 11 -6 15 -1 -3 -11 -16 -14
right_child=1 14 -4 -5 9 7 -8 8 -10 12 -12 -13 17 -15 16 -17 -18 -19
leaf_value=5.5565075642361794e-05 0.00092719712824096932 -0.0003496356918038971 0.00051133547483267505 -0.00027443561814373158 0 -0.0007876599759309809 0.00096085267458413388 0.00034833811529597021 -0.00012893599093295082 -0.00053056924670694659 -0.00016814371268001095 0.00055490928854483692 0 -0.00035977805419755101 0.00042198995164395852 0 0 0.00058039447255394804
leaf_weight=266 28 21 27 93 29 35 22 50 626 21 21 87 20 44 42 329 25 27
leaf_count=266 28 21 27 93 29 35 22 50 626 21 21 87 20 44 42 329 25 27
internal_value=0 0.000274434 -1.92252e-05 -3.17949e-05 -1.32868e-05 -6.15282e-05 6.08377e-05 -0.000127913 -8.38263e-05 6.86182e-05 0.000270607 0.000406767 0 0 0 -5.07618e-05 0.000195875 0.00036682
internal_weight=1813 116 1697 1670 1577 1043 332 711 676 534 137 116 397 310 88 350 67 47
internal_count=1813 116 1697 1670 1577 1043 332 711 676 534 137 116 397 310 88 350 67 47
is_linear=0
shrinkage=0.298099


Tree=9
num_leaves=14
num_cat=0
split_feature=0 9 1 9 15 10 1 15 3 15 10 3 1
split_gain=6.08715e-05 5.31002e-05 0.00021048 6.07574e-05 5.16909e-05 4.30926e-05 0.000112301 0.000122807 0.00010882 8.35046e-05 5.78067e-05 0.000167685 8.17775e-05
threshold=-0.01085198164072043 0.01892039622910667 13.730497035470227 0.016682541540400071 2.9100000000000006 7.1787894886972774 13.458120817620747 2.7700000000000005 13.400373758473565 2.8250000000000006 7.3112784978335048 13.544357572467691 13.527161374005926
decision_type=2 2 2 2 2 2 2 2 2 2 2 2 2
left_child=4 3 -3 5 -1 8 7 -7 -2 -10 12 -12 -8
right_child=1 2 -4 -5 -6 6 10 -9 9 -11 11 -13 -14
leaf_value=-0.00052208454932463236 0.00015263356217177189 0.0010804740925875855 0 -0.00037709831359639297 0 0 0 0.00087931952122566131 -0.0008281397884900779 0 0.00058431377968583926 9.3942843909031551e-07 -0.00050594943101681718
leaf_weight=36 33 20 33 37 21 28 62 28 28 45 46 1351 45
leaf_count=36 33 20 33 37 21 28 62 28 28 45 46 1351 45
internal_value=0 8.93003e-06 0.000302254 0 -0.000303554 8.18019e-06 2.4411e-05 0.000440028 -0.000168398 -0.000403381 4.51306e-06 2.49286e-05 -0.000200278
internal_weight=1813 1756 53 1703 57 1666 1560 56 106 73 1504 1397 107
internal_count=1813 1756 53 1703 57 1666 1560 56 106 73 1504 1397 107
is_linear=0
shrinkage=0.298099


Tree=10
num_leaves=19
num_cat=0
split_feature=4 13 17 1 17 7 7 9 9 9 9 4 1 17 13 7 7 9
split_gain=6.56649e-05 5.94595e-05 8.46798e-05 0.000214127 5.78551e-05 4.03774e-05 3.02688e-05 5.53892e-05 4.4366e-05 2.11343e-05 7.43757e-05 0.000105346 5.34638e-05 4.00298e-05 7.85924e-05 2.6539e-05 2.08394e-05 2.67609e-05
threshold=13.93017753355954 9.6450211712244514 4.5000000000000009 13.753102956218294 3.5000000000000004 0.0091137335777864859 0.012925345919990961 0.01712821825843135 0.01627861057024715 0.005585926849149647 0.0059003590789485144 13.830891538789297 13.837761047339777 1.5000000000000002 9.6146481373945125 0.0058844359071346186 0.0092284661722068662 0.0090788523679746994
decision_type=2 2 2 2 2 2 2 2 2 2 2 2 2 2 2 2 2 2
left_child=1 6 3 -3 16 -4 8 -8 9 13 11 -11 -12 14 -1 -15 17 -5
right_child=-2 2 5 4 -6 -7 7 -9 -10 10 12 -13 -14 15 -16 -17 -18 -19
leaf_value=-0.00020065604488810591 -0.00045243511027886427 0.0012118393244637477 0 0 0.00053163750672006441 -0.00042855925210819127 0.00053119800379547975 0 -0.00033806231458431832 -0.00057182206835651125 1.8813601707379974e-05 0 -0.0001972317010457087 4.6318429196185868e-05 0.00027413656143117918 0.00040291043391265318 -0.00028432444943200151 0.00033687222408657747
leaf_weight=139 28 21 35 42 20 20 25 30 39 53 692 30 116 421 31 28 21 22
leaf_count=139 28 21 35 42 20 20 25 30 39 53 692 30 116 421 31 28 21 22
internal_value=0 6.08539e-06 0.000170036 0.000316555 7.31887e-05 -4.6415e-05 -8.33407e-06 0.000198939 -1.99604e-05 -7.35081e-06 -4.00987e-05 -0.000310671 -4.10516e-06 2.91664e-05 -7.52401e-05 8.33486e-05 0 4.65999e-05
internal_weight=1813 1785 181 126 105 55 1604 55 1549 1510 891 83 808 619 170 449 85 64
internal_count=1813 1785 181 126 105 55 1604 55 1549 1510 891 83 808 619 170 449 85 64
is_linear=0
shrinkage=0.298099


Tree=11
num_leaves=38
num_cat=0
split_feature=11 4 11 10 15 11 10 0 0 15 8 11 10 10 16 2 8 8 11 10 18 0 4 11 15 16 2 17 15 0 2 18 0 2 18 10 4
split_gain=6.76812e-05 0.000209901 0.000343605 0.00018588 0.000242306 0.000139046 9.00919e-05 8.48819e-05 8.10394e-05 6.20012e-05 5.30586e-05 8.71755e-05 0.000104091 8.25126e-05 6.98788e-05 6.4789e-05 0.000199803 5.8449e-05 0.000197041 6.56211e-05 3.52395e-05 3.3345e-05 3.28956e-05 3.12121e-05 2.94149e-05 2.55635e-05 2.45207e-05 2.36978e-05 2.24476e-05 1.67499e-05 1.52387e-05 1.35045e-05 2.03447e-05 1.64677e-05 1.0456e-05 7.78276e-06 2.7317e-06
threshold=9.5617469545620768 13.722846722649283 9.6016727433639488 7.4447748264035711 4.8150000000000013 9.5657570244448245 7.1914029665483197 0.0079576156708540697 0.0026525261148462325 2.9100000000000006 13.799426151103658 9.5706128166102182 7.5041299599748088 7.5757231005535806 -0.21499999999999983 13.875193449190073 13.84355291984174 13.84355291984174 9.6131619822540149 7.5001894491984178 1.5000000000000002 0.0043173312229658487 13.537778598522049 9.6447621709596607 1.5700000000000003 2.2850000000000006 13.469492658777286 4.5000000000000009 2.9100000000000006 -0.0032188878259091776 13.760526110101116 7.5000000000000009 -0.002825525935695516 13.524489360535787 11.500000000000002 7.3591302100311591 13.406413792797006
decision_type=2 2 2 2 2 2 2 2 2 2 2 2 2 2 2 2 2 2 2 2 2 2 2 2 2 2 2 2 2 2 2 2 2 2 2 2 2
left_child=7 2 5 4 -3 6 -2 8 20 -7 11 21 14 17 -13 16 -15 19 -19 -12 35 29 31 -17 -24 28 36 -14 -10 -5 -6 32 -22 -33 -26 -1 -11
right_child=1 3 -4 10 30 9 -8 -9 25 26 13 12 27 15 -16 23 -18 18 -20 -21 22 -23 24 -25 34 -27 -28 -29 -30 -31 -32 33 -34 -35 -36 -37 -38
leaf_value=0 0 -0.00093967031019965826 0.0014768620848802602 0 8.4048285346464074e-05 0.00022900450731847411 0.00077841360869519878 -0.00057826065879856413 0 -0.00010966795238532649 -0.00035793432191725063 0.00036072478200000743 0.00058087796406266394 -4.8685725707424444e-05 0 -0.00013146770934218912 0.00074935043158776875 -0.00088879625382576105 -2.2932169272455905e-05 6.2092230093922581e-05 0 0.00014575429668901198 0 0.0001589606301096659 -0.00039847028278960082 0 -0.00057342068270127913 0 0.00051704814985678636 -0.00022801473695199955 -0.00021344135633876213 0.00027244068202363124 -0.00023955703313658145 0 0 0.00015141997415465182 0
leaf_weight=26 22 42 22 21 42 24 37 33 25 20 40 55 67 37 211 84 46 35 125 177 28 20 26 52 92 31 20 26 27 90 23 20 52 40 25 30 20
leaf_count=26 22 42 22 21 42 24 37 33 25 20 40 55 67 37 211 84 46 35 125 177 28 20 26 52 92 31 20 26 27 90 23 20 52 40 25 30 20
internal_value=0 3.43325e-05 0.000350005 -3.86393e-06 -0.000382908 0.000129054 0.000495396 -9.84681e-05 -4.51404e-05 -5.06749e-05 2.74872e-05 0.00010303 0.000184933 -2.36048e-05 6.03961e-05 0.000106988 0.000315236 -0.000116913 -0.000254187 0 -0.000122151 -7.12467e-05 -0.000170083 0 -0.00027835 0.000189932 -0.000272151 0.000469759 0.000317862 -0.000169657 0 -1.23733e-05 -0.000121659 2.40203e-05 -0.000342017 2.8143e-06 0
internal_weight=1813 1358 165 1193 107 143 59 455 422 84 1086 490 359 596 266 219 83 377 160 217 339 131 283 136 143 83 60 93 52 111 65 140 80 60 117 56 40
internal_count=1813 1358 165 1193 107 143 59 455 422 84 1086 490 359 596 266 219 83 377 160 217 339 131 283 136 143 83 60 93 52 111 65 140 80 60 117 56 40
is_linear=0
shrinkage=0.298099


Tree=12
num_leaves=28
num_cat=0
split_feature=7 7 7 8 2 6 6 5 8 16 7 9 9 5 16 9 6 5 15 7 1 15 18 18 6 18 9
split_gain=3.40067e-05 0.000104611 9.14791e-05 0.000105739 0.000159753 7.42865e-05 5.75325e-05 0.000115704 0.000119638 2.88212e-05 2.84383e-05 2.11711e-05 7.82411e-05 7.75502e-05 4.07023e-05 3.92211e-05 3.94013e-05 2.98679e-05 3.30273e-05 4.11902e-05 2.64322e-05 2.6134e-05 1.48274e-05 2.44466e-05 7.75854e-06 5.74657e-06 9.60275e-07
threshold=0.0082573636701654147 0.007771213163164154 0.010465815188052873 13.560538501746995 13.740247928158167 13.835863853114345 13.631453067500177 13.738089265061442 13.799426151103658 1.6900000000000002 0.013251815636675598 0.0099341989502873592 0.013254241686880693 13.764743302552128 1.8250000000000004 0.0078528807356336196 13.734675515218433 13.88363627793399 2.0100000000000002 0.005694563682639554 13.728317197447437 1.5700000000000003 6.5000000000000009 3.5000000000000004 13.794423251407814 4.5000000000000009 0.0046076902838801254
decision_type=2 2 2 2 2 2 2 2 2 2 2 2 2 2 2 2 2 2 2 2 2 2 2 2 2 2 2
left_child=1 11 3 -2 -5 25 -4 -8 -9 -3 -10 15 14 -14 -13 17 -17 18 20 -20 -1 -16 23 -18 -24 -6 -19
right_child=2 9 6 4 5 -7 7 8 10 -11 -12 12 13 -15 21 16 22 26 19 -21 -22 -23 24 -25 -26 -27 -28
leaf_value=0.00019383395305473244 -0.00011231118186463723 0 0.00021832533563715821 0.0011486662110174709 -0.00015090384859072444 0.0005241479589023902 -0.00068874994817512728 0.00044841887650386793 -0.00037715668053595074 -0.00057608548925792817 0 0 -0.00056536180647582038 0 0 -0.0004773520439341384 0 0 1.7163647510969049e-05 0.00023894621436810253 -8.1931678891922685e-05 0.00048794901873531582 0 -0.00029935597347253512 0.00015113549280801406 1.1845754060850998e-05 -0.00021562999993062287
leaf_weight=23 24 20 44 24 22 31 28 34 44 37 23 42 24 36 22 31 39 25 543 108 319 57 53 41 30 39 50
leaf_count=23 24 20 44 24 22 31 28 34 44 37 23 42 24 36 22 31 39 25 543 108 319 57 53 41 30 39 50
internal_value=0 -1.79439e-05 9.00376e-05 0.000274811 0.000411546 0.000146028 -2.16578e-05 -0.000154602 0 -0.000413537 -0.000236504 0 9.2835e-05 -0.000118035 0.000251674 -1.59183e-05 -0.00013998 4.82147e-07 2.02283e-05 6.41108e-05 -4.40776e-05 0.000377643 -3.50611e-05 -0.000137602 0 0 -0.000172917
internal_weight=1813 1500 313 140 116 92 173 129 101 57 67 1443 181 60 121 1262 194 1068 993 651 342 79 163 80 83 61 75
internal_count=1813 1500 313 140 116 92 173 129 101 57 67 1443 181 60 121 1262 194 1068 993 651 342 79 163 80 83 61 75
is_linear=0
shrinkage=0.298099


Tree=13
num_leaves=31
num_cat=0
split_feature=12 10 10 12 12 10 9 12 10 12 12 10 12 12 10 2 5 0 10 17 16 9 10 12 2 6 0 13 2 17
split_gain=5.35398e-05 0.000513604 0.000197078 0.000368497 0.000187615 0.000205623 0.000187728 0.000169851 0.000168448 0.000384387 0.000143336 0.000104983 0.000280449 0.000139083 6.70779e-05 0.000237126 8.80454e-05 6.59748e-05 5.97098e-05 5.73207e-05 4.57547e-05 3.23516e-05 2.16009e-05 3.47041e-05 1.28011e-05 9.854e-06 9.74976e-06 9.38552e-06 2.07943e-06 1.45457e-06
threshold=7.3129236764038161 7.3084054782032606 7.455168343483547 7.4603838559668914 7.4447748264035711 7.4037037690507219 0.017298834235539819 7.4145608156475999 7.4814176503991741 7.4833259648608852 7.4772648159466026 7.4978614726713451 7.4998908065422336 7.4964221072604387 7.2541354078396152 13.49116354462141 13.423947260874542 0.001023548244710071 7.3591302100311591 3.5000000000000004 -0.75999999999999968 0.0082868494797756348 7.1654200210536692 7.154099592059838 13.740247928158167 13.412088920827697 0.001384032262759405 9.5477764290503497 13.738089265061442 3.5000000000000004
decision_type=2 2 2 2 2 2 2 2 2 2 2 2 2 2 2 2 2 2 2 2 2 2 2 2 2 2 2 2 2 2
left_child=1 14 4 28 5 6 18 -7 10 -10 24 13 -13 -11 16 -16 22 21 19 -2 -6 -9 23 -1 29 26 -24 -17 -4 -5
right_child=2 -3 3 8 20 7 -8 17 9 11 -12 12 -14 -15 15 27 -18 -19 -20 -21 -22 -23 25 -25 -26 -27 -28 -29 -30 -31
leaf_value=0 -0.00049904860589341214 0.0013516168105288458 0.0011053057716647655 -0.00025772968159242985 0 0.00084969367549863066 -0.0010476538009922592 0.00042975416200591115 0.00094891182621494703 -2.7332651410923556e-05 -0.00082250594201025578 0.00084710699202408704 0 -0.00086981962528882449 0.00090105296908958782 0 -0.00071390283328345632 -0.00047726812198242534 8.6226658042611623e-05 0 -0.00098122524568144596 0 0.00024012237271413758 -0.00029780927165626265 0 0 0 -0.00014420900173908025 0.00017217880102061056 0
leaf_weight=21 46 27 27 20 20 26 29 21 39 105 39 36 829 27 30 25 20 21 39 36 37 33 35 53 44 24 20 43 21 20
leaf_count=21 46 27 27 20 20 26 29 21 39 105 39 36 829 27 30 25 20 21 39 36 37 33 35 53 44 24 20 43 21 20
internal_value=0 0.000116112 -2.20641e-05 2.7421e-05 -0.000237223 -9.52858e-05 -0.000333887 0.000194056 -5.0996e-07 3.29393e-05 -0.000335249 0 3.47256e-05 -0.000250368 0 0.000188755 -0.000119247 0 -0.000107237 -0.00027924 -0.000744955 0.000138374 0 -0.000148365 -2.96221e-05 6.01597e-05 0.000145125 -3.06436e-05 0.000835727 -0.000173629
internal_weight=1813 298 1515 1207 308 251 150 101 1159 1036 123 997 865 132 271 98 173 75 121 82 57 54 153 74 84 79 55 68 48 40
internal_count=1813 298 1515 1207 308 251 150 101 1159 1036 123 997 865 132 271 98 173 75 121 82 57 54 153 74 84 79 55 68 48 40
is_linear=0
shrinkage=0.298099


Tree=14
num_leaves=24
num_cat=0
split_feature=11 1 11 7 8 3 7 0 18 7 7 11 7 0 16 7 1 7 1 8 8 8 18
split_gain=4.60149e-05 0.000212537 0.000192495 0.000160592 0.000141318 0.000136987 4.4051e-05 4.21452e-05 4.13266e-05 3.85723e-05 4.24764e-05 3.13793e-05 4.37369e-05 3.3399e-05 6.02077e-05 2.99966e-05 2.79781e-05 3.09207e-05 2.49429e-05 2.07162e-05 1.90719e-05 1.14718e-05 9.77243e-06
threshold=9.5617469545620768 13.727225493956963 9.6052432213157797 0.0099944044416959438 13.729277898130812 13.415778703660486 0.0021470480363626012 -0.0070246220111638271 5.5000000000000009 0.0095726745953501804 0.010922428675771489 9.5386265332969646 0.010276010884587622 -0.0067972432608760505 2.3450000000000002 0.0055354892366139387 13.923916331172864 0.0019106624734581473 13.75946902725495 13.849030677293444 13.404439729626645 13.560538501746995 11.500000000000002
decision_type=2 2 2 2 2 2 2 2 2 2 2 2 2 2 2 2 2 2 2 2 2 2 2
left_child=6 2 3 5 -3 20 -1 18 9 15 -11 21 13 -13 22 -9 17 -10 -6 -20 -2 -8 -15
right_child=1 4 -4 -5 7 -7 11 8 16 10 -12 12 -14 14 -16 -17 -18 -19 19 -21 -22 -23 -24
leaf_value=0.00014546333917568328 0.00021558818305961536 -0.00071194706398038771 0.0012369525446028868 -0.00043075126277493386 0 0.00062118518295620662 0 0 -0.00010932641183082693 0.00048599686563439678 0 0 2.9407057883472028e-05 -0.00012618265375892129 -0.00043799247085088194 -0.000217918345473308 -0.00012831431878046552 0.00011016110196117051 -0.00039175021996081005 0 -0.00012226381129540711 0.0001837771454342707 0
leaf_weight=42 24 25 21 24 25 68 31 215 33 21 20 30 35 136 103 122 34 611 48 29 38 30 48
leaf_count=42 24 25 21 24 25 68 31 215 33 21 20 30 35 136 103 122 34 611 48 29 38 30 48
internal_value=0 2.68537e-05 0.000334995 0.000168033 -1.32173e-05 0.000329533 -8.26532e-05 0 1.9653e-05 -4.97982e-05 0.000172734 -0.000121818 -0.000159147 -0.000200699 -0.000234142 -9.64504e-05 6.80714e-05 8.86796e-05 -0.000180718 -0.000268244 0 0 -8.40102e-05
internal_weight=1813 1358 175 154 1183 130 455 1158 1056 378 41 413 352 317 287 337 678 644 102 77 62 61 184
internal_count=1813 1358 175 154 1183 130 455 1158 1056 378 41 413 352 317 287 337 678 644 102 77 62 61 184
is_linear=0
shrinkage=0.298099


Tree=15
num_leaves=24
num_cat=0
split_feature=10 1 11 13 1 11 10 11 1 17 7 10 1 13 10 1 11 7 13 10 8 10 10
split_gain=4.86825e-05 0.000100788 3.95831e-05 9.67692e-05 4.10122e-05 0.000110628 7.44046e-05 0.000126887 0.000136718 0.00014679 5.42698e-05 4.57336e-05 4.5199e-05 0.000107977 6.0814e-05 4.13319e-05 3.31255e-05 3.10534e-05 2.43836e-05 1.56895e-05 1.42904e-05 1.11877e-05 7.80155e-06
threshold=7.6107017796264289 13.923916331172864 9.6626413537831528 9.6693448905384685 13.845554561602459 9.60788418182055 7.525103441942834 9.6036181690336893 13.812004292755356 2.5000000000000004 0.0047187814786629149 7.5596402638146012 13.760526110101116 9.5853772061469815 7.4973458708302276 13.523150671650429 9.5724803552488513 0.0055354892366139387 9.6471103215633374 7.4538138675948202 13.88755801389061 7.5796022061537753 7.5176077974379272
decision_type=2 2 2 2 2 2 2 2 2 2 2 2 2 2 2 2 2 2 2 2 2 2 2
left_child=2 -2 4 -4 6 -6 12 8 10 -10 -8 18 14 22 15 -1 -16 20 -7 -15 -13 -19 -14
right_child=1 -3 3 -5 5 11 7 -9 9 -11 -12 17 13 19 16 -17 -18 21 -20 -21 -22 -23 -24
leaf_value=6.2799783057163931e-05 0.00076782531704815832 0 0.0006881263079730873 0 -0.00058840442849437458 -0.00035706576711813317 0 0.00065124253337957229 -0.00069449304571513059 0 0.00035172822540194558 0.00021628322770991267 -0.00057270142492234406 -0.00018836389923839627 7.6820185900222206e-07 -7.9565179203610123e-05 0.0005303093493512714 -0.00023652654461261093 0 1.5593595344760803e-05 0 0 -1.3703706414084393e-05
leaf_weight=223 22 21 24 35 41 48 60 38 37 53 99 82 48 38 67 552 27 24 20 162 25 36 31
leaf_count=223 22 21 24 35 41 48 60 38 37 53 99 82 48 38 67 552 27 24 20 162 25 36 31
internal_value=0 0.000308957 -1.07362e-05 0.000219523 -2.25412e-05 -0.000127843 0 0.000133358 2.75164e-05 -0.000232862 0.000216302 -1.91378e-05 -3.6198e-05 -0.000140625 0 -3.0114e-05 0.000223416 3.22405e-05 -0.000241493 0 0.000154983 -7.72085e-05 -0.000436921
internal_weight=1813 43 1770 59 1711 276 1435 287 249 90 159 235 1148 279 869 775 94 167 68 200 107 60 79
internal_count=1813 43 1770 59 1711 276 1435 287 249 90 159 235 1148 279 869 775 94 167 68 200 107 60 79
is_linear=0
shrinkage=0.298099


Tree=16
num_leaves=18
num_cat=0
split_feature=12 11 4 15 3 11 3 17 3 3 8 4 12 4 5 16 3
split_gain=4.31285e-05 3.25588e-05 0.000200138 5.44084e-05 5.01678e-05 4.70746e-05 4.01224e-05 2.86927e-05 1.8579e-05 1.32773e-05 2.73255e-05 1.30593e-05 6.69008e-05 2.39745e-05 1.2264e-05 2.29194e-05 1.93313e-05
threshold=7.6107017796264289 9.5938085407423745 13.722846722649283 1.5700000000000003 13.753102956218294 9.6302342081004255 13.821989400671262 3.5000000000000004 13.922569226631017 13.400373758473565 13.403609885684959 13.544357572467691 7.3542375061355445 13.53645759379063 13.800904276869501 0.25000000000000006 13.777289210214056
decision_type=2 2 2 2 2 2 2 2 2 2 2 2 2 2 2 2 2
left_child=1 6 -3 -4 5 -5 9 -8 -2 -1 -11 13 -13 -12 16 -16 -6
right_child=8 2 3 4 14 -7 7 -9 -10 10 11 12 -14 -15 15 -17 -18
leaf_value=0.00016997496859291931 -0.00051857310336265983 0.00094895630273005558 0.00030079608250300929 0 0 -0.00046208317631488567 -0.00053414992505158377 0 0 -0.00031865147423237953 0 -0.0003877774889295737 0 0.00028325310086194496 -0.00015437890801002797 3.0610793574343147e-05 0.00021107981675666729
leaf_weight=33 20 22 56 24 69 39 23 25 22 26 239 43 684 34 73 312 69
leaf_count=33 20 22 56 24 69 39 23 25 22 26 239 43 684 34 73 312 69
internal_value=0 5.61486e-06 6.06129e-05 1.96706e-05 0 -0.00025731 -2.14403e-05 -0.000290452 -0.000299216 -2.9914e-06 -1.49911e-05 -4.65327e-07 -2.74651e-05 4.73377e-05 2.29177e-05 0 9.93747e-05
internal_weight=1813 1771 664 642 586 63 1107 48 42 1059 1026 1000 727 273 523 385 138
internal_count=1813 1771 664 642 586 63 1107 48 42 1059 1026 1000 727 273 523 385 138
is_linear=0
shrinkage=0.298099


Tree=17
num_leaves=16
num_cat=0
split_feature=10 12 10 12 17 12 10 10 12 10 10 10 15 7 3
split_gain=4.59556e-05 0.000262982 0.000148944 0.000136645 9.16838e-05 4.99631e-05 0.000139682 0.000120687 5.06535e-05 0.000291438 0.000237545 1.5825e-05 1.13079e-05 5.1565e-06 3.22372e-06
threshold=7.5998969523873461 7.5881388489718509 7.5819668018720021 7.6154708206093717 4.5000000000000009 7.5662307809939398 7.5645444234459704 7.5657389047075219 7.5205678336445736 7.5184199022333056 7.525103441942834 7.5903848258055673 2.8450000000000002 0.0064849400372784163 13.84942865936606
decision_type=2 2 2 2 2 2 2 2 2 2 2 2 2 2 2
left_child=1 2 5 12 11 6 8 -7 9 -1 -10 -3 -2 14 -9
right_child=3 4 -4 -5 -6 7 -8 13 10 -11 -12 -13 -14 -15 -16
leaf_value=0 0.00089825297894955899 -0.0012212023578359113 0.00056882610585479881 -0.00011383321272029004 0 -0.00086428112368235554 0.00060489243881352121 0.00011363837972316182 -0.00070597666244068312 0.00092184091929770528 0 -0.00023689526200125052 0.0001021601037821159 -0.00012983330163266547 0
leaf_weight=1129 20 21 41 31 20 20 34 22 50 31 263 26 29 27 49
leaf_count=1129 20 21 41 31 20 20 34 22 50 31 263 26 29 27 49
internal_value=0 -1.17062e-05 7.72825e-06 0.000219016 -0.000591522 -2.44566e-06 8.04771e-06 -0.000191896 -1.3393e-06 2.27657e-05 -0.000111629 -0.000819076 0.000562914 0 0
internal_weight=1813 1733 1666 80 67 1625 1507 118 1473 1160 313 47 49 98 71
internal_count=1813 1733 1666 80 67 1625 1507 118 1473 1160 313 47 49 98 71
is_linear=0
shrinkage=0.298099


Tree=18
num_leaves=25
num_cat=0
split_feature=12 16 11 1 3 13 4 4 13 11 11 16 12 11 7 7 7 7 7 12 13 12 11 13
split_gain=3.52357e-05 0.000135721 0.000333631 4.47354e-05 9.94012e-05 6.58539e-05 3.21661e-05 3.20235e-05 2.43706e-05 5.20971e-05 2.78882e-05 2.19057e-05 2.80979e-05 3.68734e-05 5.02263e-05 3.00161e-05 6.63102e-05 5.60244e-05 1.1121e-05 3.11986e-05 1.06469e-05 9.45132e-06 5.62488e-06 2.82381e-06
threshold=7.3129236764038161 2.27 9.5581587040874094 13.462044681598995 13.423947260874542 9.5477764290503497 13.543045235756304 13.925709249987367 9.5578055343826147 9.5510180365502553 9.5617469545620768 2.4450000000000007 7.5337471791935124 9.5721461427946064 0.0048531889556031882 0.0032180150872405796 0.0039376410987495896 0.0025699791915202454 0.010465815188052873 7.5873383541931547 9.5886080347541913 7.5873383541931547 9.5938085407423745 9.564945788143822
decision_type=2 2 2 2 2 2 2 2 2 2 2 2 2 2 2 2 2 2 2 2 2 2 2 2
left_child=1 2 -1 4 8 -5 -2 11 9 -3 -10 12 15 14 -14 17 -17 -8 19 22 -20 -15 -13 -12
right_child=6 3 -4 5 -6 -7 7 -9 10 -11 23 18 13 21 -16 16 -18 -19 20 -21 -22 -23 -24 -25
leaf_value=0 -0.00028697091627115319 -4.7135446332915412e-05 0.0012100248883768704 0 0.0006429001890591922 -0.00058032322822902194 0 -0.00028997425718108375 -0.0004207069814623739 0.00038696245807960146 3.0180098166004062e-05 0 -0.00054412474920455191 1.7154222844442161e-05 0 0.00026429868015392976 0 -0.0002735769057383535 6.64139143567954e-05 0.00038767652889156449 -0.00016720572308684831 -0.00011009159409178285 6.1644510836131081e-05 -7.1176757351961537e-05
leaf_weight=46 41 23 30 23 22 28 105 35 23 34 24 48 36 128 57 97 569 90 23 34 30 66 156 45
leaf_count=46 41 23 30 23 22 28 105 35 23 34 24 48 36 128 57 97 569 90 23 34 30 66 156 45
internal_value=0 9.1295e-05 0.000436958 0 4.42929e-05 -0.000266659 -2.06461e-05 -8.74332e-06 -7.01395e-07 9.72322e-05 -0.000132774 0 -2.03625e-05 -0.000101745 -0.000258975 0 3.6676e-05 -9.52609e-05 7.10649e-05 0.000101603 0 0 2.14174e-05 0
internal_weight=1813 298 76 222 171 51 1515 1474 149 57 92 1439 1148 287 93 861 666 195 291 238 53 194 204 69
internal_count=1813 298 76 222 171 51 1515 1474 149 57 92 1439 1148 287 93 861 666 195 291 238 53 194 204 69
is_linear=0
shrinkage=0.298099


Tree=19
num_leaves=17
num_cat=0
split_feature=0 18 10 12 10 10 12 10 10 9 12 7 12 17 5 10
split_gain=5.29127e-05 0.000115609 5.78931e-05 9.09655e-05 0.000136648 0.000111602 8.98642e-05 0.000141086 0.000131668 4.20052e-05 1.88886e-05 1.55415e-05 8.31423e-06 6.31262e-06 6.07423e-07 7.42898e-08
threshold=0.012271362890331263 7.5000000000000009 7.6136433797103322 7.5857202837306614 7.5873383541931547 7.5741194451271534 7.5560175317031382 7.5517936177771885 7.5596402638146012 0.015400565453588429 7.5705721086584292 0.0055354892366139387 7.5780610686998342 4.5000000000000009 13.875193449190073 7.5958069980380136
decision_type=2 2 2 2 2 2 2 2 2 2 2 2 2 2 2 2
left_child=2 -2 3 5 -5 6 7 9 -8 -1 -10 15 -7 -13 -14 -6
right_child=1 -3 -4 4 11 12 8 -9 10 -11 -12 13 14 -15 -16 -17
leaf_value=-3.3769875526728234e-06 -0.00063297678240571502 3.2772507290343098e-05 0.00039587199515451994 -0.00098701081160470204 0 0.00054885914413178481 -0.00070475634980088006 0.00065161934849834984 2.8996636802247152e-06 0.00024500166072829934 -0.00022507632172508329 -0.00026586305670627116 0 0 0.00010232396992636411 1.558380515898319e-05
leaf_weight=1269 37 20 33 20 20 36 38 31 89 62 33 29 24 21 24 27
leaf_count=1269 37 20 33 20 20 36 38 31 89 62 33 29 24 21 24 27
internal_value=0 -0.000285046 5.63491e-06 0 -0.000255341 1.66116e-05 0 2.29549e-05 -0.000213007 3.28592e-06 -5.19982e-06 -3.52493e-05 0.000350814 -0.000172993 6.43022e-05 0
internal_weight=1813 57 1756 1723 117 1606 1522 1362 160 1331 122 97 84 50 48 47
internal_count=1813 57 1756 1723 117 1606 1522 1362 160 1331 122 97 84 50 48 47
is_linear=0
shrinkage=0.298099


Tree=20
num_leaves=15
num_cat=0
split_feature=12 10 10 12 9 10 12 12 10 12 12 10 9 12
split_gain=3.38162e-05 0.000136981 0.000135735 8.24153e-05 5.01432e-05 3.16671e-05 0.000393405 7.59249e-05 6.88219e-05 0.00023659 0.000140249 2.82814e-05 5.2503e-05 2.47093e-05
threshold=7.6107017796264289 7.6206683168876515 7.5938048157713078 7.5895709944595646 0.0091483687118632442 7.5476282535228068 7.5434904824498208 7.5538344351216145 7.5158074267720059 7.512445486466496 7.5223677228372186 7.5808859570055569 0.0063441533926560717 7.5836239502538367
decision_type=2 2 2 2 2 2 2 2 2 2 2 2 2 2
left_child=2 -2 3 5 -4 6 8 -7 9 -1 -10 12 -9 -13
right_child=1 -3 4 -5 -6 7 -8 11 10 -11 -12 13 -14 -15
leaf_value=0 -0.00082518773744560069 2.8559987887122941e-05 2.6883776730496175e-05 -0.00046513640457486206 0.00082533081088920224 0.00037175856094601373 -0.0012352341000435377 4.0860705406630879e-05 0.00051587792630945588 -0.00086277021064690867 0 0.00041304033739651349 -0.00024159547299765026 0
leaf_weight=1086 22 20 39 34 24 66 23 136 67 29 134 26 80 27
leaf_count=1086 22 20 39 34 24 66 23 136 67 29 134 26 80 27
internal_value=0 -0.000264421 5.60387e-06 -6.49065e-06 0.000436627 0 -1.75849e-05 8.46169e-05 0 -2.50393e-05 0.000164084 0 -3.34555e-05 0.000206652
internal_weight=1813 42 1771 1708 63 1674 1339 335 1316 1115 201 269 216 53
internal_count=1813 42 1771 1708 63 1674 1339 335 1316 1115 201 269 216 53
is_linear=0
shrinkage=0.298099


Tree=21
num_leaves=15
num_cat=0
split_feature=0 2 0 9 13 11 13 11 11 9 9 2 5 11
split_gain=2.03179e-05 6.82742e-05 4.80781e-05 4.83503e-05 2.68857e-05 2.58452e-05 5.70714e-05 6.01411e-05 5.16057e-05 2.82664e-05 4.84363e-05 2.14238e-05 1.79414e-05 2.88777e-05
threshold=0.012271362890331263 13.69503624543947 0.010676734655553412 0.0025111400653407322 9.5461502448445987 9.5556130563668003 9.5570457823780846 9.5586635277862388 9.5589916975468974 0.0051679418686678639 0.0098313954158858064 13.523150671650429 13.771035931234318 9.5251659610534727
decision_type=2 2 2 2 2 2 2 2 2 2 2 2 2 2
left_child=2 -2 3 -1 11 9 7 -7 -8 -6 -11 -5 13 -13
right_child=1 -3 -4 4 5 6 8 -9 -10 10 -12 12 -14 -15
leaf_value=0.00043791596997469549 -0.00062146059988862684 0 0.00041560345596644522 0 0 0.00059577556052951332 -0.00035255637730394575 0 -2.2620612417968939e-06 -0.00035718129305999005 0 0 0 0.00037135616756487667
leaf_weight=22 20 37 25 24 56 28 40 20 1313 76 38 36 21 57
leaf_count=22 20 37 25 24 56 28 40 20 1313 76 38 36 21 57
internal_value=0 -0.000173837 6.64175e-06 0 -4.98288e-06 -1.97031e-05 -1.53728e-06 0.000310966 -1.75233e-05 -0.000130614 -0.000217773 0.000114816 0.000180628 0.000238933
internal_weight=1813 57 1756 1731 1709 1571 1401 48 1353 170 114 138 114 93
internal_count=1813 57 1756 1731 1709 1571 1401 48 1353 170 114 138 114 93
is_linear=0
shrinkage=0.298099


Tree=22
num_leaves=34
num_cat=0
split_feature=10 3 8 8 3 8 3 10 10 6 10 9 9 7 10 8 2 10 10 8 9 3 0 7 5 0 5 3 7 13 10 0 9
split_gain=2.38305e-05 7.3511e-05 0.000172498 7.50332e-05 5.16469e-05 5.13423e-05 3.10798e-05 0.000135648 4.3015e-05 3.65872e-05 4.27174e-05 2.48856e-05 3.49753e-05 4.51011e-05 3.43631e-05 5.08462e-05 4.22075e-05 3.24248e-05 2.4314e-05 2.32382e-05 2.13376e-05 2.49319e-05 2.66446e-05 2.43604e-05 2.89434e-05 1.90582e-05 2.67612e-05 2.99554e-05 1.01158e-05 1.02082e-05 4.29731e-06 4.0669e-06 3.02979e-06
threshold=7.4859853125279798 13.624955013254473 13.560538501746995 13.700956259796058 13.743477210694323 13.724206755074688 13.545668189207626 7.3542375061355445 7.3164584681390679 13.535299693500274 7.2541354078396152 0.0084012473983252813 0.0091967784170070149 0.0059419821414780924 7.5714375901458473 13.84355291984174 13.925709249987367 7.5030470433092216 7.5938048157713078 13.74989009171694 0.0056452528671562087 13.881766244254731 0.0019617697042386699 0.0049945640233468808 13.7741674586548 0.00097656281044056236 13.786596415358021 13.753102956218294 0.0063043324124652704 9.6146481373945125 7.5236811320327339 -0.00090024341419248078 0.011654862231815636
decision_type=2 2 2 2 2 2 2 2 2 2 2 2 2 2 2 2 2 2 2 2 2 2 2 2 2 2 2 2 2 2 2 2 2
left_child=1 2 6 -3 -2 -5 8 -8 9 10 -1 17 13 -13 15 32 18 19 -16 -6 21 22 -19 24 -22 26 27 -7 29 -27 -25 -23 -14
right_child=4 3 -4 5 11 25 7 -9 -10 -11 -12 12 14 -15 16 -17 -18 20 -20 -21 23 31 -24 30 -26 28 -28 -29 -30 -31 -32 -33 -34
leaf_value=-5.7364315877871503e-05 0.00033863027366273801 -0.00068275891848628117 0.00063816321198750098 0.00023863091996004571 0 -8.2777100725072499e-05 -0.00072068013776685621 8.1793497436849301e-05 0.00032139961402507546 -0.00033427040541291099 0.00018327455771045815 0 -7.388024032470405e-06 0.00057256311663461278 3.2808969117734645e-05 -0.00042326328447269719 -3.448395409665425e-05 0.00020328895482799866 0.00055835637047192319 -0.00026076579599702089 0 -0.00012891393621720088 0 -3.383476237479446e-05 -0.00024388057032283269 -0.00043529303302415156 -0.00026979296551407622 0.00015278046024789737 0 0 5.4198973770192788e-05 0 8.2376928017422401e-05
leaf_weight=173 48 24 39 28 33 139 28 23 37 29 96 42 61 28 63 29 20 143 26 75 20 25 70 25 88 44 39 73 35 24 120 27 39
leaf_count=173 48 24 39 28 33 139 28 23 37 29 96 42 61 28 63 29 20 143 26 75 20 25 70 25 88 44 39 73 35 24 120 27 39
internal_value=0 -3.63899e-05 3.87584e-05 -0.000131224 3.21781e-05 -7.90581e-05 -5.05225e-06 -0.000231327 9.88755e-06 -6.91428e-06 4.15538e-06 9.32746e-06 8.30081e-05 0.000273021 0 -7.41309e-05 0.000146512 -1.64381e-05 0.000260895 -0.000167835 2.48714e-06 7.24286e-05 0.000129035 -4.48023e-05 -0.000157186 -0.00012286 -4.34408e-05 0 -0.000252255 -0.000330878 0 -3.3085e-05 0
internal_weight=1813 831 425 406 982 382 386 51 335 298 269 934 308 70 238 129 109 626 89 108 518 265 213 253 108 354 251 212 103 68 145 52 100
internal_count=1813 831 425 406 982 382 386 51 335 298 269 934 308 70 238 129 109 626 89 108 518 265 213 253 108 354 251 212 103 68 145 52 100
is_linear=0
shrinkage=0.298099


Tree=23
num_leaves=40
num_cat=0
split_feature=10 3 3 14 2 10 1 10 1 10 9 1 10 5 10 1 6 10 17 10 13 17 2 1 17 15 1 13 1 1 6 2 9 17 13 17 9 5 3
split_gain=1.64424e-05 0.000104991 0.000226179 0.000130845 7.57175e-05 4.43373e-05 3.71952e-05 4.48434e-05 2.0828e-05 0.000134756 7.5993e-05 6.06174e-05 3.76376e-05 4.26733e-05 2.03708e-05 5.74195e-05 4.06607e-05 4.28719e-05 5.39852e-05 2.7629e-05 4.18124e-05 0.000112177 5.61195e-05 3.7594e-05 4.06659e-05 2.30661e-05 2.14106e-05 5.49943e-05 3.60212e-05 1.9242e-05 1.50105e-05 1.4929e-05 1.38761e-05 1.25994e-05 7.28936e-06 6.53404e-06 8.85605e-07 3.01331e-07 1.37682e-09
threshold=7.455168343483547 13.624955013254473 13.734842508011862 4.8750000000000009 13.732672132131336 7.4389745282056809 13.75946902725495 7.4055621629667829 13.523150671650429 7.2574010723692615 0.01134978906457232 13.458120817620747 7.3164584681390679 13.554794723187667 7.4964221072604387 13.766845248204922 13.750738603374598 7.5034797930017048 3.5000000000000004 7.5657389047075219 9.5906128645813826 1.5000000000000002 13.830891538789297 13.923916331172864 3.5000000000000004 3.2000000000000006 13.803943793667427 9.6056810607460452 13.748836281865279 13.744551324963469 13.73721973856898 13.49116354462141 0.0087188147803031104 2.5000000000000004 9.6521599152874007 3.5000000000000004 0.0065103043897292044 13.532484076886064 13.746696098520232
decision_type=2 2 2 2 2 2 2 2 2 2 2 2 2 2 2 2 2 2 2 2 2 2 2 2 2 2 2 2 2 2 2 2 2 2 2 2 2 2 2
left_child=1 3 5 -1 36 -3 7 -4 9 11 12 32 37 -14 26 16 38 -18 -19 20 21 -17 -22 25 -25 -21 27 28 30 -9 -6 -11 -5 -8 -29 -30 -2 -10 -16
right_child=4 2 6 8 14 -7 33 29 10 31 -12 -13 13 -15 15 19 17 18 -20 23 22 -23 -24 24 -26 -27 -28 34 35 -31 -32 -33 -34 -35 -36 -37 -38 -39 -40
leaf_value=0.00068863072857692999 0 -0.0011726389991630144 -9.4383645484005473e-05 -3.3909970575476915e-06 -0.00020514214861202341 -0.00016666209099030393 -0.00038718259438959502 0 0 0.0007813204856065379 -0.00058073620765183842 -0.00051387657946892057 0.00031501746744118982 0 1.8918729416800104e-06 -0.00052838849054507534 0 0.00074470090210176779 0 0.00019763037809443176 0.0002117089124872104 0 -8.2721106987590617e-05 -0.00044064786722356462 0 0 -0.00034082698857506791 0.00035993346716322488 -0.00042357303475363623 0.00041745641217477654 3.170703044701445e-05 0 0.00023561330471158623 0 0 0 0.00042058697204378566 -0.00022507483337064869 0
leaf_weight=25 20 24 21 138 29 28 24 24 36 22 24 21 52 26 34 54 33 32 21 141 88 131 151 23 20 128 27 26 33 36 105 20 22 24 20 26 41 39 24
leaf_count=25 20 24 21 138 29 28 24 24 36 22 24 21 52 26 34 54 33 32 21 141 88 131 151 23 20 128 27 26 33 36 105 20 22 24 20 26 41 39 24
internal_value=0 -4.02743e-05 -0.000234909 2.7219e-05 1.98964e-05 -0.000759444 0 9.92413e-05 0 4.47955e-05 -8.89847e-05 -3.38195e-05 0 0.000133163 0 2.44397e-05 0.000197569 0.000327456 0.000495374 -5.43209e-07 -5.83394e-05 -0.000166914 0 5.69276e-05 -0.000143387 0.000113449 -6.9466e-05 -1.10836e-05 -0.000106034 0.000276338 0 0.000538127 0 -0.000228043 0.000243768 -0.000301305 0.000343196 -0.000161387 0
internal_weight=1813 606 181 425 1207 52 129 81 400 223 177 181 153 78 1146 880 144 86 53 736 424 185 239 312 43 269 266 239 193 60 134 42 160 48 46 59 61 75 58
internal_count=1813 606 181 425 1207 52 129 81 400 223 177 181 153 78 1146 880 144 86 53 736 424 185 239 312 43 269 266 239 193 60 134 42 160 48 46 59 61 75 58
is_linear=0
shrinkage=0.298099


Tree=24
num_leaves=18
num_cat=0
split_feature=11 13 4 9 16 9 11 13 9 19 7 7 15 11 6 13 3
split_gain=2.52306e-05 3.86426e-05 4.27001e-05 1.38155e-05 9.8637e-05 2.7789e-05 4.98221e-05 4.42051e-05 1.67615e-05 1.57486e-05 4.00556e-05 2.5364e-05 3.02957e-05 1.9106e-05 1.78584e-05 1.23242e-05 1.18337e-05
threshold=9.656371439781962 9.6667836842108787 13.857132117639182 0.01712821825843135 2.4450000000000007 0.01245881556392813 9.5558951902987932 9.6154387456230612 0.011858671825516245 1.5000000000000002 0.0044219800386123111 0.007125806770781202 1.9150000000000003 9.5758268698482123 13.768925197282169 9.5578055343826147 13.757351503371618
decision_type=2 2 2 2 2 2 2 2 2 2 2 2 2 2 2 2 2
left_child=3 2 -2 5 -5 8 -7 -8 9 10 15 13 -13 -11 -12 -1 -3
right_child=1 16 -4 4 -6 6 7 -9 -10 11 14 12 -14 -15 -16 -17 -18
leaf_value=0 0.00052095233851313797 -0.00022219080202875893 0 -0.00055876405952015303 6.6858910668150009e-05 -2.9548288145111079e-05 0.00043479272768798364 0 -0.00023626124593822742 -5.6898169487489774e-05 0.00021641687685921429 0 -0.00021862225405941738 2.7097573778305306e-05 0 -0.00011488138866398816 5.2270820300712941e-05
leaf_weight=68 34 20 21 32 30 30 55 23 32 395 118 68 121 570 76 100 20
leaf_count=68 34 20 21 32 30 30 55 23 32 395 118 68 121 570 76 100 20
internal_value=0 0.00014671 0.000315203 -1.06081e-05 -0.000151005 -1.3656e-06 0.000139422 0.000288423 -1.54502e-05 -6.42481e-06 4.12366e-05 -2.70765e-05 -0.000128006 -4.76346e-07 0.000142594 -3.6741e-05 0
internal_weight=1813 95 55 1718 62 1656 108 78 1548 1516 362 1154 189 965 194 168 40
internal_count=1813 95 55 1718 62 1656 108 78 1548 1516 362 1154 189 965 194 168 40
is_linear=0
shrinkage=0.298099


Tree=25
num_leaves=14
num_cat=0
split_feature=0 10 9 17 13 10 9 0 7 7 1 9 3
split_gain=2.94681e-05 7.02959e-05 6.4114e-05 0.000114369 0.000205931 2.40459e-05 2.41692e-05 1.70837e-05 6.02341e-05 5.46287e-05 4.90341e-05 2.44173e-05 2.36329e-05
threshold=0.012271362890331263 7.4229622797255628 0.017664202579274899 4.5000000000000009 9.5860220494488591 7.6107017796264289 0.0025111400653407322 0.0031152681567663269 0.004678451542805666 0.0035577747498042492 13.531156054857005 0.0029401927530869434 13.745624286748606
decision_type=2 2 2 2 2 2 2 2 2 2 2 2 2
left_child=2 -2 5 4 -4 6 -1 11 9 -9 -10 -8 -13
right_child=1 -3 3 -5 -6 -7 7 8 10 -11 -12 12 -14
leaf_value=0.0002816157467896744 -0.00066082664149459864 0 0 -2.6133302807165923e-05 0.0011890066303358927 0.00024209805612990134 -0.00026761929235347837 -7.3769968250339015e-05 0 0.00026802739209123421 -0.00029001612748921914 6.1118031883576339e-05 -2.2054202340131726e-05
leaf_weight=22 20 37 21 22 24 33 30 102 22 60 140 457 823
leaf_count=22 20 37 21 22 24 33 30 102 22 60 140 457 823
internal_value=0 -0.000211883 5.41042e-06 0.00029233 0.000593012 -2.10939e-06 -1.0972e-05 -1.89659e-05 -8.05984e-05 1.24419e-05 -0.000214087 0 2.50951e-06
internal_weight=1813 57 1756 67 45 1689 1656 1634 324 162 162 1310 1280
internal_count=1813 57 1756 67 45 1689 1656 1634 324 162 162 1310 1280
is_linear=0
shrinkage=0.298099


Tree=26
num_leaves=13
num_cat=0
split_feature=12 10 12 10 10 12 10 12 10 12 12 7
split_gain=2.02336e-05 5.28169e-05 5.8429e-05 4.84381e-05 2.98679e-05 2.87328e-05 4.75027e-05 4.19609e-05 1.46733e-05 1.37778e-05 9.4699e-06 2.91337e-06
threshold=7.6183886730053585 7.5998969523873461 7.5857202837306614 7.5808859570055569 7.5873383541931547 7.5705721086584292 7.5610201247209874 7.5508610035056227 7.5734644567617666 7.565044683267069 7.6084290396230516 0.0055354892366139387
decision_type=2 2 2 2 2 2 2 2 2 2 2 2
left_child=1 2 3 5 -4 6 7 -1 -7 -8 -3 -6
right_child=-2 10 4 -5 11 8 9 -9 -10 -11 -12 -13
leaf_value=5.1873467818124745e-06 -0.00026117419925194744 0.00042123763235136862 -0.00062161916170762744 0.00034200915639718307 0 -0.00032823278943731914 0.00032801549026480003 -0.00022475846042626336 0 0 0 -9.1023324644248535e-05
leaf_weight=1375 26 31 20 37 25 35 51 73 46 37 24 33
leaf_count=1375 26 31 20 37 25 35 51 73 46 37 24 33
internal_value=0 2.59095e-06 -2.82021e-06 5.21548e-06 -0.000256926 0 6.58679e-06 -1.89214e-06 -0.000175014 0.000220377 0.000291582 -1.66044e-05
internal_weight=1813 1787 1732 1654 78 1617 1536 1448 81 88 55 58
internal_count=1813 1787 1732 1654 78 1617 1536 1448 81 88 55 58
is_linear=0
shrinkage=0.298099


Tree=27
num_leaves=28
num_cat=0
split_feature=11 13 11 11 1 10 13 10 1 10 10 16 11 1 16 2 11 0 2 18 5 0 16 10 2 13 5
split_gain=1.51107e-05 4.54733e-05 5.89261e-05 3.50943e-05 3.42088e-05 0.000186124 0.000142248 9.87103e-05 3.45334e-05 2.68311e-05 2.59015e-05 4.28529e-05 2.55623e-05 2.50102e-05 1.96531e-05 1.26626e-05 3.46519e-05 1.15518e-05 7.754e-06 7.19828e-06 3.23571e-05 5.18046e-06 9.02604e-06 3.73539e-06 1.32529e-05 2.21702e-06 3.28087e-07
threshold=9.5517969226526578 9.5613387413896174 9.5599368356519054 9.5624398638649648 13.722846722649283 7.3247173755966708 9.5733084655840681 7.4037037690507219 13.523150671650429 7.2620744482722737 7.4859853125279798 -0.4649999999999998 9.5586635277862388 13.842639106953973 2.0950000000000002 13.469492658777286 9.5558951902987932 0.0015009402700876253 13.566407761759331 10.500000000000002 13.545668189207626 -0.0025890253255891334 2.1450000000000005 7.4757643126632631 13.772080863694045 9.5454243536478032 13.529826266839127
decision_type=2 2 2 2 2 2 2 2 2 2 2 2 2 2 2 2 2 2 2 2 2 2 2 2 2 2 2
left_child=9 2 12 -3 5 8 -7 -6 17 -1 11 -9 15 -12 -4 16 -2 -5 19 20 -11 -20 -23 26 -25 -24 -17
right_child=1 3 14 4 7 6 -8 10 -10 18 13 -13 -14 -15 -16 23 -18 -19 21 -21 -22 22 25 24 -26 -27 -28
leaf_value=-0.0003151297423274979 0 -0.0002653372034554132 0 0 -0.00061031328355451019 0 0.0012581561063335965 2.4929878101731062e-05 -0.00038274424512497546 0.00037608515646053682 7.3166920325985448e-05 -0.00016784948655565674 -0.00020058818717277508 -2.098630916177233e-05 0.00053903645330416624 -5.0255940322054087e-05 0.00050219748961326184 0.00022552142806423143 0 0 0 0 -0.00031497263461375039 0.00025332924832318108 0 0 0
leaf_weight=36 20 45 21 54 24 20 20 114 21 25 486 195 28 362 38 20 21 20 20 45 36 24 21 23 25 21 28
leaf_count=36 20 45 21 54 24 20 20 114 21 25 486 195 28 362 38 20 21 20 20 45 36 24 21 23 25 21 28
internal_value=0 9.18799e-06 0.000135437 -6.77584e-06 0 0.000144014 0.000693194 -1.41406e-05 -1.90336e-05 -7.27888e-05 0 -7.54891e-05 1.61295e-06 2.52266e-05 0.000397432 9.10792e-05 0.000234425 0 0 2.10233e-05 0.000105933 -8.63165e-05 -0.000129065 0 8.02258e-05 -0.000212483 -2.12811e-05
internal_weight=1813 1585 224 1361 1316 135 40 1181 95 228 1157 309 165 848 59 137 41 74 192 106 61 86 66 96 48 42 48
internal_count=1813 1585 224 1361 1316 135 40 1181 95 228 1157 309 165 848 59 137 41 74 192 106 61 86 66 96 48 42 48
is_linear=0
shrinkage=0.298099


Tree=28
num_leaves=23
num_cat=0
split_feature=0 18 10 2 11 11 4 10 17 10 1 17 0 0 0 3 10 1 11 7 3 4
split_gain=1.55176e-05 4.93241e-05 2.3775e-05 2.3239e-05 4.69886e-05 4.48151e-05 0.000118324 0.000129044 4.93759e-05 2.8725e-05 4.66739e-05 2.86527e-05 3.14775e-05 2.11514e-05 1.3679e-05 1.19814e-05 1.03771e-05 3.09792e-05 2.30308e-05 2.58302e-05 8.03184e-06 6.33491e-06
threshold=0.012271362890331263 7.5000000000000009 7.6136433797103322 13.805965017711451 9.6045052181599306 9.5886080347541913 13.725038505006699 7.4637789067363611 3.5000000000000004 7.5236811320327339 13.763690670584396 4.5000000000000009 -0.0019579061361474355 -0.0021598305722587692 0.0079576156708540697 13.771035931234318 7.5321122450537024 13.844583687511003 9.6525294939245754 0.0048531889556031882 13.899391936250687 13.782470570347074
decision_type=2 2 2 2 2 2 2 2 2 2 2 2 2 2 2 2 2 2 2 2 2 2
left_child=2 -2 3 5 11 9 -7 13 -9 10 14 12 -5 -8 -1 -11 18 -18 19 -6 -19 -17
right_child=1 -3 -4 4 16 6 7 8 -10 15 -12 -13 -14 -15 -16 21 17 20 -20 -21 -22 -23
leaf_value=0 -0.00039353971334067303 0 0.0002525229159005109 0 0 0.0008094050187933483 -0.00025240476724646202 0.00056937458458900902 0 0.00027181931036572788 -0.00029643573083908272 0 -0.00042699134811816607 0 -0.00018188606361243501 -1.9338076444772865e-05 0.00038379194164025251 2.6606599167612839e-05 0 -0.00039588892134166204 -0.00010545424993369749 8.7212984141151105e-05
leaf_weight=713 37 20 33 36 28 22 49 46 39 37 57 43 61 107 37 37 20 204 32 32 51 72
leaf_count=713 37 20 33 36 28 22 49 46 39 37 57 43 61 107 37 37 20 204 32 32 51 72
internal_value=0 -0.000155101 1.37403e-06 0 -5.67974e-05 1.87802e-05 0.000129144 3.92162e-05 0.000352497 -4.79809e-06 -3.32412e-05 -0.000203612 -0.000293259 -8.9598e-05 -4.40652e-06 0.000107286 0 2.82769e-05 -8.7272e-05 -0.00021371 0 0
internal_weight=1813 57 1756 1723 507 1216 263 241 85 953 807 140 97 156 750 146 367 275 92 60 255 109
internal_count=1813 57 1756 1723 507 1216 263 241 85 953 807 140 97 156 750 146 367 275 92 60 255 109
is_linear=0
shrinkage=0.298099


Tree=29
num_leaves=29
num_cat=0
split_feature=12 11 12 3 7 2 15 11 9 9 11 7 11 9 9 9 7 1 7 11 3 2 18 11 12 11 9 1
split_gain=1.44252e-05 1.65574e-05 3.93702e-05 3.30763e-05 1.57421e-05 3.6112e-05 1.84509e-05 1.87423e-05 1.22205e-05 9.84148e-06 2.26803e-05 2.02701e-05 1.88775e-05 3.79566e-05 3.19016e-05 1.45577e-05 2.73978e-05 2.43271e-05 1.53195e-05 2.55486e-05 1.27991e-05 1.0859e-05 9.75645e-06 8.52776e-06 8.51881e-06 3.54197e-06 2.14519e-06 2.03117e-07
threshold=7.6136433797103322 9.6081428631848684 7.4055621629667829 13.753102956218294 0.0063043324124652704 13.875193449190073 5.1250000000000009 9.6525294939245754 0.0067384613910113295 0.0053267638563647144 9.5517969226526578 0.003145793170070662 9.5815038603400726 0.0086220801118344573 0.00713480050394246 0.0047163953677566367 0.0051210892706090956 13.758410825801759 0.0021470480363626012 9.5758268698482123 13.466661799134894 13.797855493232955 9.5000000000000018 9.5653434258660983 7.3475960468999784 9.5581587040874094 0.011946212926328323 13.899391936250687
decision_type=2 2 2 2 2 2 2 2 2 2 2 2 2 2 2 2 2 2 2 2 2 2 2 2 2 2 2 2
left_child=1 9 -3 -4 6 -6 8 -8 -5 15 20 21 14 -14 -13 16 18 25 22 -20 -11 23 -1 -12 -22 -17 -26 -7
right_child=-2 2 3 4 5 27 7 -9 -10 10 11 12 13 -15 -16 17 -18 -19 19 -21 24 -23 -24 -25 26 -27 -28 -29
leaf_value=0.00014867747499884424 -0.00018485571758509583 0.00035662016051336566 -0.00023910819940767776 0 0.00025229331675214578 -2.6771712649772939e-05 -0.00021313534342414292 0 0.00017262372093570309 -0.00042124397121208533 0 -3.8987250095127013e-05 1.0491949042548758e-06 -0.00022961136588840622 0.00011493720827888799 0 0.00030341602883045932 0 -0.00016148343696605402 0 0 0 0 -0.00025125282178079552 0 0.00033205198985037895 -0.0002228064775971353 0
leaf_weight=41 37 37 35 148 88 25 57 37 60 22 20 121 124 74 290 26 21 45 156 69 34 24 25 55 59 35 22 26
leaf_count=41 37 37 35 148 88 25 57 37 60 22 20 121 124 74 290 26 21 45 156 69 34 24 25 55 59 35 22 26
internal_value=0 2.51622e-06 5.04806e-05 1.27484e-05 4.77309e-05 0.000131424 0 -9.94847e-05 5.8294e-05 -1.17653e-05 -3.33548e-05 -2.10429e-06 8.4545e-06 -5.21143e-05 5.3634e-05 1.61517e-05 0 0.000114937 -4.07902e-05 -8.94671e-05 -0.000146707 -0.000133242 2.55989e-05 -0.000190409 -3.65185e-05 0.00024137 -0.000105909 0
internal_weight=1813 1776 513 476 441 139 302 94 208 1263 845 708 609 198 411 418 312 106 291 225 137 99 66 75 115 61 81 51
internal_count=1813 1776 513 476 441 139 302 94 208 1263 845 708 609 198 411 418 312 106 291 225 137 99 66 75 115 61 81 51
is_linear=0
shrinkage=0.298099


Tree=30
num_leaves=24
num_cat=0
split_feature=0 13 6 11 11 15 0 0 17 0 17 15 17 16 16 16 2 0 11 15 2 15 18
split_gain=1.08907e-05 7.34803e-05 5.37306e-05 0.000144822 3.09488e-05 3.03643e-05 4.0733e-05 2.60759e-05 2.63627e-05 1.91933e-05 7.40058e-05 6.35941e-05 1.44123e-05 3.74087e-05 1.96905e-05 1.16274e-05 1.16456e-05 1.03724e-05 9.70774e-06 6.84269e-06 4.40842e-06 3.83128e-06 2.61248e-06
threshold=-0.0031982978781490696 9.670893148972409 13.631453067500177 9.5573689635009522 9.6626413537831528 1.5700000000000003 -0.0095797644544139953 -0.0022142766101378437 2.5000000000000004 0.0075309749180769723 2.5000000000000004 3.3000000000000003 2.5000000000000004 2.1650000000000005 2.1450000000000005 1.7800000000000002 13.764743302552128 0.0096203531406642302 9.5786988033543441 2.9900000000000007 13.876135069054055 5.3500000000000005 7.5000000000000009
decision_type=2 2 2 2 2 2 2 2 2 2 2 2 2 2 2 2 2 2 2 2 2 2 2
left_child=2 4 3 19 7 18 22 8 -2 12 11 -11 13 -9 -14 21 -17 -12 -4 -1 -18 -8 -7
right_child=1 -3 5 -5 -6 6 15 9 -10 10 17 -13 14 -15 -16 16 20 -19 -20 -21 -22 -23 -24
leaf_value=0 -0.00037993748980025581 -0.00051841328843607235 0.000293153111388537 0.00070294338256170989 0.00032914582669367454 -0.00037879230406457509 0.00011873112516445509 0 0 -0.00057781478244861616 -1.342614172007727e-05 0 2.3734846607005559e-05 0.00014637255127642558 -7.3842186586392145e-05 0 -0.00029913430826091332 0.00011963544490383426 0 -0.0001694244647389763 0 0 0
leaf_weight=20 33 25 29 37 24 34 64 283 27 41 37 25 388 221 289 27 21 64 36 21 25 21 21
leaf_count=20 33 25 29 37 24 34 64 283 27 41 37 25 388 221 289 27 21 64 36 21 25 21 21
internal_value=0 -1.2791e-05 4.5252e-05 0.000265328 0 0 -7.02789e-05 -9.61755e-06 -0.000201659 0 -9.55377e-05 -0.000349811 1.23313e-05 5.29689e-05 -8.21874e-06 0 -8.00456e-05 5.97446e-06 0.000158876 0 -0.000180446 8.1394e-05 -0.000290988
internal_weight=1813 1457 356 78 1432 278 213 1408 60 1348 167 66 1181 504 677 158 73 101 65 41 46 85 55
internal_count=1813 1457 356 78 1432 278 213 1408 60 1348 167 66 1181 504 677 158 73 101 65 41 46 85 55
is_linear=0
shrinkage=0.298099


Tree=31
num_leaves=21
num_cat=0
split_feature=10 12 12 12 10 10 12 10 10 12 10 12 12 10 12 12 10 4 12 10
split_gain=1.77124e-05 0.00020149 9.84015e-05 2.45285e-05 0.00016024 7.77311e-05 5.91828e-05 6.05745e-05 5.47918e-05 4.8395e-05 2.29972e-05 5.54245e-05 5.07485e-05 2.32198e-05 0.000104467 4.76314e-05 3.1714e-05 2.1581e-05 1.60754e-06 1.12707e-05
threshold=7.4833259648608852 7.4833259648608852 7.484180381456194 7.4603838559668914 7.4555963008608535 7.4619535546207709 7.4389745282056809 7.448217365090799 7.4300281323809525 7.3993736172837403 7.492481704982473 7.4891381499454175 7.4943551284733934 7.5107999349534724 7.5134337046150366 7.5056655213046692 7.5420305131308458 13.757351503371618 7.4710215277311134 7.4795000673098269
decision_type=2 2 2 2 2 2 2 2 2 2 2 2 2 2 2 2 2 2 2 2
left_child=2 -2 3 4 6 -5 8 17 9 -1 11 -3 -12 15 -15 -14 -16 -8 -7 -20
right_child=1 10 -4 5 -6 18 7 -9 -10 -11 12 -13 13 14 16 -17 -18 -19 19 -21
leaf_value=1.0438901502500792e-05 0.00084006530155319255 0 -0.00067582860077792313 -0.00067306738266240487 0.0005740128406441469 0 -0.00078077990769917624 0 0.00041307611142997431 -0.00025921877915747842 0.00035627613418056037 -0.00043219128262608151 0 0.00054776998415190627 -0.00010390559709594775 -0.0003470146184882846 3.7910204821655548e-05 0 -0.00016669691027434397 0
leaf_weight=438 26 39 21 20 42 42 21 34 28 64 37 36 100 32 194 49 502 22 41 25
leaf_count=438 26 39 21 20 42 42 21 34 28 64 37 36 100 32 194 49 502 22 41 25
internal_value=0 2.3754e-05 -3.54161e-05 -9.49239e-06 4.58699e-06 -0.000132076 -2.41462e-05 -0.000269676 0 -1.09293e-05 0 -0.000156163 1.51608e-05 0 2.26457e-05 -0.000106433 0 -0.000504614 0 -4.64588e-05
internal_weight=1813 1015 798 777 649 128 607 77 530 502 989 75 914 877 728 149 696 43 108 66
internal_count=1813 1015 798 777 649 128 607 77 530 502 989 75 914 877 728 149 696 43 108 66
is_linear=0
shrinkage=0.298099


Tree=32
num_leaves=42
num_cat=0
split_feature=11 1 14 4 9 1 18 11 11 13 11 9 7 12 7 7 4 1 1 4 12 11 9 6 12 7 9 7 9 7 9 7 1 1 7 9 12 7 1 7 7
split_gain=7.92229e-06 4.85174e-05 1.73932e-05 2.4956e-05 1.54402e-05 1.22303e-05 1.86234e-05 1.50956e-05 1.35544e-05 1.17534e-05 4.34775e-05 1.68229e-05 2.32201e-05 1.63846e-05 1.88433e-05 3.56099e-05 1.08841e-05 5.7206e-05 1.30656e-05 2.17205e-05 1.44074e-05 1.54955e-05 1.39711e-05 1.3005e-05 1.46617e-05 2.44979e-05 1.23338e-05 1.07752e-05 9.47769e-06 1.62332e-05 8.31734e-06 8.20899e-06 6.19864e-06 5.92786e-06 5.60889e-06 5.54628e-06 5.51862e-06 4.21522e-06 1.18345e-06 9.51711e-07 2.22408e-07
threshold=9.6081428631848684 13.730497035470227 4.3750000000000009 13.812004292755356 0.0051679418686678639 13.882701698222638 1.5000000000000002 9.6511434684885433 9.6146481373945125 9.5613387413896174 9.5621620434012353 0.0051679418686678639 0.0035577747498042492 7.3682828935867422 0.005694563682639554 0.0041012391032820049 13.727225493956963 13.537778598522049 13.763690670584396 13.766845248204922 7.5508610035056227 9.5900328742311824 0.005762522972108928 13.752093795552957 7.4603838559668914 0.0051913748567704509 0.0058568024652049721 0.0061439895876597922 0.0092931994855851383 0.010276010884587622 0.0040565276707667909 0.0021470480363626012 13.432051260978627 13.407166238386717 0.0066180876327515516 0.0097625756220265838 7.4555963008608535 0.007125806770781202 13.768942784946647 0.0092284661722068662 0.007125806770781202
decision_type=2 2 2 2 2 2 2 2 2 2 2 2 2 2 2 2 2 2 2 2 2 2 2 2 2 2 2 2 2 2 2 2 2 2 2 2 2 2 2 2 2
left_child=9 -2 4 28 -3 6 -5 27 -8 10 11 12 31 14 15 -13 17 32 23 -20 21 -21 -22 24 25 -18 -25 -7 -4 -30 -14 -1 33 -11 -16 -26 -19 -9 39 -15 -40
right_child=1 2 3 5 -6 7 8 37 -10 16 -12 13 30 38 34 -17 18 36 19 20 22 -23 -24 26 35 -27 -28 -29 29 -31 -32 -33 -34 -35 -36 -37 -38 -39 40 -41 -42
leaf_value=8.2018376963588125e-05 0.00048644567041123722 0 0 -1.7529607440300782e-05 0.00022353773223559903 0 0 0.00013959424731413382 0.00017010594790131252 0 0.00035144044873158261 0 0 5.8112813774594892e-05 6.5456091856546029e-05 -0.00048370954270152654 0.00037821510090738401 -0.00040298082976534725 -0.00031728490210171563 0.00015167967973158045 -0.00024329826549438922 0 0 0 -7.7932105103249073e-05 0 0.00028301044095008389 -0.00026586521693423908 -0.00042496153415616387 0 0.000300155144665025 -0.00010012451551512917 0.00014744664485439053 -0.00012639149564111989 -7.8766458030701689e-05 0 0 0 -2.8587534787693255e-05 0 0
leaf_weight=29 20 26 40 31 57 76 36 21 131 43 32 31 23 56 29 30 21 47 29 65 41 90 135 46 155 21 30 34 25 21 39 53 25 33 60 25 20 20 24 23 20
leaf_count=29 20 26 40 31 57 76 36 21 131 43 32 31 23 56 29 30 21 47 29 65 41 90 135 46 155 21 30 34 25 21 39 53 25 33 60 25 20 20 24 23 20
internal_value=0 2.9381e-05 0 -1.17682e-05 0.000133627 6.50034e-06 6.90929e-05 -3.20696e-05 0.000124501 -1.37022e-05 1.57513e-05 0 7.10395e-05 -5.29975e-05 -0.000121671 -0.000252401 -3.76706e-05 -0.000111433 -8.82254e-06 -5.39005e-05 -1.08089e-05 2.81167e-05 -8.24019e-05 2.35839e-05 0 0.000142222 0.000131706 -0.000115061 -0.00016205 -0.000259308 0.000211859 0 0 -6.61174e-06 0 -4.99542e-05 -0.000326727 3.04616e-05 0 3.64434e-05 0
internal_weight=1813 538 518 435 83 349 198 151 167 1275 449 417 144 273 150 61 826 168 658 360 331 155 176 298 222 42 76 110 86 46 62 82 101 76 89 180 67 41 123 79 44
internal_count=1813 538 518 435 83 349 198 151 167 1275 449 417 144 273 150 61 826 168 658 360 331 155 176 298 222 42 76 110 86 46 62 82 101 76 89 180 67 41 123 79 44
is_linear=0
shrinkage=0.298099


Tree=33
num_leaves=13
num_cat=0
split_feature=10 12 10 12 12 10 10 12 10 10 1 2
split_gain=9.86097e-06 5.44869e-05 1.92818e-05 2.94172e-05 2.90425e-05 3.08291e-05 2.1513e-05 3.35927e-05 0.000146827 0.000135237 3.21747e-05 2.91797e-08
threshold=7.6183886730053585 7.6107017796264289 7.5938048157713078 7.5958069980380136 7.5819668018720021 7.5849890095011157 7.5688724277071158 7.5342684090976659 7.5379466851430124 7.525103441942834 13.842639106953973 13.870472004050361
decision_type=2 2 2 2 2 2 2 2 2 2 2 2
left_child=1 2 4 -4 6 -6 7 9 -9 -1 -8 -12
right_child=-2 -3 3 -5 5 -7 10 8 -10 -11 11 -13
leaf_value=-9.5322609691072907e-06 0.00017493781395853296 -0.00049202896109731776 0.00044959779642646301 0 -0.00047104746838325925 0 0.00036620473937786857 -0.00067379920518776618 0 0.00040254379554937106 0 7.4132102772203331e-06
leaf_weight=1194 27 20 21 37 24 51 35 35 222 74 26 47
leaf_count=1194 27 20 21 37 24 51 35 35 222 74 26 47
internal_value=0 -4.98436e-06 0 0.00016931 -5.16523e-06 -0.000186904 0 -5.8702e-06 -0.000106663 9.3866e-06 0.000131093 0
internal_weight=1813 1786 1766 58 1708 75 1633 1525 257 1268 108 73
internal_count=1813 1786 1766 58 1708 75 1633 1525 257 1268 108 73
is_linear=0
shrinkage=0.298099


Tree=34
num_leaves=35
num_cat=0
split_feature=7 12 17 10 7 10 17 13 10 16 0 11 12 12 12 10 13 12 10 10 0 7 11 12 10 10 12 4 4 11 12 13 9 7
split_gain=8.84632e-06 4.56386e-05 0.000217534 4.83382e-05 2.21944e-05 6.12578e-05 2.11779e-05 2.90015e-05 5.16194e-05 6.09454e-05 5.03784e-05 4.95619e-05 2.92232e-05 2.32633e-05 1.60651e-05 1.86059e-05 1.95537e-05 1.46989e-05 4.16763e-05 3.1418e-05 2.78059e-05 3.97771e-05 2.49101e-05 1.50779e-05 4.1828e-05 3.52804e-05 1.44052e-05 1.23956e-05 1.17291e-05 2.46911e-05 4.51292e-06 7.95535e-06 2.49361e-06 3.74639e-07
threshold=0.0082573636701654147 7.3296016036905955 3.5000000000000004 7.4145608156475999 0.007125806770781202 7.455168343483547 1.5000000000000002 9.5573689635009522 7.4891381499454175 -0.4649999999999998 0.0019617697042386699 9.5488284324423294 7.557538134616272 7.5356757001997208 7.4885816652611217 7.5714375901458473 9.5556130563668003 7.4833259648608852 7.4814176503991741 7.4943551284733934 1.0000000180025095e-35 0.0055602661782953667 9.5662475210826443 7.5142764511755642 7.5476282535228068 7.5107999349534724 7.492481704982473 13.869525034070326 13.754166786406854 9.5646363554882203 7.5056655213046692 9.5747160787320684 0.010789544358638657 0.0049186297704509928
decision_type=2 2 2 2 2 2 2 2 2 2 2 2 2 2 2 2 2 2 2 2 2 2 2 2 2 2 2 2 2 2 2 2 2 2
left_child=4 2 -2 -3 6 -6 7 11 9 -9 12 -1 -10 -12 28 16 -16 18 20 26 22 -22 -8 25 -25 -21 33 -17 29 -5 -7 -32 -18 -19
right_child=1 3 -4 14 5 30 17 8 10 -11 13 -13 -14 -15 15 27 32 19 -20 23 21 -23 -24 24 -26 -27 -28 -29 -30 -31 31 -33 -34 -35
leaf_value=-5.4054646359598922e-05 0.00094685706298576412 -0.00033085984761827274 -0.00014795292861459328 0 -0.00042524759578355266 0.00010030449431996865 0.00017866753281008498 0 0.00019954166599788818 -0.00040880818117352863 0 0.00035366146977954433 0 -0.00048273654533632665 0 0.000230215180550149 0 -3.4995764266743139e-05 0.00045736173627339261 0 0 -0.00035307704475553081 0 -0.000153689777570998 5.5906087266470244e-05 0.00041120953187782461 -0.00043184246303174873 0 0 0.00039839192449324368 0 -0.00014237143730359015 -0.00026628876222015526 0
leaf_weight=38 26 35 22 20 42 31 139 29 82 82 20 36 64 25 20 35 28 27 25 95 106 32 130 125 243 27 21 34 21 32 22 39 40 20
leaf_count=38 26 35 22 20 42 31 139 29 82 82 20 36 64 25 20 35 28 27 25 95 106 32 130 125 243 27 21 34 21 32 22 39 40 20
internal_value=0 4.27989e-05 0.000309961 0 -1.18999e-05 -0.000127599 0 -6.07394e-05 -0.000111131 -0.000273537 0 5.60479e-05 6.79735e-05 -0.000290055 4.39202e-05 0 -0.000100473 2.2338e-05 6.45409e-05 0 2.40696e-05 -5.87763e-05 9.10068e-05 1.57465e-05 0 0.000109365 -0.0001979 0.00010503 0.00015992 0.000236304 0 -3.77729e-05 -0.000196317 0
internal_weight=1813 313 48 265 1500 134 1366 376 302 111 191 74 146 45 230 157 88 990 432 558 407 138 269 490 368 122 68 69 73 52 92 61 68 47
internal_count=1813 313 48 265 1500 134 1366 376 302 111 191 74 146 45 230 157 88 990 432 558 407 138 269 490 368 122 68 69 73 52 92 61 68 47
is_linear=0
shrinkage=0.298099


Tree=35
num_leaves=24
num_cat=0
split_feature=12 11 12 13 11 3 12 6 12 13 15 3 15 17 13 11 12 7 17 12 11 9 11
split_gain=6.15598e-06 7.42754e-06 5.41745e-05 1.43382e-05 1.05417e-05 1.66699e-05 7.99726e-06 1.75685e-05 7.47542e-06 1.57533e-05 5.12012e-06 1.54571e-05 8.32317e-06 2.50988e-05 2.43042e-05 2.41226e-05 1.01309e-05 1.83316e-05 1.4194e-05 3.17644e-06 2.28565e-06 2.56297e-06 2.52073e-06
threshold=7.6183886730053585 9.6251945968358132 7.3936191355426724 9.6221519645946643 9.6469649422029526 13.765794827650517 7.5244424924830513 13.873147438351561 7.490950864966889 9.6568002662562105 3.4800000000000009 13.535134841696417 1.7150000000000001 5.5000000000000009 9.5749800264105485 9.560576407909755 7.5010379243269911 0.0060993349761905733 1.5000000000000002 7.4474394580020764 9.5951672099379426 0.0049400378038772742 9.60624225450929
decision_type=2 2 2 2 2 2 2 2 2 2 2 2 2 2 2 2 2 2 2 2 2 2 2
left_child=1 3 -3 10 6 -6 19 -8 -7 -10 12 -12 16 14 -14 -15 18 -18 -1 -4 21 -13 -22
right_child=-2 2 4 -5 5 8 7 -9 9 -11 11 20 13 15 -16 -17 17 -19 -20 -21 22 -23 -24
leaf_value=0 -0.00014454269393187783 0.00051814570849110142 4.6989350150932751e-05 -0.0002505268095131922 -0.00021906096831965006 0.00013946176441809036 0.00033586395181648017 0 -0.00015665050957580444 2.5966338578611938e-06 0.00028849948295507329 0 -2.5045992989068204e-05 0 -0.00023074217008798919 0.0002349257257549743 -9.5563140304673566e-05 4.5457730442148914e-05 0.00011707615551471778 -8.1009981175723931e-05 7.5988513686013327e-05 -8.5172628929633081e-05 0
leaf_weight=59 26 20 32 21 36 30 26 69 60 38 20 25 476 44 82 49 157 113 157 32 64 39 138
leaf_count=59 26 20 32 21 36 30 26 69 60 38 20 25 476 44 82 49 157 113 157 32 64 39 138
internal_value=0 0 4.19738e-05 -6.1943e-06 0 -3.94113e-05 6.54432e-05 0.000120949 0 -2.8047e-05 0 3.27172e-05 -1.14334e-05 -3.62362e-05 -6.71187e-05 7.8268e-05 8.26788e-06 -1.22177e-05 6.42768e-05 0 0 -2.96692e-05 2.69285e-05
internal_weight=1813 1787 343 1444 323 164 159 95 128 98 1423 286 1137 651 558 93 486 270 216 64 266 64 202
internal_count=1813 1787 343 1444 323 164 159 95 128 98 1423 286 1137 651 558 93 486 270 216 64 266 64 202
is_linear=0
shrinkage=0.298099


Tree=36
num_leaves=27
num_cat=0
split_feature=10 1 6 13 10 10 1 4 10 9 6 10 19 2 9 2 15 13 6 9 13 9 9 9 13 8
split_gain=9.30867e-06 8.55107e-05 6.68954e-05 0.000141272 3.68217e-05 1.72198e-05 5.40893e-05 4.58082e-05 9.79235e-06 8.95267e-06 7.5076e-05 1.75024e-05 2.12852e-05 2.02704e-05 1.9715e-05 1.87363e-05 1.60605e-05 6.64338e-06 5.34617e-06 4.61108e-06 3.98583e-06 7.43514e-06 3.8513e-06 1.77292e-06 1.70595e-06 1.23781e-06
threshold=7.3247173755966708 13.539097860501139 13.631453067500177 9.5420754357130786 7.4055621629667829 7.2541354078396152 13.523150671650429 13.413912891611867 7.3122332158910126 0.015400565453588429 13.797603858246744 7.5313487153467618 2.5000000000000004 13.784535620676236 0.0081161641169229127 13.874250941842186 1.5450000000000002 9.5513343522811436 13.92844781118688 0.0037486401730751199 9.564945788143822 0.0051679418686678639 0.010846390034360543 0.0086220801118344573 9.5966532545066272 13.403609885684959
decision_type=2 2 2 2 2 2 2 2 2 2 2 2 2 2 2 2 2 2 2 2 2 2 2 2 2 2
left_child=1 5 3 22 -4 7 17 19 -8 11 -11 12 14 -14 -6 16 -13 -7 -17 25 21 -21 -2 -9 -12 -1
right_child=2 -3 4 -5 9 6 8 23 -10 10 24 15 13 -15 -16 18 -18 -19 -20 20 -22 -23 -24 -25 -26 -27
leaf_value=-7.3327740485320411e-05 3.0907028591442887e-05 -0.00047282804499033644 -0.00030982833464667306 0.00076026268575591944 -1.0941872638265654e-05 0 -0.00012196240800263126 -0.00042559347621944977 4.5166557134234188e-05 0.00060823646871851318 -8.2666647533506915e-05 0 5.198974545767794e-05 -9.4229300007557434e-05 -0.00020578037631513452 0 0.00012281739642684038 0.00055020307755740893 -0.0001372801023678243 0.00022861615257524747 0 0 -0.0001234662988792958 0 0 0
leaf_weight=21 36 37 34 32 242 29 55 26 24 20 22 91 301 111 106 155 247 21 27 27 22 27 20 20 30 30
leaf_count=21 36 37 34 32 242 29 55 26 24 20 22 91 301 111 106 155 247 21 27 27 22 27 20 20 30 30
internal_value=0 -4.58877e-05 8.75455e-06 0.000261888 -2.60681e-06 0 8.86757e-05 -5.44996e-05 0 2.97749e-07 0.000104972 -4.68508e-07 -3.40622e-05 0 -8.92497e-05 3.59852e-05 8.24927e-05 0.000340619 -1.42927e-05 0 7.2988e-05 0.000118436 0 -0.000315086 0 -8.73638e-06
internal_weight=1813 339 1474 88 1386 302 129 173 79 1352 72 1280 760 412 348 520 338 50 182 127 76 54 56 46 52 51
internal_count=1813 339 1474 88 1386 302 129 173 79 1352 72 1280 760 412 348 520 338 50 182 127 76 54 56 46 52 51
is_linear=0
shrinkage=0.298099


Tree=37
num_leaves=36
num_cat=0
split_feature=11 6 3 5 7 10 3 11 3 7 7 7 10 3 10 15 11 7 10 2 7 3 10 13 11 11 13 13 3 6 10 3 5 10 11
split_gain=9.89039e-06 1.71908e-05 1.60278e-05 2.60039e-05 1.32934e-05 2.12597e-05 5.59979e-05 3.54036e-05 2.49282e-05 2.02207e-05 1.75329e-05 1.92961e-05 1.51265e-05 1.24826e-05 1.72203e-05 2.4154e-05 2.07459e-05 1.96034e-05 1.09998e-05 2.03782e-05 9.26087e-06 9.16895e-06 1.05369e-05 7.15335e-06 8.23743e-06 6.2339e-06 5.73373e-06 1.22131e-05 5.4659e-06 4.76355e-06 3.27623e-06 1.19863e-05 2.85958e-06 3.22701e-07 2.98554e-07
threshold=9.6016727433639488 13.722677515958463 13.738089265061442 13.757351503371618 0.0053674408367717858 7.455168343483547 13.544357572467691 9.5570457823780846 13.738089265061442 0.0060380313589864926 0.0034971545340396473 0.0027366581348324454 7.4973458708302276 13.795817794597129 7.294591269985939 2.6250000000000004 9.5563756899948107 0.0039825071769985709 7.5803221294449159 13.927498959995624 0.0047375786293245249 13.86525219720675 7.4891381499454175 9.5545752621443629 9.5742505915865657 9.6251945968358132 9.5906128645813826 9.5786988033543441 13.413912891611867 13.751652742728561 7.2541354078396152 13.49116354462141 13.74132551478216 7.2011186673583358 9.5398389083289103
decision_type=2 2 2 2 2 2 2 2 2 2 2 2 2 2 2 2 2 2 2 2 2 2 2 2 2 2 2 2 2 2 2 2 2 2 2
left_child=4 -2 -3 29 10 6 30 34 -7 -10 11 26 28 14 16 17 -12 -16 21 -20 -17 22 -5 -11 -25 -23 27 32 -13 -4 33 -32 -1 -6 -8
right_child=1 2 3 18 5 8 7 -9 9 23 13 12 -14 -15 15 20 -18 -19 19 -21 -22 25 -24 24 -26 -27 -28 -29 -30 -31 31 -33 -34 -35 -36
leaf_value=4.2151729780241199e-05 0.00030992585963806035 -0.00020808154440084012 0.00034599558929000138 -5.8244481451950715e-05 0 0.00019470525371887684 -3.6255569359202909e-05 -0.00059219689459520837 -0.00020792026300839471 0.00010709825663123587 -0.00022251470158263673 0 0 0 0.00021694427538456465 0.00038722909509316349 8.9757556679930208e-05 0 0.00016488714067443001 0 0 -0.00019918348957261107 5.748530976033338e-05 -0.0001012679234020598 0 0 -0.00010902801452977026 0.00024605054265832322 -0.00023966422339470828 0 0.00021772368274282171 0 -3.7025219970460519e-05 -0.00010872103062885461 0
leaf_weight=91 20 24 26 112 23 45 20 33 53 42 31 25 41 37 38 44 37 122 97 35 20 38 168 86 96 83 21 22 70 32 24 48 67 20 22
leaf_count=91 20 24 26 112 23 45 20 33 53 42 31 25 41 37 38 44 37 122 97 35 20 38 168 86 96 83 21 22 70 32 24 48 67 20 22
internal_value=0 2.61477e-05 6.14185e-06 2.60247e-05 -1.94261e-05 -5.63423e-05 -0.000135951 -0.000336066 0 -4.25689e-05 0 -3.79902e-05 -0.00012714 5.70497e-05 8.63899e-05 0.000128658 0 1.85432e-05 0 7.93047e-05 0.000300666 -1.90863e-05 0 0 -2.88679e-05 -8.90479e-05 0 3.78187e-05 -0.000193002 0.000215864 0 3.35478e-05 0 -6.9718e-05 0
internal_weight=1813 635 615 591 1178 512 190 75 322 277 666 337 136 329 292 224 68 160 533 132 64 401 280 224 182 121 201 180 95 58 115 72 158 43 42
internal_count=1813 635 615 591 1178 512 190 75 322 277 666 337 136 329 292 224 68 160 533 132 64 401 280 224 182 121 201 180 95 58 115 72 158 43 42
is_linear=0
shrinkage=0.298099


Tree=38
num_leaves=26
num_cat=0
split_feature=0 13 9 13 1 9 15 0 15 0 12 13 0 0 4 12 14 12 13 9 13 14 4 13 9
split_gain=1.08009e-05 4.1e-05 4.08283e-05 3.72047e-05 4.67915e-05 2.14491e-05 1.87794e-05 2.28396e-05 1.77273e-05 1.38155e-05 1.09223e-05 1.43785e-05 1.57934e-05 3.01744e-05 1.9902e-05 1.50765e-05 3.84245e-05 2.64272e-05 8.55246e-06 8.58078e-06 6.90845e-06 6.76764e-06 6.02641e-06 5.67327e-06 2.24674e-06
threshold=-0.0031982978781490696 9.6722488056425231 0.0087712618302225893 9.5906128645813826 13.771035931234318 0.014715751545726394 1.5700000000000003 -0.0053872208591743123 3.4300000000000006 -0.0028544269418819819 7.5657389047075219 9.5769087143042775 0.004208346739024372 0.0079576156708540697 13.544357572467691 7.4237833151158155 4.6250000000000009 7.441038267570387 9.6486372303328505 0.0047163953677566367 9.5754000650630751 3.6250000000000004 13.804954916357813 9.5613387413896174 0.0060015844589347061
decision_type=2 2 2 2 2 2 2 2 2 2 2 2 2 2 2 2 2 2 2 2 2 2 2 2 2
left_child=2 9 6 5 -5 23 20 8 21 -2 11 12 14 -14 -11 16 -13 -17 19 -12 -1 -8 -21 -4 -9
right_child=1 -3 3 4 -6 -7 7 24 -10 10 18 15 13 -15 -16 17 -18 -19 -20 22 -22 -23 -24 -25 -26
leaf_value=0.00023177164594503756 -0.00018698897975971362 -0.00043299441430724137 0.00027901458394228727 0.0007426006881308012 0 -0.00018625152341496365 0 6.5749771851976305e-05 0 1.262800357438154e-06 0 0.00051828485788225659 0.00018694385920952432 -2.2893114845948238e-05 -9.5534282330080237e-05 -0.00025998534113240668 0 4.8071900347492654e-05 0 0 0 -0.00032840998668672841 -0.00013513967276633507 0 0
leaf_weight=24 36 21 20 21 34 24 21 46 43 193 40 22 90 64 299 22 26 440 27 20 25 48 157 20 30
leaf_count=24 36 21 20 21 34 24 21 46 43 193 40 22 90 64 299 22 26 440 27 20 25 48 157 20 30
internal_value=-1.06673e-06 -1.58402e-05 4.09143e-05 0.000188114 0.000369242 0 -5.36407e-06 -7.25476e-05 -0.000164075 -5.1072e-06 0 1.1691e-05 -9.86342e-06 5.71722e-05 -4.42182e-05 5.18743e-05 0.000229795 1.90795e-05 -5.76859e-05 -8.50923e-05 0.00011803 -0.000257726 -0.000114799 0.000162961 0
internal_weight=1813 1457 356 119 55 64 237 188 112 1436 1400 1156 646 154 492 510 48 462 244 217 49 69 177 40 76
internal_count=1813 1457 356 119 55 64 237 188 112 1436 1400 1156 646 154 492 510 48 462 244 217 49 69 177 40 76
is_linear=0
shrinkage=0.298099


Tree=39
num_leaves=20
num_cat=0
split_feature=0 18 11 2 13 0 7 9 11 13 7 13 14 9 13 7 9 18 9
split_gain=7.8611e-06 2.7253e-05 9.87027e-06 2.35346e-05 7.32111e-06 1.04128e-05 4.08326e-05 5.8943e-06 5.7656e-06 1.43976e-05 1.94098e-05 1.45629e-05 1.19979e-05 2.38793e-06 7.81385e-06 1.02609e-06 9.13074e-07 1.16782e-06 6.61617e-07
threshold=0.012678461798070197 7.5000000000000009 9.6635537792253299 13.764743302552128 9.5513343522811436 0.0075309749180769723 0.0047375786293245249 0.0069552316738863591 9.5563756899948107 9.5634941231711128 0.0032299500700715966 9.5662475210826443 5.3750000000000009 0.012654611807450705 9.5461502448445987 0.0032560471128168593 0.0053267638563647144 10.500000000000002 0.0043351979583939214
decision_type=2 2 2 2 2 2 2 2 2 2 2 2 2 2 2 2 2 2 2
left_child=2 -2 4 -4 7 8 15 16 12 10 -10 -11 -6 14 -9 -7 17 18 -1
right_child=1 -3 3 -5 5 6 -8 13 9 11 -12 -13 -14 -15 -16 -17 -18 -19 -20
leaf_value=0 -0.00031130468737583083 0 0.00037443154871188332 0 0 0 -0.0002820792840385008 0.00026138805992615121 0 -0.00013188551042224623 0.0001712837403239564 0 -0.00021760245398355101 0 0 6.4112048284014426e-05 -1.866243200952842e-05 0 8.7909774775023084e-05
leaf_weight=28 32 20 21 26 79 26 59 28 42 75 102 1058 33 23 29 22 52 29 29
leaf_count=28 32 20 21 26 79 26 59 28 42 75 102 1058 33 23 29 22 52 29 29
internal_value=0 -0.000115582 9.01988e-07 0.000136454 0 -1.01891e-05 -0.00010041 4.76431e-05 0 2.38417e-06 9.39651e-05 -3.46662e-06 -6.70996e-05 0.000112733 0.000146735 0 0 2.70292e-05 5.39989e-05
internal_weight=1813 52 1761 47 1714 1496 107 218 1389 1277 144 1133 112 80 57 48 138 86 57
internal_count=1813 52 1761 47 1714 1496 107 218 1389 1277 144 1133 112 80 57 48 138 86 57
is_linear=0
shrinkage=0.298099


Tree=40
num_leaves=18
num_cat=0
split_feature=10 12 12 10 12 12 10 12 12 10 10 10 10 17 16 12 17
split_gain=1.27321e-05 2.94934e-05 2.83275e-05 9.78915e-06 9.92593e-05 5.76411e-05 2.0833e-05 0.000100406 6.40875e-05 4.7168e-05 2.98279e-05 2.87083e-05 1.40794e-05 3.97223e-05 1.24131e-05 1.55803e-05 1.005e-05
threshold=7.6028330665717183 7.6208325273432056 7.5972783697151884 7.5313487153467618 7.525103441942834 7.5342684090976659 7.5001894491984178 7.5010379243269911 7.492481704982473 7.492481704982473 7.4859853125279798 7.5107999349534724 7.5455429755982122 4.5000000000000009 1.8050000000000004 7.565044683267069 1.5000000000000002
decision_type=2 2 2 2 2 2 2 2 2 2 2 2 2 2 2 2 2
left_child=2 -2 3 4 6 -5 8 -8 10 -10 -1 -9 13 -7 16 -16 -14
right_child=1 -3 -4 5 -6 12 7 11 9 -11 -12 -13 14 -15 15 -17 -18
leaf_value=-8.4523539395155725e-06 0.00027961174033137832 0 -0.00033363737533555692 0.00036722284291231959 -0.00043070857881868214 -0.00035585013111542847 0.00062138024992725374 -0.00012373460659472643 -0.00066172501997636816 -1.407735433650346e-05 0.00019497207524250183 0.00011193641785800144 -0.00015496230096224368 0 0.00015269148269195747 0 0
leaf_weight=821 47 20 23 42 49 36 27 82 23 64 68 103 39 20 113 142 94
leaf_count=821 47 20 23 42 49 36 27 82 23 64 68 103 39 20 113 142 94
internal_value=0 0.000126086 -6.02382e-06 0 -1.5663e-05 3.41313e-05 0 8.61155e-05 -1.68683e-05 -0.000261741 0 0 0 -0.000136839 2.26478e-05 7.01097e-05 -1.8955e-05
internal_weight=1813 67 1746 1723 1237 486 1188 212 976 87 889 185 444 56 388 255 133
internal_count=1813 67 1746 1723 1237 486 1188 212 976 87 889 185 444 56 388 255 133
is_linear=0
shrinkage=0.298099


Tree=41
num_leaves=37
num_cat=0
split_feature=12 16 12 3 0 17 0 13 12 7 7 12 2 5 0 15 12 4 0 16 3 2 4 5 15 13 13 2 2 4 3 13 7 13 13 4
split_gain=5.33137e-06 5.97435e-05 1.68124e-05 1.94688e-05 1.65561e-05 3.36783e-05 8.416e-05 6.60739e-05 3.35605e-05 4.06998e-05 4.27823e-05 3.23025e-05 2.97434e-05 2.55969e-05 3.54251e-05 1.50864e-05 9.8962e-06 1.61108e-05 2.84687e-05 4.1635e-05 1.44343e-05 9.63088e-06 9.57382e-06 8.08692e-06 6.52014e-06 4.59216e-06 7.89166e-06 1.35445e-05 7.87865e-06 4.41171e-06 3.57905e-06 8.34977e-06 7.06089e-06 1.78644e-06 1.47439e-06 4.14823e-07
threshold=7.2937656969457754 2.4200000000000004 7.2456361926328112 13.417269017729554 1.0000000180025095e-35 1.0000000180025095e-35 -0.0019579061361474355 9.6641193156480085 7.4690353587255549 0.0047046815251114357 0.0035577747498042492 7.4633917308704207 13.747766762740904 13.535134841696417 -0.0026900033414047893 1.5950000000000004 7.5048980333405702 13.829906316795647 0.004268969369017662 1.0900000000000001 13.862871015620781 13.750971894604463 13.728317197447437 13.843611869906718 2.6250000000000004 9.6115865919498571 9.5640559406661296 13.803943793667427 13.872363257991966 13.548284280765703 13.400373758473565 9.5578055343826147 0.0025699791915202454 9.5749800264105485 9.639801743639584 13.788652971896409
decision_type=2 2 2 2 2 2 2 2 2 2 2 2 2 2 2 2 2 2 2 2 2 2 2 2 2 2 2 2 2 2 2 2 2 2 2 2
left_child=1 -1 3 30 5 6 -2 11 9 10 -6 13 15 -7 -15 -13 21 18 19 -18 23 -10 29 -19 -14 26 -8 -28 -27 -11 -3 -32 -33 -20 -22 -23
right_child=4 2 -4 -5 8 7 25 -9 16 22 -12 12 24 14 -16 -17 17 20 33 -21 34 35 -24 -25 -26 28 27 -29 -30 -31 31 32 -34 -35 -36 -37
leaf_value=0.0003959399138994142 0.00052437271756009419 1.1804116652778489e-05 -0.00021765646282565044 0.00024895527765481497 -0.00018871438487499858 -8.5080025857444904e-06 0 -0.00049489493029180069 0 0 0.00029752617095040525 0 2.9513101538301696e-05 0 0.00026666065740852031 -0.00027376352594817466 0 0 5.0401688413751379e-05 -0.00044143406840274033 0 0.00024646060828708438 0 0.00029446170280046923 -3.6572846731817699e-05 -0.00020533120969659188 0.00022639671393724598 0 0 -0.00053065218117291678 0 0 -0.00018497575466451644 -4.2784126116475765e-05 -7.4945197772131552e-05 0
leaf_weight=36 38 33 31 28 39 34 23 24 76 23 27 24 267 87 109 60 20 31 42 41 54 23 36 22 259 20 42 21 20 33 33 23 49 28 37 20
leaf_count=36 38 33 31 28 39 34 23 24 76 23 27 24 267 87 109 60 20 31 42 41 54 23 36 22 259 20 42 21 20 33 33 23 49 28 37 20
internal_value=0 3.9478e-05 0 1.00277e-05 -8.35637e-06 8.77581e-06 0.000135635 -7.7194e-06 -5.21613e-05 -0.000168378 0 0 -2.93835e-05 0.000100905 0.000153389 -0.000194049 0 -3.63634e-05 -0.000116992 -0.000265885 0 6.57689e-05 -0.000296451 0.000150514 0 0 5.46337e-05 0.000123168 -6.12661e-05 -0.000399171 0 -5.45872e-05 -0.000120918 0 -2.92161e-05 0.000178204
internal_weight=1813 233 197 166 1580 1028 164 864 552 158 66 840 610 230 196 84 394 275 131 61 144 119 92 53 526 126 86 63 40 56 138 105 72 70 91 43
internal_count=1813 233 197 166 1580 1028 164 864 552 158 66 840 610 230 196 84 394 275 131 61 144 119 92 53 526 126 86 63 40 56 138 105 72 70 91 43
is_linear=0
shrinkage=0.298099


Tree=42
num_leaves=26
num_cat=0
split_feature=10 1 10 1 0 11 9 11 0 9 11 0 16 5 15 8 11 1 10 11 11 1 3 16 9
split_gain=1.11701e-05 1.72311e-05 1.81741e-05 1.88836e-05 3.68477e-05 9.04559e-05 1.6955e-05 1.78659e-05 1.46741e-05 2.48613e-05 1.35402e-05 1.30214e-05 1.66085e-05 1.22189e-05 1.15682e-05 1.07639e-05 2.76494e-05 9.9644e-06 1.77098e-05 3.47558e-05 1.78681e-05 3.81076e-06 7.46962e-07 1.72795e-07 9.00723e-08
threshold=7.5849890095011157 13.842639106953973 7.5236811320327339 13.758410825801759 -0.0030303123058450505 9.6113120652107256 0.019389285241132471 9.5621620434012353 0.0075309749180769723 0.0082536091414586819 9.5780620675498458 0.0072502312252664689 -0.4649999999999998 13.922569226631017 3.5350000000000006 13.865716882746538 9.624401754394933 13.772080863694045 7.5420305131308458 9.560576407909755 9.5875911830242391 13.882701698222638 13.886434787831893 2.1850000000000005 0.005869735992367466
decision_type=2 2 2 2 2 2 2 2 2 2 2 2 2 2 2 2 2 2 2 2 2 2 2 2 2
left_child=1 2 3 4 5 10 7 -6 9 22 -1 12 -5 -11 17 16 -3 -4 19 -19 -20 24 -2 -14 -17
right_child=8 15 14 11 6 -7 -8 -9 -10 13 -12 -13 23 -15 -16 21 -18 18 20 -21 -22 -23 -24 -25 -26
leaf_value=8.0487131293803063e-05 1.0600505446475058e-05 -0.00038162472689461709 0.00015549888599017744 0 -6.6325755528615771e-05 0.00070342471758447558 -0.00029419708666968727 2.7804345085525361e-05 0 0.00031317687375404771 -0.00012589773839628059 0 -0.00018255161826280942 0 0.00024858961594492426 1.0915038208289713e-05 0 0 0 -0.00047232782505839035 0.00019886205465612214 -7.3795382123285929e-05 -4.6291101985248894e-05 0 0
leaf_weight=124 34 35 38 115 296 22 21 380 26 55 25 25 137 21 38 67 31 23 100 20 44 62 29 24 21
leaf_count=124 34 35 38 115 296 22 21 380 26 55 25 25 137 21 38 67 31 23 100 20 44 62 29 24 21
internal_value=0 -1.04297e-05 0 -1.44929e-05 6.31421e-07 0.000131023 -2.1954e-05 -3.6957e-06 7.01694e-05 0.000123338 1.67424e-06 -7.9911e-05 -0.00010561 0.00023831 7.21341e-05 -8.89508e-05 -0.000200742 1.29568e-05 0 -0.000180971 3.3257e-05 0 0 -0.00016813 0
internal_weight=1813 1648 1432 1169 868 171 697 676 165 139 149 301 276 76 263 216 66 225 187 43 144 150 63 161 88
