tree
version=v4
num_class=1
num_tree_per_iteration=1
label_index=0
max_feature_idx=19
objective=regression
feature_names=Column_0 Column_1 Column_2 Column_3 Column_4 Column_5 Column_6 Column_7 Column_8 Column_9 Column_10 Column_11 Column_12 Column_13 Column_14 Column_15 Column_16 Column_17 Column_18 Column_19
feature_infos=[-0.034381546199245605:0.065191617927956358] [13.393153582185892:13.950915194970477] [13.393153582185892:13.950915194970477] [13.393153582185892:13.950915194970477] [13.393153582185892:13.950915194970477] [13.393153582185892:13.950915194970477] [13.393916067926225:13.938225476686881] [0:0.047298975034897758] [13.396088393010242:13.934741696068793] [0.0012084176212949567:0.056827193638149413] [7.1471972859324655:7.6387568550930514] [9.4889746539166087:9.7114065740084499] [7.1471972859324655:7.6387568550930514] [9.4889746539166087:9.7114065740084499] [3.5:6] [1.3200000000000001:5.9500000000000002] [-2.2000000000000002:3.52] [0:6] [1:12] [1:4]
tree_sizes=2555 2703 2576 2082 2141 1408 2344 2498 3668 1741 2535 2238 3500 1880 2268 2357 2020 1850 1112 2272 1789 2546 1506 3562 1858 2496 1864 1868 2274 3197 3460 2106 3109 1928 2517 1176 3659 3401 3371 2942 2530 2580 3636 1805 1424 2550 1978 1451 3002 2260 2744 1954 2732 3524 2286 2328 1640 2650 2331 2674 1878 3086 1340 1775 3411 2940 2178 2966 3419 2157 3218 2892 3102 1624 2009 2359 2776 2550 2448 1979 3238 2333 2102 2632 1685 3447 2524 3556 3160 1633 2488 3728 3570 3497 3643 2722 3316 3183 2463 1815 2409 2272 3212 3403 2829 2933 1693 3163 2814 3849 2618 2469 2427 2325 2929 2754 2049 2916 3137 2684 2994 2109 2508 2812 2373 2169 1858 2781 2211 2896 1949 2400 2732 2875 1919 2236 2278 1103 1743 1938 1593 2238 2347 2635 2622 1964 1657 1311 957

Tree=0
num_leaves=27
num_cat=0
split_feature=7 12 8 12 11 5 8 7 12 18 11 10 8 11 8 12 11 14 5 16 10 7 8 8 13 0
split_gain=0.00867021 0.00458388 0.0103352 0.00436115 0.00261977 0.00366733 0.00332186 0.00198874 0.00200099 0.00243629 0.00350885 0.00157034 0.00218921 0.00198486 0.00197515 0.0015061 0.00141723 0.00138187 0.00291339 0.00129986 0.00124527 0.00117993 0.000894975 0.00080776 0.00077107 0.000169632
threshold=0.015755017456367957 7.4055621629667829 13.560585145192201 7.3733043360190083 9.6434530714874906 13.918517392489647 13.756258151657553 0.0021061223184988035 7.3164584681390679 5.5000000000000009 9.5634941231711128 7.448217365090799 13.758965744143657 9.5680427810313482 13.789704195944964 7.5176077974379272 9.5477764290503497 5.6250000000000009 13.889225487921198 2.4450000000000007 7.1787894886972774 0.0054655694859506556 13.750516040248876 13.410990229743502 9.5766487624799073 0.0020191957804653886
decision_type=2 2 2 2 2 2 2 2 2 2 2 2 2 2 2 2 2 2 2 2 2 2 2 2 2 2
left_child=1 2 7 -4 11 6 -6 20 9 23 -11 21 19 15 -15 -14 -10 25 -19 24 -1 -3 -23 -9 -13 -8
right_child=-2 4 3 -5 5 -7 17 8 16 10 -12 12 13 14 -16 -17 -18 18 -20 -21 -22 22 -24 -25 -26 -27
leaf_value=0.0016529067417057177 0.0066192212758299541 0.0012206447954894372 0.0095124687475612243 0.0037297323006608971 -0.00033506444042793668 -0.00029742964946247196 0.0028609176061478855 0.0013588025992192221 0.0016092376241934126 0.0020413820449398088 0.0061909090506918956 0.0018967625122485118 0.0014302635902346352 0.0023601807086385917 0.00088510570885481238 -0.00093581225872733107 -0.0011158778120430638 0.0069175554252201453 0.0022968774897573693 0.0035786506156105596 0.0049785743814001072 -0.0026720550733603183 0.00054839404854430834 -0.00077862229118784996 0.00090404465241406007 0.0016092376241934126
leaf_weight=23 30 39 22 34 21 37 49 89 32 129 22 226 42 92 496 85 38 28 28 32 26 23 22 22 100 21
leaf_count=23 30 39 22 34 21 37 49 89 32 129 22 226 42 92 496 85 38 28 28 32 26 23 22 22 100 21
internal_value=0.00160924 0.0015242 0.00235759 0.00613693 0.00124764 0.00227628 0.00297033 0.00178294 0.00153994 0.00189752 0.00269426 0.0010783 0.00118372 0.000880755 0.00112724 -0.000206413 0.000110627 0.00357536 0.00473403 0.00177052 0.00355721 -0.000186415 -0.00125383 0.000872793 0.00160924 0.00254899
internal_weight=1808 1778 437 56 1341 184 147 381 332 262 151 1157 1073 715 588 127 70 126 56 358 49 84 45 111 326 70
internal_count=1808 1778 437 56 1341 184 147 381 332 262 151 1157 1073 715 588 127 70 126 56 358 49 84 45 111 326 70
is_linear=0
shrinkage=1


Tree=1
num_leaves=29
num_cat=0
split_feature=10 16 2 15 6 13 1 6 18 16 5 6 6 5 3 10 13 15 16 10 16 10 18 1 2 3 10 13
split_gain=0.00381123 0.0131409 0.0176639 0.00249959 0.00232344 0.00345069 0.00192051 0.00181994 0.00123059 0.00230578 0.00254199 0.00123796 0.0015164 0.00121158 0.00121022 0.00454188 0.00104427 0.000988433 0.000986759 0.000947019 0.000820442 0.00143811 0.000425685 0.000268519 0.000244227 0.000142491 9.33676e-05 4.99002e-05
threshold=7.4055621629667829 1.8250000000000004 13.624955013254473 3.4800000000000009 13.92895324883666 9.642512320806274 13.850394843241586 13.884231759802555 7.5000000000000009 2.4450000000000007 13.731585175181525 13.754078713334868 13.865789446439434 13.889225487921198 13.544357572467691 7.3542375061355445 9.5517969226526578 4.955000000000001 3.1750000000000003 7.4389745282056809 2.7150000000000003 7.1914029665483197 9.5000000000000018 13.821989400671262 13.913088315351297 13.742401941462708 7.5700385080947123 9.560576407909755
decision_type=2 2 2 2 2 2 2 2 2 2 2 2 2 2 2 2 2 2 2 2 2 2 2 2 2 2 2 2
left_child=1 2 -1 14 5 7 17 8 9 19 -11 25 -13 -8 16 -16 18 -7 22 -2 27 -22 -3 -19 -15 -10 -9 -18
right_child=4 3 -4 -5 -6 6 13 26 11 10 -12 12 -14 24 15 -17 20 23 -20 -21 21 -23 -24 -25 -26 -27 -28 -29
leaf_value=0.011857668368739228 -0.0022327744540056398 0.0024618658938095521 0.00028637354210980386 0.002734549995484812 -0.0031624457544806354 -0.0016330763939373318 0.0039727825538478489 -0.0028184593904696494 -0.00014496061438388764 -0.00044950276530888111 0.0031965362152137598 -0.0012712775092154206 0.00066214258048930452 0 -0.0035258171130375712 0.0012080632620529745 -0.00040117940383122577 0.0010816564342989335 -0.00055413638361930201 -0.00012391685165922674 -0.0001857409544164899 0.00227059079214945 0.00072675445924347075 0 0.0017403777953565471 0.00047059365532257734 -0.001330745954584419 -0.0011859788331370484
leaf_weight=21 20 32 29 31 24 20 26 20 63 25 39 259 37 20 36 33 56 51 22 588 80 27 47 29 24 55 53 41
leaf_count=21 20 32 29 31 24 20 26 20 63 25 39 259 37 20 36 33 56 51 22 588 80 27 47 29 24 55 53 41
internal_value=0 0.000748222 0.00530291 0.000167542 -0.000248927 -0.000190937 0.0010524 -0.000379118 -0.000274961 -1.57614e-05 0.00167265 -0.000679623 -0.00100714 0.00225579 -2.88957e-05 -0.00116955 0.000208158 0.000141818 0.00100045 -0.00020475 -0.000152452 0.000375564 0.00151669 0.000670259 0.00108012 8.66026e-05 -0.00183422 -0.000802165
internal_weight=1808 455 50 405 1353 1329 170 1159 1086 672 64 414 296 70 374 69 305 100 101 608 204 107 79 80 44 118 73 97
internal_count=1808 455 50 405 1353 1329 170 1159 1086 672 64 414 296 70 374 69 305 100 101 608 204 107 79 80 44 118 73 97
is_linear=0
shrinkage=0.298099


Tree=2
num_leaves=27
num_cat=0
split_feature=9 12 19 12 14 9 15 9 12 8 7 8 8 10 3 7 7 5 3 11 5 3 11 11 12 15
split_gain=0.00608581 0.00750071 0.00335079 0.00137232 0.00134142 0.0033259 0.00152444 0.00116253 0.000906149 0.00126347 0.000786244 0.00185443 0.000666034 0.000641208 0.000913454 0.000915963 0.00088612 0.000481685 0.000618531 0.00116933 0.000569113 0.000563138 0.000416263 0.000302323 0.000299339 8.44502e-05
threshold=0.015990641538722858 7.3733043360190083 1.5000000000000002 7.5681519529298287 5.6250000000000009 0.0087263527625679582 2.7700000000000005 0.0045780536999153109 7.1886617489961422 13.836620801852936 0.010465815188052873 13.751966014070504 13.826505432247634 7.562702025389469 13.756291057587051 0.0060583591404205625 0.0021061223184988035 13.858569588681982 13.927498959995624 9.6452995532171233 13.870472004050361 13.819004323088944 9.5661039142881972 9.5739829919947734 7.1845834087097407 3.2000000000000006
decision_type=2 2 2 2 2 2 2 2 2 2 2 2 2 2 2 2 2 2 2 2 2 2 2 2 2 2
left_child=3 -2 -3 4 10 6 7 -6 23 -10 13 -12 -4 14 16 -16 -1 21 19 20 -19 -5 -7 -8 -9 -22
right_child=1 2 12 17 5 22 8 24 9 -11 11 -13 -14 -15 15 -17 -18 18 -20 -21 25 -23 -24 -25 -26 -27
leaf_value=0.0014378300552457266 0.0059969668125802629 -0.0021627729716077269 0.002965286382757123 -3.6845842660869688e-05 0.00025030695516028832 0.0011908757261227163 0 -0.00062560732281574866 0.0020929050821691057 0.00011698679322575359 -0.0028201540949636941 0.0002910506989568594 0.00042133289225591895 0.0013108181397442052 -0.00074959279535290527 0.00011143961807657306 -4.3907787151221535e-06 0.00031829786203376354 -0.001845009711046621 0.001664308121852692 -0.00022690530053774298 -0.0022662759081419426 0.0034846783564638152 -0.0012493962474139661 -0.0027553416794242418 -0.0012033612759171182
leaf_weight=40 32 26 28 22 28 24 60 20 54 78 32 29 24 26 326 147 512 34 27 23 30 39 31 20 27 69
leaf_count=40 32 26 28 22 28 24 60 20 54 78 32 29 24 26 326 147 512 34 27 23 30 39 31 20 27 69
internal_value=0 0.00214833 0.000474939 -0.000137857 -2.33624e-05 0.000487526 5.64454e-05 -0.00107034 0.00048664 0.00097684 -0.000186454 -0.00123716 0.00192276 -0.000119012 -0.000161922 -0.000468165 8.86538e-05 -0.000792673 -0.000495625 -0.000218088 -0.000594826 -0.0015722 0.00261018 -0.000240575 -0.00199437 -0.000974722
internal_weight=1808 110 78 1698 1454 342 287 75 212 132 1112 61 52 1051 1025 473 552 244 183 156 133 61 55 80 47 99
internal_count=1808 110 78 1698 1454 342 287 75 212 132 1112 61 52 1051 1025 473 552 244 183 156 133 61 55 80 47 99
is_linear=0
shrinkage=0.298099


Tree=3
num_leaves=22
num_cat=0
split_feature=9 11 1 11 2 15 7 9 19 15 11 10 6 1 15 7 10 15 5 19 5
split_gain=0.00345467 0.00547188 0.00110747 0.00112007 0.00090255 0.00117834 0.000949572 0.00119939 0.000891443 0.000739078 0.001396 0.00100164 0.0013962 0.000760426 0.000702484 0.0006135 0.000444956 0.000317703 0.000216395 0.000182296 2.49121e-05
threshold=0.01868680665495202 9.586839994579881 13.93017753355954 9.6434530714874906 13.756291057587051 3.4800000000000009 0.0021061223184988035 0.0095979426608280346 3.5000000000000004 1.6700000000000002 9.5850605788234109 7.5013196621156437 13.805951825377349 13.841665396811775 4.955000000000001 0.0060993349761905733 7.3325784402770582 5.4900000000000011 13.771035931234318 3.5000000000000004 13.805965017711451
decision_type=2 2 2 2 2 2 2 2 2 2 2 2 2 2 2 2 2 2 2 2 2
left_child=2 -2 3 4 5 6 19 -8 14 10 15 18 -13 -12 -5 -6 -7 -10 -11 -1 -19
right_child=1 -3 -4 8 9 16 7 -9 17 11 13 12 -14 -15 -16 -17 -18 20 -20 -21 -22
leaf_value=0.0013398204304590764 -0.0007553618322830737 0.0047414183979792232 -0.0019657890516012527 -0.0016941751179438164 -0.0019849960785681764 0.0027168025175702474 -0.00031335714394991715 0.00065413005644481708 0.0014632420154789994 -0.001863620471691457 0.0004629174572552182 0.00077351913850190457 -0.00034051809441055288 -0.0015586477623491263 0.00061261725708260161 -0.00029625221821579374 0.00032770841838308524 0 -0.0005957155830906332 0 0.00044744575798455314
leaf_weight=52 27 34 27 21 82 20 536 142 83 27 75 151 292 21 21 38 22 20 75 20 22
leaf_count=52 27 34 27 21 82 20 536 142 83 27 75 151 292 21 21 38 22 20 75 20 22
internal_value=6.9231e-07 0.00220598 -7.27702e-05 -3.90256e-05 -0.000121544 9.47081e-05 0 -0.00010091 0.000688315 -0.000355213 -0.000829084 -0.000155127 2.45376e-05 0 -0.000387266 -0.0015062 0.0016281 0.00110227 -0.000998424 0.00103601 0.000229795
internal_weight=1808 61 1747 1720 1553 792 750 678 167 761 216 545 443 96 42 120 42 125 102 72 42
internal_count=1808 61 1747 1720 1553 792 750 678 167 761 216 545 443 96 42 120 42 125 102 72 42
is_linear=0
shrinkage=0.298099


Tree=4
num_leaves=22
num_cat=0
split_feature=9 11 6 11 8 2 15 8 11 2 10 9 2 9 11 11 5 5 15 6 9
split_gain=0.00163819 0.00317431 0.000512336 0.000714769 0.00127839 0.00100298 0.000799048 0.000887008 0.000687901 0.000635283 0.000556584 0.00060854 0.000539642 0.000503136 0.00104409 0.000892948 0.000471603 0.000282041 0.000636947 0.00041765 0.000119182
threshold=0.01868680665495202 9.5966532545066272 13.92895324883666 9.6274210902511914 13.790884984404242 13.781436443815045 2.5200000000000005 13.792078233499598 9.571606274496439 13.754166786406854 7.5048980333405702 0.0056588281465390251 13.876135069054055 0.0095979426608280346 9.5302289316884465 9.5437751808009299 13.844583687511003 13.877075803103908 5.1250000000000009 13.901348064123946 0.0092990577680490908
decision_type=2 2 2 2 2 2 2 2 2 2 2 2 2 2 2 2 2 2 2 2 2
left_child=2 -2 3 4 5 13 -5 9 -7 -8 -6 12 -12 14 -1 -15 -13 18 -9 -19 -11
right_child=1 -3 -4 6 10 8 7 17 -10 20 11 16 -14 15 -16 -17 -18 19 -20 -21 -22
leaf_value=0.0014933395980126299 -0.00028125295869403655 0.0038640144614395838 -0.0014172954691891847 -0.00082056299282090843 -0.0016603605420544821 0 0.00084200145172524769 0.0021381362529188847 0.0019536623860137532 -1.0561810924782901e-05 0.00047586226001967085 -0.0010676731102049609 -0.0010555416862882796 -0.0010483957555607461 -0.00020010897877073783 0.00073570915136402426 -0.00016361853933203357 -0.00057012613837691324 0.00049752273394948747 0.00096182507538160463 -0.0012943682488762483
leaf_weight=33 33 28 24 37 41 20 30 50 40 23 92 138 25 27 753 153 113 21 60 39 28
leaf_count=33 33 28 24 37 41 20 30 50 40 23 92 138 25 27 753 153 113 21 60 39 28
internal_value=2.31641e-07 0.00151991 -4.92218e-05 -2.62013e-05 -0.00011579 5.60749e-05 0.000397163 0.000603312 0.00123802 -0.000139315 -0.000562824 -0.00042192 9.13918e-05 -1.0754e-05 -0.000120315 0.000430809 -0.000687261 0.000995554 0.00130525 0.000316292 -0.000845966
internal_weight=1808 61 1747 1723 1435 1026 288 251 60 81 409 368 117 966 786 180 251 170 110 60 51
internal_count=1808 61 1747 1723 1435 1026 288 251 60 81 409 368 117 966 786 180 251 170 110 60 51
is_linear=0
shrinkage=0.298099


Tree=5
num_leaves=14
num_cat=0
split_feature=9 1 13 11 1 5 15 0 0 1 16 10 5
split_gain=0.000769446 0.00307525 0.000439525 0.000454244 0.000397913 0.00197597 0.00114106 0.000834803 0.000602213 0.000513053 0.00235414 0.000472386 0.000143567
threshold=0.01868680665495202 13.729407710420617 9.6667836842108787 9.6544170328641883 13.544357572467691 13.552195630308796 3.3550000000000004 0.0074468618875966905 -0.0053872208591743123 13.624955013254473 2.0950000000000002 7.4619535546207709 13.78967966630233
decision_type=2 2 2 2 2 2 2 2 2 2 2 2 2
left_child=2 -2 3 4 6 -6 7 8 -1 10 -7 -11 -5
right_child=1 -3 -4 12 5 9 -8 -9 -10 11 -12 -13 -14
leaf_value=-0.0011027818661484415 0.0038732371958391126 -0.00040422042155181424 -0.0013032817815850047 0 -0.0023363523786328693 0.0023198650284838394 0.0018986667278941482 -0.0017031984388612082 0.00036468775953854397 -0.00054721958409931226 -0.0015892028137781998 -2.2692065568821147e-05 0.00097966569841527332
leaf_weight=26 22 39 24 22 35 36 33 22 238 185 20 1055 51
leaf_count=26 22 39 24 22 35 36 33 22 238 185 20 1055 51
internal_value=0 0.00103799 -3.74809e-05 -1.58969e-05 -5.18465e-05 -0.000126779 0.000240096 2.46539e-05 0.000194611 -6.1712e-05 0.000806114 -0.000106319 0.000704915
internal_weight=1808 61 1747 1723 1650 1331 319 286 264 1296 56 1240 73
internal_count=1808 61 1747 1723 1650 1331 319 286 264 1296 56 1240 73
is_linear=0
shrinkage=0.298099


Tree=6
num_leaves=25
num_cat=0
split_feature=12 13 7 11 3 3 13 13 11 7 3 10 7 15 8 15 7 8 3 18 7 10 12 12
split_gain=0.000596382 0.00105665 0.000773208 0.0046384 0.000746122 0.000377896 0.000499667 0.00148197 0.000639395 0.000557205 0.00063108 0.00055988 0.000544285 0.00045119 0.000316925 0.000311288 0.000690347 0.000321502 0.000276781 0.000271118 0.00027822 0.000201575 0.000121287 2.86372e-05
threshold=7.5741194451271534 9.5780620675498458 0.012677800886125841 9.5855867929101812 13.845554561602459 13.400373758473565 9.5657570244448245 9.5534263618427993 9.5663560847775795 0.0078286942820661089 13.884569985021388 7.5184199022333056 0.0062586154036416135 2.6750000000000003 13.410990229743502 2.8450000000000002 0.009475293618361141 13.751966014070504 13.648851350389988 11.500000000000002 0.0039750362379268921 7.6028330665717183 7.5926181926648244 7.5895709944595646
decision_type=2 2 2 2 2 2 2 2 2 2 2 2 2 2 2 2 2 2 2 2 2 2 2 2
left_child=2 -2 5 -4 -3 -1 7 12 14 10 11 -8 13 -7 -9 17 -17 -11 -14 20 23 22 -22 -6
right_child=1 4 3 -5 19 6 9 8 -10 15 -12 -13 18 -15 -16 16 -18 -19 -20 -21 21 -23 -24 -25
leaf_value=0.0010112373268244715 -0.0020532859161499833 0.0014983271316707312 -0.001410062912434113 0.0036408524767252135 0.00031798441373182169 0 -0.00010565320228753256 0 0.00035230776601027252 -0.00031314891430544897 -0.0015460485389341887 0.00042129819811493512 -0.00092842552684523798 0.00093204020591174813 -0.0010884349499970119 0 0.002240617985371758 0.00070326580596660933 5.4920451544561767e-05 0.00033898160029193825 -0.00062315201663847312 0 -0.0018178354928345959 -0.00012226895409567028
leaf_weight=33 32 20 30 32 22 63 523 35 32 40 22 265 39 109 192 27 29 61 42 28 61 28 23 20
leaf_count=33 32 20 30 32 22 63 523 35 32 40 22 265 39 109 192 27 29 61 42 28 61 28 23 20
internal_value=-1.32239e-07 -0.000447504 6.22443e-05 0.00109418 -0.000158971 1.54541e-05 -2.4419e-06 -0.000244792 -0.000752312 0.0001191 1.11073e-05 6.32726e-05 0.000248965 0.00056391 -0.000937129 0.000633766 0.0012312 0.000235908 -0.000338582 -0.000378506 -0.00055185 -0.000799336 -0.00103162 0
internal_weight=1808 234 1574 62 202 1512 1479 512 259 967 810 788 253 172 227 157 56 101 81 182 154 112 84 42
internal_count=1808 234 1574 62 202 1512 1479 512 259 967 810 788 253 172 227 157 56 101 81 182 154 112 84 42
is_linear=0
shrinkage=0.298099


Tree=7
num_leaves=27
num_cat=0
split_feature=12 2 9 9 7 18 0 13 12 13 7 18 13 18 0 6 7 7 9 0 13 2 2 9 9 13
split_gain=0.000531537 0.00770205 0.000973483 0.00116434 0.000876566 0.00043137 0.000421937 0.000585465 0.000426397 0.000380374 0.000421653 0.000493114 0.000363488 0.000478908 0.000320861 0.000317167 0.000309697 0.000734121 0.00044266 0.000278752 0.000240485 0.000235512 0.000177872 0.000161001 0.000196526 0.00012286
threshold=7.3424580206103789 13.548284280765703 0.015276934331783764 0.0098331637199182333 0.014112711410986833 1.5000000000000002 0.0032085598199138592 9.6667836842108787 7.5895709944595646 9.5534263618427993 0.0030961532182258176 9.5000000000000018 9.5635924577533107 5.5000000000000009 -0.0014958999809531191 13.744624135440739 0.0061784822621308638 0.0042788338461701315 0.016411293200561245 -0.0021164052763102954 9.5766487624799073 13.867628399599781 13.466661799134894 0.004225219005022862 0.00573014052523085 9.6178500679774501
decision_type=2 2 2 2 2 2 2 2 2 2 2 2 2 2 2 2 2 2 2 2 2 2 2 2 2 2
left_child=1 2 3 9 5 19 7 16 15 10 11 -1 14 -14 -11 20 17 -7 -18 -2 -8 -17 -12 -21 -25 -10
right_child=4 -3 -4 -5 -6 6 8 -9 25 12 22 -13 13 -15 -16 21 18 -19 -20 23 -22 -23 -24 24 -26 -27
leaf_value=0.002152179364470915 4.0232820232573475e-05 0.00597922605288995 -0.0020215277169721921 0.0017642020645956382 -0.001537595919247046 8.5379412441792819e-05 0.0003470897117729936 -0.0016081507688705447 -0.0010253307393772858 0 -0.00061389621451542274 0 -0.00032112375229374323 0.0013831722912344886 -0.0010425160917842597 0.0008332600916098297 0.0003053570211331294 -0.00054447199792024019 -0.0010288619988390647 0 -0.00074490575811619994 0 0.00028532559222671592 -0.0019533071200031004 -0.00051684977887744843 0
leaf_weight=20 28 20 20 34 36 383 52 22 20 29 32 20 45 20 76 154 292 271 22 23 27 27 45 22 47 21
leaf_count=20 28 20 20 34 36 383 52 22 20 29 32 20 45 20 76 154 292 271 22 23 27 27 45 22 47 21
internal_value=0 0.000320719 0 0.000111956 -8.34685e-05 -4.1514e-05 3.7334e-06 -8.50483e-05 0.000317444 -6.18877e-05 0.000322649 0.00111176 -0.000365236 0.000104824 -0.00071841 0.0004719 -4.33434e-05 -0.000165643 0.000190404 -0.000582271 0 0.000689453 -3.76278e-06 -0.000842755 -0.00107385 -0.000500128
internal_weight=1808 361 341 321 1447 1411 1291 990 301 287 117 40 170 65 105 260 968 654 314 120 79 181 77 92 69 41
internal_count=1808 361 341 321 1447 1411 1291 990 301 287 117 40 170 65 105 260 968 654 314 120 79 181 77 92 69 41
is_linear=0
shrinkage=0.298099


Tree=8
num_leaves=40
num_cat=0
split_feature=11 4 8 1 18 1 18 4 10 11 8 14 2 8 14 7 18 8 4 1 18 7 1 2 7 1 10 11 1 13 13 6 1 11 1 2 13 2 10
split_gain=0.000407714 0.0036355 0.000587233 0.000444521 0.000656732 0.000546418 0.000453008 0.000439527 0.000828668 0.000483628 0.00047296 0.000678543 0.00119495 0.000779123 0.000536284 0.000526731 0.000418497 0.000412245 0.000398058 0.000674499 0.000406937 0.000338938 0.000297758 0.000292865 0.000282696 0.000242571 0.000208792 0.000195702 0.000167416 0.000151398 9.37838e-05 9.30588e-05 9.11522e-05 0.000100111 7.88956e-05 7.88214e-05 7.0715e-05 2.75055e-05 2.11069e-05
threshold=9.6119815112199039 13.730497035470227 13.749703274513092 13.884569985021388 9.5000000000000018 13.93017753355954 2.5000000000000004 13.804954916357813 7.5379466851430124 9.5706128166102182 13.757806399604869 4.3750000000000009 13.611556513084624 13.560585145192201 3.8750000000000004 0.0060068760104580628 6.5000000000000009 13.777140753340426 13.827932956030187 13.844583687511003 6.5000000000000009 0.0063297289366774272 13.790705307687608 13.889225487921198 0.0052711922455674519 13.812004292755356 7.5657389047075219 9.5951672099379426 13.841665396811775 9.6530158038921208 9.5915419030948268 13.823276512624757 13.766845248204922 9.5850605788234109 13.760526110101116 13.876135069054055 9.6081428631848684 13.804954916357813 7.595256548877436
decision_type=2 2 2 2 2 2 2 2 2 2 2 2 2 2 2 2 2 2 2 2 2 2 2 2 2 2 2 2 2 2 2 2 2 2 2 2 2 2 2
left_child=7 -2 -3 6 23 38 28 8 10 -10 11 14 13 -13 21 16 17 -12 25 26 35 -1 -11 -5 31 37 -20 -14 -4 -26 -27 -8 -17 -34 -18 36 -21 -9 -6
right_child=1 2 3 4 5 -7 24 18 9 22 15 12 27 -15 -16 32 34 -19 19 20 -22 -23 -24 -25 29 30 -28 -29 -30 -31 -32 -33 33 -35 -36 -37 -38 -39 -40
leaf_value=0 0.0041514553262220659 -0.0014275106888362826 0 -0.0001746636344042792 0.00027429834374164005 -0.00076026906947594447 0.00033609110446777357 -0.00046673964852968729 0 0.00030277518264112344 -0.0010952597001710434 -0.00015757730672811635 -0.0022600470815042897 0.0014338890530420339 0.0015202418129284753 0.00053071033313880137 -0.00027877560681986919 0.00047117776585542615 0 0.00044285401237036755 -0.0017685034418121542 0.00076601435667783199 0.0020635958696384187 -0.0018749259202724417 0.00035209144030345305 -0.0019211608398165599 0.0013639243062554605 -0.00046951171729991384 -0.00091647648912140771 -0.00041349380595098034 -0.00042250443991747943 0.0010377842168061129 -0.00064091095378126964 0.00017673530676462037 -0.0014227902940379493 -0.00060290732553210211 -0.00028637236714514091 0 0.0012663718512688114
leaf_weight=218 20 22 24 29 28 27 65 22 35 26 24 387 27 29 33 31 23 35 26 23 22 70 31 26 69 29 24 21 27 30 20 87 20 23 68 23 21 21 22
leaf_count=218 20 22 24 29 28 27 65 22 35 26 24 387 27 29 33 31 23 35 26 23 22 70 31 26 69 29 24 21 27 30 20 87 20 23 68 23 21 21 22
internal_value=-7.39363e-07 0.000232265 4.4358e-05 0.000134683 -0.000295293 0.000196369 0.000344443 -8.89611e-05 -4.42931e-06 0.000844582 -8.84961e-05 1.24666e-05 -0.000209232 -3.02527e-05 0.000353335 -0.000471365 -0.000798743 -5.63436e-05 -0.000463096 -9.043e-05 -0.000623246 0.00019593 0.00137894 -0.00110113 0.000520887 -0.000953522 0.000725777 -0.00161791 -0.000394237 5.34703e-05 -0.001447 0.000781688 0.000103944 -5.24177e-05 -0.00120689 -0.000145526 0 -0.000235174 0.00084486
internal_weight=1808 476 456 434 132 77 302 1332 1101 92 1009 785 464 416 321 224 150 59 231 139 89 288 57 55 251 92 50 48 51 99 49 152 74 43 91 67 44 43 50
internal_count=1808 476 456 434 132 77 302 1332 1101 92 1009 785 464 416 321 224 150 59 231 139 89 288 57 55 251 92 50 48 51 99 49 152 74 43 91 67 44 43 50
is_linear=0
shrinkage=0.298099


Tree=9
num_leaves=18
num_cat=0
split_feature=0 0 0 14 16 15 9 9 10 6 1 15 15 9 10 6 15
split_gain=0.000374556 0.000567276 0.000264812 0.00141862 0.000395396 0.000263261 0.000638243 0.000374638 0.000696157 0.000356822 0.000327158 0.000248141 0.000272551 0.000231787 0.000148715 0.000146212 0.000112237
threshold=-0.015132152830699573 -0.010758579181710635 0.010676734655553412 4.8750000000000009 1.8250000000000004 1.4800000000000002 0.0068197911422030943 0.018356603334769968 7.4145608156475999 13.827280059242566 13.742401941462708 1.5450000000000002 1.6300000000000001 0.0059110348547274554 7.5668051975861266 13.741990530505626 2.6550000000000007
decision_type=2 2 2 2 2 2 2 2 2 2 2 2 2 2 2 2 2
left_child=-1 16 5 4 -4 6 9 11 -9 15 -8 13 -13 -7 -12 -3 -2
right_child=1 2 3 -5 -6 7 10 8 -10 -11 14 12 -14 -15 -16 -17 -18
leaf_value=-0.0012809452105789713 0.00018361194665612412 -0.00012833464072718566 0.0026841328272066362 -0.0008084778960413075 0.00049850094652736454 0 0.0010259785521962068 -0.00188616964649088 0.00021090397132596402 0 -0.00057825540436908039 -0.00043337621244683602 4.3577417811942792e-05 0.0011659740756668759 0.00028740505794628505 -0.0015353071977502928 0.0017186856197482876
leaf_weight=20 20 20 21 35 26 21 28 26 20 27 38 116 1263 32 22 53 20
leaf_count=20 20 20 21 35 26 21 28 26 20 27 38 116 1263 32 22 53 20
internal_value=-1.05189e-06 9.71766e-06 -1.20227e-05 0.000504561 0.00162104 -4.14476e-05 -0.000373532 0 -0.000834818 -0.00089914 0.000149818 2.77814e-05 0 0.000659846 -0.000151691 -0.00124096 0.00111911
internal_weight=1808 1788 1748 82 47 1666 188 1478 46 100 88 1432 1379 53 60 73 40
internal_count=1808 1788 1748 82 47 1666 188 1478 46 100 88 1432 1379 53 60 73 40
is_linear=0
shrinkage=0.298099


Tree=10
num_leaves=27
num_cat=0
split_feature=9 13 1 3 16 3 4 9 3 9 13 1 9 5 13 16 9 3 1 4 1 7 6 1 7 1
split_gain=0.000305775 0.00222826 0.0020555 0.000432803 0.000394895 0.000312401 0.00105633 0.000725985 0.000391466 0.00023025 0.000282719 0.000363675 0.00022534 0.000251189 0.000222537 0.000197856 0.000348479 0.000321515 0.000296098 0.000375856 0.000197168 0.000393085 0.000294433 0.000196291 0.000188328 9.59007e-06
threshold=0.015415741397592624 9.5786988033543441 13.735925932054407 13.648851350389988 2.6750000000000003 13.544357572467691 13.549916028821702 0.0095979426608280346 13.53645759379063 0.0054175476208477638 9.5739829919947734 13.520467905588465 0.010694282895948766 13.604171861344627 9.5556130563668003 2.0750000000000006 0.0069070372508379455 13.889225487921198 13.746696098520232 13.735925932054407 13.756291057587051 0.0079594515066064558 13.766522606984198 13.764743302552128 0.0036697012110048625 13.458120817620747
decision_type=2 2 2 2 2 2 2 2 2 2 2 2 2 2 2 2 2 2 2 2 2 2 2 2 2 2
left_child=5 3 -3 -2 -4 7 -7 8 9 10 11 -1 15 -14 -11 18 17 -17 19 -8 21 -15 -22 -20 -18 -16
right_child=1 2 4 -5 -6 6 12 -9 -10 14 -12 -13 13 20 25 16 24 -19 23 -21 22 -23 -24 -25 -26 -27
leaf_value=0.00064979075946260069 -0.0017654345303746613 0.0041245242724211074 -0.00027628062330372054 0 0.0011771811855062556 -0.0021028498947143642 0 0.0015112398990901328 0.0010157100636839428 -0.0010294183249538816 -0.0008613961668725884 -0.0002959144537597677 -0.0013812949406112509 -0.00037803005791717866 -0.00015946401292457198 -0.00024178517086881696 0.0010162259950953969 -0.0014682333479991076 -0.00027281040445109752 0.00088623163935213451 -0.0014504643244705501 0.0013264315574317178 -0.0001380673713046761 0.00010877126290183768 0 0.00011408130237723205
leaf_weight=95 29 20 24 20 31 23 59 35 33 37 20 47 21 21 23 261 20 24 172 83 21 20 118 391 140 20
leaf_count=95 29 20 24 20 31 23 59 35 33 37 20 47 21 21 23 261 20 24 172 83 21 20 118 391 140 20
internal_value=0 0.000450026 0.00150664 -0.00103314 0.000424987 -3.46498e-05 -9.90125e-05 0.000229316 4.13705e-05 -6.50142e-05 0.000106986 0.000290556 -5.97515e-05 -0.000351368 -0.000494761 -3.01784e-06 -0.000163987 -0.000368998 8.92791e-05 0.00047391 -0.000193436 0.000295971 -0.000385232 0 0.000160148 0
internal_weight=1808 124 75 49 55 1684 1374 310 275 242 162 142 1351 201 80 1150 445 285 705 142 180 41 139 563 160 43
internal_count=1808 124 75 49 55 1684 1374 310 275 242 162 142 1351 201 80 1150 445 285 705 142 180 41 139 563 160 43
is_linear=0
shrinkage=0.298099


Tree=11
num_leaves=23
num_cat=0
split_feature=11 11 2 0 18 11 10 15 15 8 10 2 10 14 4 16 11 8 2 10 2 11
split_gain=0.000287764 0.000296827 0.00261682 0.000303311 0.00024683 0.000692325 0.000417411 0.00038262 0.000590921 0.00053397 0.000476994 0.000455429 0.00102008 0.000384519 0.000272755 0.000234192 0.00021665 0.000194256 0.000180959 0.000166977 0.000252256 5.36302e-05
threshold=9.6749544328629788 9.6110943953068961 13.745624286748606 -0.013941501109124841 8.5000000000000018 9.5553829205582428 7.3227613817240949 2.1200000000000006 1.4800000000000002 13.758965744143657 7.5724206694843881 13.611556513084624 7.4619535546207709 5.8750000000000009 13.821989400671262 1.8850000000000002 9.548414178348013 13.754305600893176 13.927498959995624 7.5918036875411623 13.889225487921198 9.6016727433639488
decision_type=2 2 2 2 2 2 2 2 2 2 2 2 2 2 2 2 2 2 2 2 2 2
left_child=1 3 -3 -1 7 6 16 8 10 -10 -5 13 -13 -9 15 -7 -6 -4 19 20 -19 -16
right_child=-2 2 17 4 5 14 -8 11 9 -11 -12 12 -14 -15 21 -17 -18 18 -20 -21 -22 -23
leaf_value=-0.0011652658879796724 -0.00112364256097466 0.0030551776530784165 -0.00075465872871030408 -0.00039522259328975563 0.00035001766597449999 -0.00028458384731375571 0.0011169835048538883 0.00059475697047648519 0.00098168132473089027 0 0.0011269133298724152 -0.0019807865076488067 -0.00014743040589201793 -9.3809689218780893e-05 -0.00015529721371811112 -0.0010388209517570681 -0.0006749711188833023 0.00018388659793618502 -0.0005979303513535554 0.00075654947602909214 -0.00053335575383300134 0.00042408128893354466
leaf_weight=22 20 27 25 125 41 109 40 108 131 78 20 32 244 182 32 99 31 305 28 39 48 22
leaf_count=22 20 27 25 125 41 109 40 108 131 78 20 32 244 182 32 99 31 305 28 39 48 22
internal_value=-1.73581e-06 7.2506e-06 0.000213229 -6.16501e-05 -3.76441e-05 -0.000244385 0.00034097 3.92873e-05 0.000287415 0.000614427 -0.000138828 -0.000104332 -0.000384974 0.000140178 -0.000519754 -0.000675753 -8.05083e-07 2.48394e-05 8.71949e-05 0.000153154 6.75156e-05 0
internal_weight=1808 1788 472 1316 1294 374 112 920 354 209 145 566 276 290 262 208 72 445 420 392 353 54
internal_count=1808 1788 472 1316 1294 374 112 920 354 209 145 566 276 290 262 208 72 445 420 392 353 54
is_linear=0
shrinkage=0.298099


Tree=12
num_leaves=38
num_cat=0
split_feature=7 7 15 1 9 18 16 1 2 8 8 15 7 15 1 9 8 9 9 5 8 18 7 15 8 6 2 9 8 9 8 1 1 5 1 1 16
split_gain=0.000128862 0.00012295 0.000426449 0.000499026 0.000356904 0.000226497 0.000421025 0.000853921 0.000548718 0.00052874 0.000421603 0.000205498 0.000223701 0.000196245 0.000214708 0.000300932 0.000210142 0.000392504 0.000455569 0.00043454 0.000368303 0.000209085 0.000177109 0.000176755 0.000311305 0.000615348 0.000306816 0.000223957 0.000240987 0.000136666 0.000125609 0.000121782 9.9733e-05 0.00021342 8.53817e-05 8.50471e-05 5.97454e-05
threshold=0.015755017456367957 0.0052069076883527309 2.1200000000000006 13.843611869906718 0.015276934331783764 9.5000000000000018 1.6900000000000002 13.537778598522049 13.727225493956963 13.787603111848162 13.466234005387605 2.8450000000000002 0.0084240199213590442 2.0100000000000002 13.884569985021388 0.0052338807482007312 13.755945530253575 0.0064678100370710381 0.0076452552554086796 13.743477210694323 13.767140451605224 9.5000000000000018 0.0056821184651655093 4.5200000000000005 13.559776626674823 13.724408425939133 13.544357572467691 0.0052637781270646897 13.794222749754931 0.0082884423952516908 13.816769608865572 13.738089265061442 13.780401246757892 13.829906316795647 13.924813192399876 13.760526110101116 2.1150000000000007
decision_type=2 2 2 2 2 2 2 2 2 2 2 2 2 2 2 2 2 2 2 2 2 2 2 2 2 2 2 2 2 2 2 2 2 2 2 2 2
left_child=1 13 3 4 22 6 9 10 -9 -4 -8 34 36 16 23 -16 17 19 -19 21 35 -1 -3 24 26 -26 -15 28 -25 -29 -11 -24 -22 -34 -7 -18 -13
right_child=-2 2 5 -5 -6 11 7 8 -10 30 -12 12 -14 14 15 -17 20 18 -20 -21 32 -23 31 27 25 -27 -28 29 -30 -31 -32 -33 33 -35 -36 -37 -38
leaf_value=-0.0017391372159120148 0.0006003927084511692 -0.00044043418759935794 0.001175908128090798 -0.001194143670083558 0.0014060373495570753 0.00085032790518664136 -0.00028476457148528131 -0.0018251666612056742 -0.00046734228544000609 -0.00055318953169760168 0.0012362043260615403 -0.00075957912100457401 0.00042202056913219 0.00014929252619495976 -0.0012496662677289533 0 -0.00022181001274397733 0.0013097537959792709 -3.3927317593722299e-05 0.0003241623791777509 0.00036607105074081952 -0.00016306049587543341 0.00076240009015497603 0.00092140904359262971 0.0020173517213059274 0.00033472632051158335 -0.0010589036320624507 -0.00069595653417745223 -7.9199069404595229e-05 0 0 0.00011220164286331447 -0.00074327565359795522 0.00030419896192042048 0 -0.0014983874980072833 0
leaf_weight=20 30 30 27 20 25 30 63 61 78 67 21 43 24 210 22 35 23 39 32 38 32 30 42 32 24 215 20 54 35 27 63 167 39 20 20 28 22
leaf_count=20 30 30 27 20 25 30 63 61 78 67 21 43 24 210 22 35 23 39 32 38 32 30 42 32 24 215 20 54 35 27 63 167 39 20 20 28 22
internal_value=-4.52255e-06 -1.84876e-05 -0.000107487 0.000172185 0.000301339 -0.000273196 -0.000393495 -0.000656808 -0.00111208 0 1.92408e-05 8.52447e-06 -0.000212687 4.80759e-05 0.000142431 -0.000371719 -0.000141332 5.92598e-05 0.000613259 -0.000313503 -0.000411967 -0.00092856 0.000157306 0.000200679 0.000292839 0.000532599 1.49084e-05 -4.70027e-05 0.00030205 -0.000416743 -0.000268674 0.000274849 0 -0.000277264 0.000532635 -0.00105399 -0.000548435
internal_weight=1808 1778 803 284 264 519 380 223 139 157 84 139 89 975 674 57 301 159 71 88 142 50 239 617 469 239 230 148 67 81 130 209 91 59 50 51 65
internal_count=1808 1778 803 284 264 519 380 223 139 157 84 139 89 975 674 57 301 159 71 88 142 50 239 617 469 239 230 148 67 81 130 209 91 59 50 51 65
is_linear=0
shrinkage=0.298099


Tree=13
num_leaves=20
num_cat=0
split_feature=12 16 5 6 6 6 8 13 12 12 12 10 12 16 9 16 8 1 9
split_gain=0.000262482 0.00292828 0.000509771 0.00107844 0.000388221 0.00062226 0.000340372 0.00021897 0.000724424 0.000588055 0.000156952 0.000201537 0.000186228 0.000149064 0.00021347 0.000195345 0.000360668 0.000150475 1.57947e-06
threshold=7.3424580206103789 1.8650000000000002 13.69503624543947 13.613729758483045 13.722677515958463 13.72782829499978 13.560585145192201 9.5477764290503497 7.3164584681390679 7.2976971445637693 7.6107017796264289 7.6028330665717183 7.565044683267069 2.27 0.0097807437742622513 2.0050000000000003 13.538161674475262 13.406413792797006 0.005992998051353054
decision_type=2 2 2 2 2 2 2 2 2 2 2 2 2 2 2 2 2 2 2
left_child=1 -1 3 6 -4 -6 -2 9 13 18 11 12 -7 15 17 -9 -17 -15 -3
right_child=2 7 4 -5 5 10 -8 8 -10 -11 -12 -13 -14 14 -16 16 -18 -19 -20
leaf_value=0.0035401960993426702 -0.00076800951723052387 0 0.0011629264298773747 -0.0026903509235200657 -0.0016835712067062704 4.193393356586e-05 0.00056313541559147994 -5.8275854506753676e-06 -0.0014937513288538005 0.0018416144638342172 -0.00061414730175061386 0.00076836919907354105 -0.00024641774941971652 0 0.00065407236837879677 0.0017521926465903868 0 -0.0005156273823463969 -7.9543170196222913e-05
leaf_weight=22 36 20 24 20 20 1006 29 23 30 20 37 30 245 74 26 20 21 83 22
leaf_count=22 36 20 24 20 20 1006 29 23 30 20 37 30 245 74 26 20 21 83 22
internal_value=-1.4408e-06 0.000222049 -6.17617e-05 -0.000770754 -1.25902e-05 -3.87455e-05 -7.33335e-05 0 -0.00010848 0.000510356 -8.5675e-06 3.87742e-06 -9.31075e-06 3.4156e-05 -7.30044e-05 0.000442339 0.000852305 -0.000235864 0
internal_weight=1808 361 1447 85 1362 1338 65 339 277 62 1318 1281 1251 247 183 64 41 157 42
internal_count=1808 361 1447 85 1362 1338 65 339 277 62 1318 1281 1251 247 183 64 41 157 42
is_linear=0
shrinkage=0.298099


Tree=14
num_leaves=24
num_cat=0
split_feature=11 1 8 1 3 1 8 0 11 7 7 18 16 8 16 4 4 0 7 1 1 8 7
split_gain=0.000136362 0.00212915 0.000288405 0.000284345 0.000185605 0.000347851 0.000201839 0.000282653 0.000762546 0.000349994 0.000245252 0.000189728 0.000164479 0.000122853 9.01646e-05 0.000188849 0.000162287 0.000140209 9.57769e-05 6.58718e-05 0.00013442 4.56414e-05 3.05167e-05
threshold=9.6052432213157797 13.725038505006699 13.749703274513092 13.844583687511003 13.827932956030187 13.812004292755356 13.768186757570023 0.0078934968546828816 9.5661039142881972 0.0021061223184988035 0.0034991295871543465 4.5000000000000009 2.1450000000000005 13.869847112708504 2.5700000000000007 13.93017753355954 13.881766244254731 -0.0035719658890398516 0.0075793098035916977 13.753102956218294 13.767894566533384 13.822828302160017 0.0066958953161684528
decision_type=2 2 2 2 2 2 2 2 2 2 2 2 2 2 2 2 2 2 2 2 2 2 2
left_child=3 -2 -3 4 5 6 7 9 -9 -1 11 -8 -12 -5 16 17 19 -16 -19 -4 -21 -7 -6
right_child=1 2 14 13 22 21 10 8 -10 -11 12 -13 -14 -15 15 -17 -18 18 -20 20 -22 -23 -24
leaf_value=0.00063255404854708726 0.0031239581486253586 -0.00088836939044980234 0.00049327397240029225 -0.0014006530337036804 0 -0.001011026074904517 0.00032035279613460213 -0.0015681382027149515 0.00021412921701363755 -8.5373452224834969e-05 0.00069789084436090612 -0.00068623570261082129 0 -8.7588176367040427e-05 -9.4045718024806467e-05 -0.00041675903514932778 -0.00062899210915208308 0.00067844463906843256 0 -0.00044565987257917249 8.752660242985336e-05 -1.3225617882110507e-05 0.00091272428507542048
leaf_weight=65 20 30 26 20 20 37 20 39 35 722 95 37 67 28 20 23 35 94 26 50 258 21 20
leaf_count=65 20 30 26 20 20 37 20 39 35 722 95 37 67 28 20 23 35 94 26 50 258 21 20
internal_value=0 0.000115523 0 -5.95475e-05 -2.47227e-05 -5.22831e-05 -7.85469e-06 -7.8682e-05 -0.000638099 -1.75923e-05 0.000240439 -0.000218174 0.000442407 -0.000774402 5.8284e-05 0.000245117 -6.51828e-06 0.000401159 0.000538417 3.9346e-05 0 -0.000763936 0.000592409
internal_weight=1808 582 562 1226 1178 1138 1080 861 74 787 219 57 162 48 532 163 369 140 120 334 308 58 40
internal_count=1808 582 562 1226 1178 1138 1080 861 74 787 219 57 162 48 532 163 369 140 120 334 308 58 40
is_linear=0
shrinkage=0.298099


Tree=15
num_leaves=25
num_cat=0
split_feature=10 11 10 10 10 10 14 7 1 1 10 6 11 8 13 13 11 17 7 7 13 6 16 8
split_gain=0.000116227 0.000756143 0.00235908 0.000199785 0.000246604 0.000186426 0.000271063 0.000322674 0.000263449 0.000226386 0.000471144 0.000206899 0.000181708 0.000198725 0.000189352 0.000144884 0.000183222 0.00013575 0.000110185 0.000219331 9.14513e-05 7.52853e-05 6.20618e-05 4.53782e-05
threshold=7.3129236764038161 9.5635924577533107 7.1914029665483197 7.3227613817240949 7.3325784402770582 7.4619535546207709 3.6250000000000004 0.0034482689534256982 13.738089265061442 13.738089265061442 7.4787517709859825 13.746900467266576 9.5710738754491107 13.803696748551529 9.5528407529962909 9.5563756899948107 9.5556130563668003 1.5000000000000002 0.0034991295871543465 0.0024171521598048847 9.5670073223270951 13.521806456453149 2.1250000000000004 13.440735226641292
decision_type=2 2 2 2 2 2 2 2 2 2 2 2 2 2 2 2 2 2 2 2 2 2 2 2
left_child=1 15 20 -2 -5 6 22 8 -8 10 -7 -9 14 -14 -11 16 18 -17 19 -1 -3 -20 -6 -19
right_child=3 2 -4 4 5 9 7 11 -10 12 -12 -13 13 -15 -16 17 -18 23 21 -21 -22 -23 -24 -25
leaf_value=-0.0001414130231156319 -0.00074376772194904839 0.00029805389605132537 0.0033535401087327553 0.00098409077194960707 0.00051559583532653883 0 0.0010021666739116566 -0.00083112281647110568 -0.00029271228882928919 0.00012603264351875601 0.001483264144518199 -7.7283376964846421e-05 0.0002490084611275476 -5.1163702333498987e-05 -0.00039911103776921403 0 0.00086784410634186022 -0.00012512876884290203 -0.00060768027783640989 0.0010421820444254917 -0.00043944901713542618 0 0 -0.00099141638546587662
leaf_weight=23 35 20 25 21 35 46 23 120 24 66 28 73 292 531 190 24 22 33 37 20 33 30 27 30
leaf_count=23 35 20 25 21 35 46 23 120 24 66 28 73 292 531 190 24 22 33 37 20 33 30 27 30
internal_value=0 0.000166632 0.000970626 -3.70698e-05 -1.57677e-05 -3.48391e-05 -0.000244684 -0.000399541 0.000203037 1.44531e-05 0.000521024 -0.00058037 -1.42787e-05 4.73819e-05 -0.000238064 -9.0297e-05 6.56969e-05 -0.000402032 -3.62381e-05 0.00025893 -3.74517e-05 -0.000323728 0.00024844 -0.000643387
internal_weight=1808 297 78 1511 1476 1455 302 240 47 1153 74 193 1079 823 256 219 132 87 110 43 53 67 62 63
internal_count=1808 297 78 1511 1476 1455 302 240 47 1153 74 193 1079 823 256 219 132 87 110 43 53 67 62 63
is_linear=0
shrinkage=0.298099


Tree=16
num_leaves=22
num_cat=0
split_feature=12 3 5 11 11 12 15 3 16 3 3 11 2 3 12 16 8 4 2 5 8
split_gain=0.000102258 0.00141494 0.000257298 0.000345055 0.000167353 0.000471267 0.000140903 0.000208462 0.000166482 0.000277354 0.000264803 0.000141144 0.000121362 0.000531485 0.000113225 0.000250301 0.000197862 0.000152679 8.41026e-05 1.97424e-05 5.7289e-06
threshold=7.3475960468999784 13.548284280765703 13.648851350389988 9.5362156074211679 9.5437751808009299 7.3214892583759656 3.1050000000000004 13.400373758473565 2.6750000000000003 13.532484076886064 13.455973355479307 9.548414178348013 13.722846722649283 13.726132597346973 7.4430519493019522 -0.89499999999999991 13.789704195944964 13.753102956218294 13.734842508011862 13.75946902725495 13.559776626674823
decision_type=2 2 2 2 2 2 2 2 2 2 2 2 2 2 2 2 2 2 2 2 2
left_child=1 4 3 20 -1 6 7 -6 9 -8 -10 -9 -4 -14 17 16 -16 -15 -17 -19 -2
right_child=2 -3 12 -5 5 -7 8 11 10 -11 -12 -13 13 14 15 18 -18 19 -20 -21 -22
leaf_value=0.00073490700551306107 -0.00015881774062227172 0.0023417381921731189 0.00053292471453911282 -0.0014583348225916573 0.00038404581066749788 -0.0014361043891145627 0.0010791084380713314 0 0.00024534902821963611 0 -0.00095481892090082334 -0.00062652589354847182 -0.0013549610634826692 0.00073838441258427319 0 0.00037808352914416992 -0.0010156989849882665 -0.00020820592588497282 -6.4910976794598154e-06 0.00015682073299976083 0
leaf_weight=24 20 24 35 26 32 21 40 33 55 37 22 80 26 42 32 52 39 26 1094 25 23
leaf_count=24 20 24 35 26 32 21 40 33 55 37 22 80 26 42 32 52 39 26 1094 25 23
internal_value=0 0.000136693 -3.91507e-05 -0.000601404 0 -7.51932e-05 0 -0.000188423 0.000218583 0.000535656 -1.38252e-05 -0.000408987 -5.98184e-06 -2.50917e-05 0 -2.27533e-05 -0.000566455 0.000318139 5.28045e-06 0 0
internal_weight=1808 368 1440 69 344 320 299 145 154 77 77 113 1371 1336 1310 1217 71 93 1146 51 43
internal_count=1808 368 1440 69 344 320 299 145 154 77 77 113 1371 1336 1310 1217 71 93 1146 51 43
is_linear=0
shrinkage=0.298099


Tree=17
num_leaves=19
num_cat=0
split_feature=10 12 10 12 10 12 8 10 16 8 12 7 13 16 13 16 15 8
split_gain=9.75958e-05 0.000320389 9.42802e-05 0.000372676 0.000482879 0.000369195 0.000189495 0.000440847 0.000340829 0.000291646 0.000199548 0.000141173 0.000135305 0.000210494 8.92663e-05 5.90636e-05 5.085e-05 6.12711e-05
threshold=7.6183886730053585 7.6107017796264289 7.5236811320327339 7.5107999349534724 7.5102006448779299 7.5313487153467618 13.805620371068825 7.5394285696749757 1.3700000000000001 13.775645572061714 7.5610201247209874 0.0060294796480148093 9.5534263618427993 1.8250000000000004 9.5235857637396641 0.62500000000000011 1.7150000000000001 13.797901091248091
decision_type=2 2 2 2 2 2 2 2 2 2 2 2 2 2 2 2 2 2
left_child=1 2 3 4 12 15 7 -7 10 -9 -8 -10 14 -14 -1 -4 -5 -18
right_child=-2 -3 5 16 -6 6 8 9 11 -11 -12 -13 13 -15 -16 -17 17 -19
leaf_value=-0.00022483882553363206 0.00062024822459520658 -0.0011905389145508462 5.0945128770240233e-05 -0.00012873501105939769 0.001382509565475043 -0.00034686582360625993 0 0 -5.1948401063498443e-05 0.0012904578384712983 -0.00094460468496021532 0.00036366536352867574 9.4908862065208369e-05 -0.00020342940247092115 0.00026056395895146506 0.0010745575580547097 -0.001348200127912555 -0.00027391394804312234
leaf_weight=26 22 20 23 42 22 38 35 29 224 45 55 97 318 520 198 38 23 33
leaf_count=26 22 20 23 42 22 38 35 29 224 45 55 97 318 520 198 38 23 33
internal_value=0 -8.80684e-06 9.75909e-07 -4.36071e-05 7.36959e-07 0.000102451 8.58023e-06 0.000362549 -7.20071e-05 0.00081543 -0.000591067 5.33073e-05 -2.19311e-05 -8.23773e-05 0.000174757 0.000797377 -0.000600157 -0.000835124
internal_weight=1808 1786 1766 1182 1084 584 523 112 411 74 90 321 1062 838 224 61 98 56
internal_count=1808 1786 1766 1182 1084 584 523 112 411 74 90 321 1062 838 224 61 98 56
is_linear=0
shrinkage=0.298099


Tree=18
num_leaves=11
num_cat=0
split_feature=13 11 15 13 2 1 11 12 13 16
split_gain=9.51213e-05 0.000192284 0.000139778 9.73087e-05 0.000128143 0.000292814 0.000159605 0.000884437 0.000189066 5.45958e-05
threshold=9.6626413537831528 9.6525294939245754 2.8450000000000002 9.6486372303328505 13.909455238512985 13.889225487921198 9.6052432213157797 7.4145608156475999 9.5886080347541913 -0.029999999999999801
decision_type=2 2 2 2 2 2 2 2 2 2
left_child=1 3 -2 4 5 6 8 -8 -1 -3
right_child=2 9 -4 -5 -6 -7 7 -9 -10 -11
leaf_value=3.6746533396050767e-06 0 0 -0.00087191875096336415 -0.00053769526936036478 0.00065667142804008206 -0.00083659913889110277 0.0021135458717845661 5.096577226752365e-05 -0.00032156989296857377 0.00069123970796907352
leaf_weight=1044 32 34 27 30 26 37 20 332 180 46
leaf_count=1044 32 34 27 30 26 37 20 332 180 46
internal_value=0 1.09018e-05 -0.000373243 -6.89527e-06 0 -7.73247e-06 7.65066e-06 0.000187866 -3.88256e-05 0.000463358
internal_weight=1808 1749 59 1669 1639 1613 1576 352 1224 80
internal_count=1808 1749 59 1669 1639 1613 1576 352 1224 80
is_linear=0
shrinkage=0.298099


Tree=19
num_leaves=24
num_cat=0
split_feature=0 12 10 12 18 12 11 9 7 18 11 9 7 12 11 18 7 5 12 2 8 9 7
split_gain=0.000125361 0.000264951 0.000100855 0.000273024 0.000166917 0.000207222 0.000190312 0.000295023 0.000431286 0.000203786 0.00017837 0.00016702 0.000210652 0.000158452 0.000134818 0.000130448 0.000200683 7.17745e-05 0.00016455 4.20028e-05 4.03155e-05 2.95412e-05 1.05328e-05
threshold=-0.0092765123532307908 7.3733043360190083 7.5796022061537753 7.5741194451271534 7.5000000000000009 7.28781026583792 9.624401754394933 0.006491655479263096 0.0063043324124652704 4.5000000000000009 9.6525294939245754 0.0052637781270646897 0.0098111326454227103 7.6180544960265575 9.5454243536478032 3.5000000000000004 0.0060294796480148093 13.756291057587051 7.5560175317031382 13.794797386079702 13.873753496033782 0.005992998051353054 0.0037602851925633636
decision_type=2 2 2 2 2 2 2 2 2 2 2 2 2 2 2 2 2 2 2 2 2 2 2
left_child=1 -1 3 4 6 -6 7 9 -9 -2 14 -8 -13 15 -7 -4 20 -3 -19 -12 -17 -5 -22
right_child=2 17 13 21 5 10 11 8 -10 -11 19 12 -14 -15 -16 16 -18 18 -20 -21 22 -23 -24
leaf_value=0.001269405241406184 -0.00026205334499129372 -0.00039810024151792607 -0.00019797751570870486 -2.3403615476937376e-05 0.00074138321543705489 0.0002873343482797851 0.0002665082006024268 0.00065584957559515619 0 0.00016197510748141628 0 -0.00089222558120871371 0 -0.00043377713383882516 -0.00028419839464100043 0.00042667719376343215 0.00089605240659114806 0.00068425497533622858 -0.00019265794322899583 0.00040086477221048513 7.8561985050623056e-05 -0.0010077421115419715 -0.00013869069933094508
leaf_weight=21 206 20 20 20 20 28 20 173 189 182 24 52 27 23 512 21 55 36 23 45 20 29 42
leaf_count=21 206 20 20 20 20 28 20 173 189 182 24 52 27 23 512 21 55 36 23 45 20 29 42
internal_value=0 0.00032513 -1.7938e-05 -4.63664e-05 -1.87924e-05 -0.000138516 6.21758e-05 0.000119878 0.000316006 -4.62333e-05 -0.00017842 -0.000308082 -0.000536862 0.000185413 -0.000242304 0.000317511 0.000439964 0 0.000231777 0.000225825 5.73874e-05 -0.000741237 0
internal_weight=1808 100 1708 1527 1478 629 849 750 362 388 609 99 79 181 540 158 138 79 59 69 83 49 62
internal_count=1808 100 1708 1527 1478 629 849 750 362 388 609 99 79 181 540 158 138 79 59 69 83 49 62
is_linear=0
shrinkage=0.298099


Tree=20
num_leaves=19
num_cat=0
split_feature=16 3 9 16 6 13 9 13 7 5 10 12 9 16 13 15 6 6
split_gain=6.51503e-05 0.000153436 0.000119739 9.19243e-05 0.000164844 9.64304e-05 0.000234547 0.00119839 0.000163868 0.00018698 0.000436 0.00020367 0.000178238 0.000254321 0.000242651 0.00012362 4.21434e-05 6.16918e-05
threshold=-0.89499999999999991 13.798872787581848 0.0050294674176171155 -0.4649999999999998 13.799078406237649 9.6598957217659578 0.01868680665495202 9.5802819186471435 0.0066958953161684528 13.611556513084624 7.2456361926328112 7.5619874984220781 0.0050294674176171155 -0.029999999999999801 9.5673397698098004 2.8450000000000002 13.786520167444076 13.75666227447587
decision_type=2 2 2 2 2 2 2 2 2 2 2 2 2 2 2 2 2 2
left_child=1 2 -1 4 -2 6 8 -8 12 10 -10 -11 14 -14 -5 -7 17 -4
right_child=3 -3 16 5 -6 15 7 -9 9 11 -12 -13 13 -15 -16 -17 -18 -19
leaf_value=0.00056423024332389216 0.00098224993677053108 -0.00096777211819839074 0 0.00016234893237698821 0 0 -0.00068310405060598438 0.0023658901496897483 0.00047330759331858227 0.00010469555982730582 -0.00087660152135006519 -0.00044708615190241439 -0.000682597515067079 0.00020272788466269622 -0.0002704377470513876 -0.00080483817352775596 0 -0.00056450257399287562
leaf_weight=21 24 20 21 186 22 35 20 21 22 218 79 79 27 659 264 29 20 41
leaf_count=21 24 20 21 186 22 35 20 21 22 218 79 79 27 659 264 29 20 41
internal_value=0 -0.00020681 0 1.75807e-05 0.000433626 1.84572e-06 2.0407e-05 0.000722509 0 -0.000162982 -0.000517257 -2.01361e-05 5.92212e-05 0.000158128 -7.69545e-05 -0.00035125 -0.000217744 -0.000350552
internal_weight=1808 123 103 1685 46 1639 1575 41 1534 398 101 297 1136 686 450 64 82 62
internal_count=1808 123 103 1685 46 1639 1575 41 1534 398 101 297 1136 686 450 64 82 62
is_linear=0
shrinkage=0.298099


Tree=21
num_leaves=28
num_cat=0
split_feature=0 9 9 13 13 2 5 15 9 6 15 6 4 11 6 14 5 13 5 11 11 2 9 13 5 0 9
split_gain=7.46212e-05 0.000181234 0.000177858 0.000175096 0.000158707 0.000377888 0.000189624 0.000196611 0.000122326 0.000135641 0.000202324 0.000114841 0.000106058 0.000134577 0.000114205 0.00058177 0.000184195 0.000179332 0.00010094 9.56394e-05 8.65733e-05 6.38868e-05 5.41739e-05 5.25926e-05 4.73816e-05 4.71063e-05 7.29709e-05
threshold=0.001023548244710071 0.0048958385106871354 0.0056588281465390251 9.5635924577533107 9.569848797755812 13.722846722649283 13.742401941462708 2.5900000000000003 0.0039203911336700625 13.407913724741498 2.1200000000000006 13.406457991439128 13.463822902966493 9.5558951902987932 13.724408425939133 4.6250000000000009 13.729407710420617 9.5517969226526578 13.753102956218294 9.5891534485009498 9.5534263618427993 13.806974099789569 0.0066052876870413661 9.5663560847775795 13.82099536455857 0.0021401882464928694 0.012199571602092806
decision_type=2 2 2 2 2 2 2 2 2 2 2 2 2 2 2 2 2 2 2 2 2 2 2 2 2 2 2
left_child=8 19 3 -3 22 -6 -7 -8 9 23 -11 -10 13 -13 15 -14 -16 -17 -18 20 -2 -5 -4 -1 -21 -24 -27
right_child=1 2 4 21 5 6 7 -9 11 10 -12 12 14 -15 16 17 18 -19 -20 24 -22 -23 25 -25 -26 26 -28
leaf_value=4.1657050274518494e-05 0 0.0011815726980492361 0 -0.00017844022049658882 0.0012706290817851287 -0.00083294824700370083 0.00043603421886699828 -0.00016653817955116128 0.00060968626738571027 0 0.0007151520220900578 -0.00098354596394497262 0.0015874023841282166 0 -0.00086383996985121641 0.00037106986629661536 0.00020770912166649018 -0.00030524582747151546 -6.1583687391729376e-05 0.00028889176750078113 -0.00077386957051167658 0.00049147826012767466 0 -0.00048622216821520307 -0.00026730874621073872 -0.00069010022256438871 0
leaf_weight=21 33 21 21 25 21 24 76 117 27 37 84 22 24 27 23 64 152 76 634 21 61 20 23 20 34 64 36
leaf_count=21 33 21 21 25 21 24 76 117 27 37 84 22 24 27 23 64 152 76 634 21 61 20 23 20 34 64 36
internal_value=0 -8.52903e-05 0 0.000460171 -6.84402e-05 5.83623e-05 -2.96545e-05 3.68986e-05 4.34528e-05 0.000284825 0.00045489 0 -9.91792e-06 -0.000439505 5.03869e-06 0.000237239 -3.39505e-05 0 -1.10738e-06 -0.000370235 -0.000554398 0 -0.000323425 -5.72152e-05 0 -0.000401891 -0.000490287
internal_weight=1808 597 448 66 382 238 217 193 1211 162 121 1049 1022 49 973 164 809 140 786 149 94 45 144 41 55 123 100
internal_count=1808 597 448 66 382 238 217 193 1211 162 121 1049 1022 49 973 164 809 140 786 149 94 45 144 41 55 123 100
is_linear=0
shrinkage=0.298099


Tree=22
num_leaves=15
num_cat=0
split_feature=0 0 10 6 7 9 0 11 2 13 3 6 6 9
split_gain=6.48113e-05 0.000223669 6.63643e-05 0.000128464 0.000111549 0.000216906 0.000138854 0.000196693 0.00011901 8.10243e-05 0.000256816 8.59398e-05 0.000130261 5.21702e-05
threshold=-0.015132152830699573 -0.010758579181710635 7.5305309591767973 13.770505394826779 0.015755017456367957 0.017786642259875942 0.0079576156708540697 9.5661039142881972 13.740247928158167 9.5766487624799073 13.798872787581848 13.81285770260479 13.783543448606446 0.0049594214462066353
decision_type=2 2 2 2 2 2 2 2 2 2 2 2 2 2
left_child=-1 -2 4 -4 5 6 8 -8 -3 11 -11 12 -5 -12
right_child=1 2 3 9 -6 -7 7 -9 -10 10 13 -13 -14 -15
leaf_value=-0.00053233978542105128 0.00070223023843400017 9.2017800213447829e-05 0.00075786046807849172 -0.0005944418775807492 0.00059704638656262203 -0.00096555813862324877 -0.00093937629469777813 0 -0.00010751920301177671 0.0011474739586582864 -0.00012355064152715957 -0.00069418311469173497 0.00019486311707543049 0.00010596655870203477
leaf_weight=20 40 499 24 26 21 24 36 54 553 20 106 23 61 301
leaf_count=20 40 499 24 26 21 24 36 54 553 20 106 23 61 301
internal_value=0 4.70833e-06 -7.5643e-06 7.22549e-05 -5.0832e-05 -6.82305e-05 -4.3464e-05 -0.000400293 -6.62358e-06 2.91255e-05 9.82161e-05 -0.000179116 0 3.00147e-05
internal_weight=1808 1788 1748 561 1187 1166 1142 90 1052 537 427 110 87 407
internal_count=1808 1788 1748 561 1187 1166 1142 90 1052 537 427 110 87 407
is_linear=0
shrinkage=0.298099


Tree=23
num_leaves=40
num_cat=0
split_feature=17 13 9 13 14 9 10 6 9 5 2 3 1 5 9 1 10 13 2 3 3 6 15 6 9 10 9 5 13 5 13 19 1 9 10 13 2 6 3
split_gain=5.61361e-05 0.000148493 0.00023154 0.000215165 0.000145535 0.000151225 0.000132734 0.000167887 0.000212764 0.000102303 7.08072e-05 0.000160203 5.81497e-05 5.17999e-05 5.10439e-05 4.05202e-05 0.000113526 0.000155722 0.000124862 0.000132104 0.000143932 0.000238824 0.000218147 8.83694e-05 0.000170074 7.38071e-05 5.86477e-05 6.5257e-05 8.30415e-05 8.93028e-05 5.81818e-05 5.17573e-05 4.58798e-05 4.51971e-05 0.000153973 2.65668e-05 4.03121e-05 2.25172e-05 1.58901e-05
threshold=2.5000000000000004 9.6693448905384685 0.015415741397592624 9.5786988033543441 5.6250000000000009 0.011784684703242052 7.1654200210536692 13.876906734887628 0.0058396710434745506 13.761582076702689 13.799889048094309 13.779364976956904 13.403775552043575 13.894783632185847 0.005992998051353054 13.833349993617782 7.5030470433092216 9.6006613662364853 13.740247928158167 13.529826266839127 13.624955013254473 13.725500811760922 2.9700000000000002 13.773416243491232 0.0069460673118418347 7.5918036875411623 0.0045780536999153109 13.878954620416797 9.6319740564050313 13.858569588681982 9.5686998824657135 2.5000000000000004 13.475832204090908 0.0067308306503787441 7.553082068327158 9.5875911830242391 13.767894566533384 13.747957965859788 13.423947260874542
decision_type=2 2 2 2 2 2 2 2 2 2 2 2 2 2 2 2 2 2 2 2 2 2 2 2 2 2 2 2 2 2 2 2 2 2 2 2 2 2 2
left_child=15 2 4 -4 5 10 12 8 -8 -7 11 -2 -6 -9 -12 16 18 23 19 32 22 -22 -21 24 -18 26 -17 28 29 -28 -20 -27 38 -25 -35 37 -37 -32 -1
right_child=1 -3 3 -5 6 9 7 13 -10 -11 14 -13 -14 -15 -16 25 17 -19 30 20 21 -23 -24 33 -26 31 27 -29 -30 -31 35 -33 -34 34 -36 36 -38 -39 -40
leaf_value=0 -0.00011106706599964871 -0.00081969819568458052 0 0.001179543995106514 0 -0.0010806694931267213 0.00074301974247051534 -0.00029483475449735219 0 -2.1046789661669446e-05 0 0.00033965142889542818 -0.00065886654202096525 9.8442599636413349e-05 -0.00048150635466236326 1.5294882138610883e-05 0 0.0010247256116505921 -0.00060503791280522041 0.0014195262010752159 -0.00069551295254962708 0.00040113545277050935 0.00010555486179576256 0.00017446961117660031 0.00091744094053309601 0 -0.00066735140796031489 -0.00072465170243074149 0.00031138229047914808 0 0 0.00054851332516252867 -0.00039384271511445972 -0.00075766329515243309 0.00013537786348766166 -0.00037877959464558585 0 0.00027639553354421182 0.00026450057076141668
leaf_weight=64 420 22 27 26 24 27 79 53 77 32 43 81 22 35 65 30 26 26 28 24 25 56 46 37 30 21 30 29 21 21 24 23 28 28 21 43 47 27 20
leaf_count=64 420 22 27 26 24 27 79 53 77 32 43 81 22 35 65 30 26 26 28 24 25 56 46 37 30 21 30 29 21 21 24 23 28 28 21 43 47 27 20
internal_value=0 -4.67418e-05 -2.3274e-05 0.000570496 -6.30882e-05 -0.000143859 0.000100279 0.000204888 0.000398551 -0.000618898 -8.68719e-05 -2.49801e-05 -0.000310849 -6.39792e-05 -0.000312677 5.93566e-05 0.000100087 0.000309357 3.3936e-06 0.000146199 0.000336019 0 0.000652273 0.000130979 0.000428002 -4.27162e-05 -0.000185264 -0.000309735 -5.01143e-05 -0.000328005 -0.000179897 0.000231886 -5.12424e-05 0 -0.000242173 -4.82257e-05 -0.000170233 3.84623e-05 0
internal_weight=1808 1033 1011 53 958 668 290 244 156 59 609 501 46 88 108 775 600 168 432 263 151 81 70 142 56 175 131 101 72 51 169 44 112 86 49 141 90 51 84
internal_count=1808 1033 1011 53 958 668 290 244 156 59 609 501 46 88 108 775 600 168 432 263 151 81 70 142 56 175 131 101 72 51 169 44 112 86 49 141 90 51 84
is_linear=0
shrinkage=0.298099


Tree=24
num_leaves=20
num_cat=0
split_feature=15 9 9 7 6 13 4 15 8 13 7 4 8 8 7 3 16 3 4
split_gain=5.84628e-05 0.000128295 8.78609e-05 8.66142e-05 9.57482e-05 7.38543e-05 5.45584e-05 0.000402212 0.00021257 0.000256856 0.000173991 0.000113338 0.00013401 0.00037189 0.000135029 5.07182e-05 3.89562e-05 2.83192e-05 4.0884e-06
threshold=1.4000000000000001 0.019481749325390967 0.018356603334769968 0.0056821184651655093 13.841518101510655 9.5739030538304544 13.731585175181525 3.4800000000000009 13.727489530755527 9.5853772061469815 0.0062586154036416135 13.750971894604463 13.768981158573867 13.788833475231812 0.0046324896788305188 13.746696098520232 1.6900000000000002 13.753102956218294 13.746696098520232
decision_type=2 2 2 2 2 2 2 2 2 2 2 2 2 2 2 2 2 2 2
left_child=3 2 6 18 5 -5 7 8 10 -10 -2 15 14 -14 -13 16 -8 -17 -1
right_child=1 -3 -4 4 -6 -7 11 -9 9 -11 -12 12 13 -15 -16 17 -18 -19 -20
leaf_value=0 5.5482258299502306e-05 -0.00051809032518664304 0.00065811864266658896 0 -0.00054599795239612941 0.00061188848678011773 0 0.0011837116825084567 0 -0.001552424737763021 -0.00036177332684844064 -0.00046951650538957509 0.00056318903403057596 -8.6875661051220386e-06 0 -0.00010565656418703431 0.00049297144103772428 0.00026691386336930825 -0.00069024904951812342
leaf_weight=21 308 38 20 28 20 24 37 21 28 20 117 91 116 625 110 39 89 29 27
leaf_count=21 308 38 20 28 20 24 37 21 28 20 117 91 116 625 110 39 89 29 27
internal_value=0 1.34178e-05 2.96992e-05 -0.000201738 0 0.000218508 1.78821e-05 -5.85111e-05 -0.000127995 -0.000731995 -4.40287e-05 5.68933e-05 6.8769e-06 7.20834e-05 -0.000200677 0.000265661 0.000379904 0 -0.000511129
internal_weight=1808 1688 1650 120 72 52 1630 494 473 48 425 1136 942 741 201 194 126 68 48
internal_count=1808 1688 1650 120 72 52 1630 494 473 48 425 1136 942 741 201 194 126 68 48
is_linear=0
shrinkage=0.298099


Tree=25
num_leaves=27
num_cat=0
split_feature=0 7 0 7 1 1 3 9 1 6 5 1 7 9 5 5 10 7 15 10 1 9 9 5 1 7
split_gain=6.03097e-05 0.000129919 0.000127395 0.000102289 0.000102174 0.000363359 0.000130357 8.17734e-05 8.11114e-05 0.000957598 0.000408116 0.000190723 0.000201296 0.000126602 0.000112348 0.000182292 0.00010087 0.000137723 9.38882e-05 0.000121194 8.66571e-05 7.86995e-05 6.01577e-05 5.87568e-05 6.44953e-05 5.12223e-05
threshold=-0.0010493206392094832 0.0022535887510928706 -0.005007702551854897 0.0026732761709449232 13.611556513084624 13.731585175181525 13.543045235756304 0.014545009925995415 13.611556513084624 13.561793447936246 13.712923815721943 13.545668189207626 0.0041436041662963772 0.0064678100370710381 13.726132597346973 13.733757908888089 7.1787894886972774 0.0032180150872405796 1.4000000000000001 7.5645444234459704 13.757351503371618 0.0071896957638197187 0.0040809267892559396 13.528494708129385 13.466661799134894 0.0063043324124652704
decision_type=2 2 2 2 2 2 2 2 2 2 2 2 2 2 2 2 2 2 2 2 2 2 2 2 2 2
left_child=1 2 -1 -3 6 -6 23 21 9 11 -10 12 16 -14 -12 -16 22 -18 19 -17 -20 -7 -2 24 -5 -15
right_child=8 3 -4 4 5 7 -8 -9 10 -11 14 -13 13 25 15 18 17 -19 20 -21 -22 -23 -24 -25 -26 -27
leaf_value=0 -0.00073328745501396108 -0.00044655993589682837 0.0010362868547934799 0 0.0011749704053087198 0 -0.00068471679972908757 -0.00041189832657420209 -0.0013057610433595945 0.0019333862018326392 0.00053428172651610352 -0.00072664072887367796 0.000863926824250495 0.00040560892401169692 -0.00072734838778182093 -0.00066790678751084583 0.00038595794545128115 -0.00051310482476713481 0.00017347694675428721 0 -6.0339395013312566e-05 0.00028199638982641162 0 0.0004396659331138465 -0.00054009959607650006 -5.5449192635493356e-05
leaf_weight=21 36 35 24 43 29 194 30 26 24 23 26 33 32 27 37 45 41 23 182 20 609 134 25 23 22 44
leaf_count=21 36 35 24 43 29 194 30 26 24 23 26 33 32 27 37 45 41 23 182 20 609 134 25 23 22 44
internal_value=0 7.61652e-05 0.000569407 2.2312e-05 6.83376e-05 0.000151998 -0.000147385 4.90664e-05 -4.02467e-05 8.84373e-05 -8.59826e-05 -5.02145e-05 1.93806e-05 0.000352576 -4.67205e-05 -7.1104e-05 -0.000202765 0 -3.49093e-05 -0.000379477 0 0.00010585 -0.000480234 0 -0.000106535 2.81109e-05
internal_weight=1808 581 45 536 501 383 118 354 1227 284 943 261 228 103 919 893 125 64 856 65 791 328 61 88 65 71
internal_count=1808 581 45 536 501 383 118 354 1227 284 943 261 228 103 919 893 125 64 856 65 791 328 61 88 65 71
is_linear=0
shrinkage=0.298099


Tree=26
num_leaves=19
num_cat=0
split_feature=11 5 9 9 9 13 12 10 12 10 7 7 12 13 18 12 10 10
split_gain=6.28451e-05 0.000319475 0.000136595 0.000110134 0.000121317 0.000243097 0.00010941 0.000107683 0.000115796 0.000243834 0.000200946 0.000101982 9.10789e-05 8.90205e-05 7.18599e-05 6.5051e-05 0.000103341 5.37043e-05
threshold=9.6052432213157797 13.727225493956963 0.0038852637572718632 0.0049277979272971091 0.0092495994386360744 9.642512320806274 7.5958069980380136 7.5836239502538367 7.565044683267069 7.553082068327158 0.0043626804851094386 0.0058622279179644209 7.508968074586531 9.656371439781962 1.5000000000000002 7.5490748118557383 7.5305309591767973 7.512445486466496
decision_type=2 2 2 2 2 2 2 2 2 2 2 2 2 2 2 2 2 2
left_child=6 -2 -3 12 13 11 7 8 9 15 -10 -6 -4 14 -5 16 -1 -7
right_child=1 2 3 4 5 17 -8 -9 10 -11 -12 -13 -14 -15 -16 -17 -18 -19
leaf_value=-6.0823567822593324e-05 0.001168096389746428 0.00045814941184070947 0 -3.7381541000560424e-05 0 -8.6119326329291558e-05 -0.00060167557159945123 0.00052924224149811759 4.6051420123015129e-05 0.00076112663755640978 -0.00087296916086683854 -0.00095604977586482513 -0.00057660138223615011 -0.00029397478119661024 0.00030930824532352387 -0.00050468518391111154 0.00025393368414806895 0.00028137679316771831
leaf_weight=947 23 58 26 29 21 46 31 29 20 34 39 37 53 21 207 28 98 61
leaf_count=947 23 58 26 29 21 46 31 29 20 34 39 37 53 21 207 28 98 61
internal_value=0 7.72188e-05 2.02083e-05 -1.75219e-05 2.88919e-05 -0.000150396 -4.15139e-05 -2.13912e-05 -4.08053e-05 -1.29247e-05 -0.000451166 -0.000654504 -0.000347979 0.000169589 0.000238873 -4.37043e-05 -2.49757e-05 6.21686e-05
internal_weight=1808 582 559 501 422 165 1226 1195 1166 1107 59 58 79 257 236 1073 1045 107
internal_count=1808 582 559 501 422 165 1226 1195 1166 1107 59 58 79 257 236 1073 1045 107
is_linear=0
shrinkage=0.298099


Tree=27
num_leaves=20
num_cat=0
split_feature=0 0 10 2 16 5 15 5 1 0 18 1 10 1 0 11 15 13 5
split_gain=3.43717e-05 0.000101292 3.55654e-05 7.64672e-05 0.000125636 7.18654e-05 0.000110664 6.69625e-05 6.17811e-05 5.80092e-05 5.25391e-05 9.89693e-05 7.14551e-05 5.17429e-05 0.0001018 5.89543e-05 4.36293e-05 2.80325e-05 2.72651e-06
threshold=-0.015132152830699573 -0.010758579181710635 7.5538344351216145 13.812004292755356 1.3700000000000001 13.798872787581848 4.955000000000001 13.791729898210077 13.830891538789297 -1.0000000180025095e-35 8.5000000000000018 13.722846722649283 7.5030470433092216 13.867628399599781 0.00094340154403482767 9.5933042076190169 1.5700000000000003 9.6319740564050313 13.758410825801759
decision_type=2 2 2 2 2 2 2 2 2 2 2 2 2 2 2 2 2 2 2
left_child=-1 18 5 -4 9 7 16 10 -8 -5 11 -3 -12 15 -15 -6 -7 -10 -2
right_child=1 2 3 4 13 6 8 -9 17 -11 12 -13 -14 14 -16 -17 -18 -19 -20
leaf_value=-0.00038888734322632668 0.00067449286943786194 0.00014839255552179335 0.00047410347922484646 0 0 0 0.00041947443435821127 0.00038408933962994591 -0.00037775156143249453 -0.00061334206729106791 -0.00018262815412972068 -6.5258675589977168e-05 0.00012895920115063757 0.00015809277688087357 -0.00027801247677891085 0.00049782690865558528 -0.00046544492883945221 0 0
leaf_weight=20 20 333 38 24 28 31 29 38 20 35 301 418 58 154 67 52 99 23 20
leaf_count=20 20 333 38 24 28 31 29 38 20 35 301 418 58 154 67 52 99 23 20
internal_value=0 1.04956e-06 -6.00733e-06 6.72288e-05 5.80715e-06 -3.24742e-05 -0.000196541 0 2.17227e-05 -0.000369509 -1.69112e-05 2.07366e-05 -0.000113943 0.000101384 0 0.000309763 -0.000367791 -9.49163e-05 0.000471677
internal_weight=1808 1788 1748 398 360 1350 202 1148 72 59 1110 751 359 301 221 80 130 43 40
internal_count=1808 1788 1748 398 360 1350 202 1148 72 59 1110 751 359 301 221 80 130 43 40
is_linear=0
shrinkage=0.298099


Tree=28
num_leaves=24
num_cat=0
split_feature=11 10 1 3 2 0 13 0 13 13 13 1 3 3 10 7 18 7 13 18 2 10 0
split_gain=4.2112e-05 0.000164292 7.74858e-05 0.000148277 9.03832e-05 7.72901e-05 6.53325e-05 0.000136427 0.000134755 0.000128244 0.000104794 4.38643e-05 3.56524e-05 5.85361e-05 0.000114014 0.000158132 6.81039e-05 8.20599e-05 0.000115041 4.11905e-05 2.89284e-05 2.85838e-05 1.76629e-05
threshold=9.6119815112199039 7.3936191355426724 13.850394843241586 13.827932956030187 13.870472004050361 0.014600086790959923 9.586839994579881 0.0071196607979615587 9.5850605788234109 9.5900328742311824 9.5829516652505529 13.876135069054055 13.757351503371618 13.889225487921198 7.5972783697151884 0.0053200798971721926 2.5000000000000004 0.0052204405390369009 9.6334487779657678 7.5000000000000009 13.841665396811775 7.5734644567617666 -1.0000000180025095e-35
decision_type=2 2 2 2 2 2 2 2 2 2 2 2 2 2 2 2 2 2 2 2 2 2 2
left_child=2 -2 3 5 -4 6 8 9 10 -8 -1 -6 22 16 15 -15 20 18 -18 -19 -14 -5 -3
right_child=1 12 4 21 11 -7 7 -9 -10 -11 -12 -13 13 14 -16 -17 17 19 -20 -21 -22 -23 -24
leaf_value=3.8469630863452624e-06 0.00091971959567365563 0 -0.00072582070418747402 8.5848324944635065e-05 0.00021760893148949461 -0.00059374997367190457 -0.0010069517239195754 0.00042496352803643483 0.00063056190771239502 -0.00013357817108120541 -0.00060854117015805907 -0.00033738400557897628 0 -0.0010493830378229087 0.00020745742529000924 0 4.2920011550462263e-05 0.00024398833355997095 0.00068626799702378727 -0.00014638312746177021 -0.00033578774236887491 0.00083794472930548555 -0.00028213297637036188
leaf_weight=937 20 22 30 41 24 22 23 20 30 136 25 24 25 21 39 40 83 40 62 59 26 20 39
leaf_count=937 20 22 30 41 24 22 23 20 30 136 25 24 25 21 39 40 83 40 62 59 26 20 39
internal_value=0 7.58106e-05 -2.74726e-05 -4.16157e-06 -0.000317258 -3.25325e-05 -1.62835e-05 -0.000183937 7.37029e-06 -0.000302234 -5.34718e-06 0 2.40294e-05 6.90136e-05 -9.10148e-05 -0.000389353 0.000145557 0.000220983 0.000363813 0 -8.63459e-05 0.000441672 -0.000159134
internal_weight=1808 476 1332 1254 78 1193 1171 179 992 159 962 48 456 395 100 61 295 244 145 99 51 61 61
internal_count=1808 476 1332 1254 78 1193 1171 179 992 159 962 48 456 395 100 61 295 244 145 99 51 61 61
is_linear=0
shrinkage=0.298099


Tree=29
num_leaves=36
num_cat=0
split_feature=11 2 1 2 12 12 12 11 9 18 18 7 7 7 15 12 9 15 5 9 18 12 1 9 15 11 1 15 3 7 9 7 12 9 7
split_gain=2.87752e-05 0.000221569 0.000615547 0.000295199 0.000383081 0.000143108 0.000206777 9.41757e-05 9.14386e-05 0.000193004 0.000203238 0.000160992 9.03289e-05 0.000136983 0.00011146 8.5148e-05 8.43764e-05 0.000160096 7.63584e-05 7.32835e-05 0.000114922 5.28889e-05 4.53338e-05 0.000107723 0.000143796 5.73268e-05 4.42795e-05 3.88556e-05 3.77954e-05 3.76695e-05 3.25933e-05 2.75854e-05 2.23058e-05 1.52485e-05 5.14093e-07
threshold=9.5599368356519054 13.624955013254473 13.549916028821702 13.727225493956963 7.455168343483547 7.3129236764038161 7.1886617489961422 9.5589916975468974 0.0053422537348744885 10.500000000000002 6.5000000000000009 0.0049988152711424073 0.0039528993769042059 0.0034482689534256982 3.2000000000000006 7.4882179658176886 0.0050294674176171155 3.2000000000000006 13.794797386079702 0.01002507730409849 3.5000000000000004 7.1625137508910459 13.771035931234318 0.0090288295697617434 2.6750000000000003 9.5477764290503497 13.822982449657077 1.5700000000000003 13.870472004050361 0.010922428675771489 0.0043477182410709032 0.0033145281279016968 7.5013196621156437 0.0038225929524274985 0.0028322438848913194
decision_type=2 2 2 2 2 2 2 2 2 2 2 2 2 2 2 2 2 2 2 2 2 2 2 2 2 2 2 2 2 2 2 2 2 2 2
left_child=7 2 5 4 -3 6 21 8 9 10 30 -10 13 14 15 -5 17 27 -16 20 -18 33 23 25 -25 -13 -19 -14 32 -21 34 -11 -15 -2 -1
right_child=1 3 -4 12 -6 -7 -8 -9 11 31 -12 22 16 28 18 -17 19 26 -20 29 -22 -23 -24 24 -26 -27 -28 -29 -30 -31 -32 -33 -34 -35 -36
leaf_value=0 0.00034945441085482257 -0.0014641348089142292 0.001915934031177263 -6.3885297668647817e-05 0 -0.00054654953416147364 0.00080654869197065669 -0.00062363982042363132 -0.00052875937394035878 -0.00045929073627457712 0.0011789506875367482 5.5179722066467925e-05 0 3.8419097448668268e-05 0 0.00031638695387063969 0.00037441761520135827 0.00035237270710542878 -0.00037036372254220951 -0.00023172975337449022 0 -0.00034488269217893566 -0.00034907436334819376 0.00089406670481308832 0 -0.00034940082373562017 -0.00013615466300233563 -0.00080413442500334477 0 0 0.00032309685923461199 0 0.00072277655092201239 0 -4.4390786879392198e-05
leaf_weight=20 20 28 20 46 20 21 39 26 68 27 25 38 22 30 50 132 87 27 79 146 367 30 26 28 37 46 30 41 20 72 31 20 46 20 23
leaf_count=20 20 28 20 46 20 21 39 26 68 27 25 38 22 30 50 132 87 27 79 146 367 30 26 28 37 46 30 41 20 72 31 20 46 20 23
internal_value=0 2.20487e-05 0.000365977 -1.42142e-05 -0.000739853 7.46542e-05 0.000255271 -6.7287e-05 -1.29311e-05 0.000153261 0.000417661 -0.00013986 9.54067e-06 0.000128742 9.03036e-06 0.00018125 -4.28295e-05 -0.000272908 -0.000177631 0 6.65209e-05 0 0 7.49471e-05 0.000386762 -8.85531e-05 0 -0.000605666 0.000442464 -0.000143652 6.95601e-05 -0.000263778 0.000539681 0.000166183 0
internal_weight=1808 1393 150 1243 48 130 109 415 389 146 99 243 1195 403 307 178 792 120 129 672 454 70 175 149 65 84 57 63 96 218 74 47 76 40 43
internal_count=1808 1393 150 1243 48 130 109 415 389 146 99 243 1195 403 307 178 792 120 129 672 454 70 175 149 65 84 57 63 96 218 74 47 76 40 43
is_linear=0
shrinkage=0.298099


Tree=30
num_leaves=40
num_cat=0
split_feature=8 2 2 11 2 11 11 8 13 0 0 18 15 5 6 8 17 13 6 11 8 6 6 15 2 0 6 8 2 5 6 17 17 0 17 8 13 13 11
split_gain=3.11461e-05 0.000312723 0.000231436 0.000205794 0.000153709 7.85328e-05 6.72648e-05 0.000105047 7.84998e-05 4.26549e-05 0.000103652 6.71348e-05 6.86504e-05 5.01859e-05 6.66496e-05 4.60425e-05 4.22473e-05 3.62376e-05 0.000219272 9.66169e-05 0.000139724 7.55163e-05 7.06118e-05 0.000133831 7.7004e-05 7.05797e-05 4.86026e-05 0.000113464 5.75953e-05 3.57127e-05 6.0405e-05 3.23591e-05 2.86086e-05 2.63275e-05 2.84374e-05 2.09359e-05 1.21123e-05 1.11617e-05 1.75867e-06
threshold=13.624227739554478 13.706252172270666 13.544357572467691 9.5477764290503497 13.531156054857005 9.5586635277862388 9.5556130563668003 13.407616012173836 9.5570457823780846 -0.0010493206392094832 -0.0028544269418819819 3.5000000000000004 1.6700000000000002 13.819004323088944 13.799078406237649 13.852981885491337 1.0000000180025095e-35 9.5886080347541913 13.734675515218433 9.5706128166102182 13.746320529377568 13.74046700697482 13.786145137097551 3.4300000000000006 13.758410825801759 0.0063741971310564702 13.786520167444076 13.82076841664461 13.769989905748206 13.527161374005926 13.413160953096634 3.5000000000000004 2.5000000000000004 -1.0000000180025095e-35 2.5000000000000004 13.803696748551529 9.5235857637396641 9.5802819186471435 9.6419409561643068
decision_type=2 2 2 2 2 2 2 2 2 2 2 2 2 2 2 2 2 2 2 2 2 2 2 2 2 2 2 2 2 2 2 2 2 2 2 2 2 2 2
left_child=2 -2 4 36 6 -6 16 33 -9 10 13 -12 37 14 32 -15 -1 19 -19 20 21 -11 24 -24 -21 -22 28 -28 -20 30 -18 -10 -3 -8 -35 -14 -4 -13 -17
right_child=1 9 3 -5 5 -7 7 8 31 17 11 12 35 15 -16 38 29 18 26 22 25 -23 23 -25 -26 -27 27 -29 -30 -31 -32 -33 -34 34 -36 -37 -38 -39 -40
leaf_value=0 0.0010851839522791117 9.3693026797755799e-05 -0.00020275006744851872 -0.0010186658710407584 0.00077307559725205751 0 0 0.00087424953281055101 -3.6167788328946495e-05 0 0 -5.1437870997152755e-05 0.00077359140074482156 0.00039689289167464648 -0.00049540259842724616 2.1399623541434882e-05 0 -0.00090559243379280765 0 0.00018454892425850785 -0.00041311563905685824 0.00062156513122547626 0.00087712492974000532 0 -0.00031695863550926229 0 -0.0004189574726580824 0 0.00051248692325198597 0 -0.00062243541733675528 0.00032451022098565569 -0.00015069202499236022 0 -0.00040290419127161095 5.8691166009623512e-05 0 0.00021047950431662201 -8.0543332440903057e-05
leaf_weight=21 24 82 26 39 34 22 21 20 29 48 24 20 43 40 33 41 25 28 79 94 109 23 32 41 36 22 74 316 26 25 47 27 80 20 38 29 28 21 21
leaf_count=21 24 82 26 39 34 22 21 20 29 48 24 20 43 40 33 41 25 28 79 94 109 23 32 41 36 22 74 316 26 25 47 27 80 20 38 29 28 21 21
internal_value=0 2.23021e-05 -7.01619e-05 -0.000489989 2.87463e-05 0.000489296 -4.19229e-05 5.52061e-05 0.000333552 0 8.03877e-05 0.000295965 0.000398596 0 -0.00010668 0.000148005 -0.000225028 -3.25708e-05 -8.75049e-05 2.21495e-05 -0.000104115 0.000177635 0.000180132 0.000419317 0 -0.000306974 -2.76333e-05 -8.6779e-05 0.00012931 -0.00031656 -0.000422944 2.11972e-05 0 -0.000129689 -0.000251196 0.000577612 0 0 0
internal_weight=1808 1386 422 93 329 56 273 155 76 1362 434 137 113 297 195 102 118 928 523 405 202 71 203 73 130 131 495 390 105 97 72 56 162 79 58 72 54 41 62
internal_count=1808 1386 422 93 329 56 273 155 76 1362 434 137 113 297 195 102 118 928 523 405 202 71 203 73 130 131 495 390 105 97 72 56 162 79 58 72 54 41 62
is_linear=0
shrinkage=0.298099


Tree=31
num_leaves=23
num_cat=0
split_feature=0 0 4 9 1 0 15 7 0 4 8 0 0 9 12 15 1 4 7 1 5 8
split_gain=2.82603e-05 0.000145313 0.000194551 7.39655e-05 0.000121543 6.29715e-05 0.000131417 4.99917e-05 6.01028e-05 5.13895e-05 8.63013e-05 3.84465e-05 5.28986e-05 4.80527e-05 0.000116467 5.82596e-05 4.14096e-05 7.89368e-05 2.26662e-05 1.34587e-05 6.39523e-06 4.79648e-06
threshold=-0.0042149740395265303 -0.0032188878259091776 13.756291057587051 0.0086641144742478967 13.776249708800139 -0.0020232687849990323 2.6550000000000007 0.0052377356858799061 -0.0065446633316392768 13.809995250889722 13.755945530253575 -0.0012970175885236299 -0.0010604457845682089 0.0048958385106871354 7.3475960468999784 1.6700000000000002 13.529826266839127 13.821989400671262 0.0048828709826774291 13.731585175181525 13.604171861344627 13.819261794474555
decision_type=2 2 2 2 2 2 2 2 2 2 2 2 2 2 2 2 2 2 2 2 2 2
left_child=3 2 -2 7 20 6 18 9 -9 10 19 16 -13 15 -15 -14 -7 -18 -3 -1 -5 -6
right_child=1 5 -4 4 21 11 -8 8 -10 -11 -12 12 13 14 -16 -17 17 -19 -20 -21 -22 -23
leaf_value=0.0003422136765023535 -0.0012279363679364354 7.3287667124280654e-05 0 0 -0.00014074911126174173 0 0.00053214085732798037 -0.00051152151614417257 0 0.00037142914219056168 -0.0003908932825396249 0.00038765481026373401 -0.00044206734145422219 0.00026885157144578253 -2.0702569812815221e-05 -3.4635556669850918e-05 -0.00084305390075848068 0 -0.00022558546093961259 0 0.000769074661900416 1.5558208611608222e-05
leaf_weight=27 20 32 37 20 21 21 60 34 26 39 37 30 46 142 779 271 20 21 36 28 34 27
leaf_count=27 20 32 37 20 21 21 60 34 26 39 37 30 46 142 779 271 20 21 36 28 34 27
internal_value=2.28463e-07 -1.24401e-05 -0.000479447 8.81258e-05 0.000294289 1.36641e-06 0.000204568 0 -0.000244688 7.99775e-05 0 -1.32725e-05 0 -1.15399e-05 1.68482e-05 -0.000114708 -0.000242302 -0.000421898 0 0.000189778 0.000602216 0
internal_weight=1808 1515 57 293 102 1458 128 191 60 131 92 1330 1268 1238 921 317 62 41 68 55 54 48
internal_count=1808 1515 57 293 102 1458 128 191 60 131 92 1330 1268 1238 921 317 62 41 68 55 54 48
is_linear=0
shrinkage=0.298099


Tree=32
num_leaves=34
num_cat=0
split_feature=9 12 13 16 9 16 16 9 6 7 11 2 9 6 2 6 1 1 12 6 1 13 14 11 1 13 16 13 12 4 6 7 13
split_gain=3.30753e-05 0.000252287 0.00026011 0.000147536 0.000101932 9.73908e-05 0.000234649 0.000187148 0.000265306 0.000290039 0.000102544 0.00025751 0.000137233 9.93276e-05 9.46949e-05 9.21012e-05 0.000167035 0.000132092 8.95056e-05 0.000170072 0.000114197 7.34829e-05 7.14487e-05 6.71443e-05 0.0001562 5.59608e-05 5.5575e-05 8.26653e-05 8.24687e-05 5.36766e-05 4.99576e-05 4.65222e-05 4.35705e-05
threshold=0.010694282895948766 7.3122332158910126 9.5613387413896174 2.3900000000000006 0.019018855791470921 2.4700000000000002 2.2450000000000006 0.004705471590432767 13.724408425939133 0.0055143843465828568 9.6511434684885433 13.907633742873733 0.0056588281465390251 13.75666227447587 13.415778703660486 13.561793447936246 13.727225493956963 13.537778598522049 7.4037037690507219 13.736824386907395 13.762636929414613 9.5944273468851211 4.3750000000000009 9.6530158038921208 13.845554561602459 9.5528407529962909 2.1250000000000004 9.5538850864543363 7.4582092213837727 13.882701698222638 13.815847011829208 0.0030668630472066192 9.5578055343826147
decision_type=2 2 2 2 2 2 2 2 2 2 2 2 2 2 2 2 2 2 2 2 2 2 2 2 2 2 2 2 2 2 2 2 2
left_child=5 2 -2 4 18 6 15 -8 9 -9 11 12 21 -10 -14 17 -17 25 -3 -20 -21 31 -16 24 30 -1 27 -18 -28 -23 -5 -7 -19
right_child=1 3 -4 23 -6 10 7 8 13 -11 -12 -13 14 -15 22 16 26 32 19 20 -22 29 -24 -25 -26 -27 28 -29 -30 -31 -32 -33 -34
leaf_value=-0.00018335904889314175 0 8.2951139772840531e-05 0.001350703482964585 0 -0.00096381491618250487 -0.00030591671594605672 0 0.0019124764153778989 -0.00014347795939054838 5.579327711823778e-05 -0.00076277939503272213 0.00092989680637837395 0 0.00064077351455311504 -2.4624362194227172e-05 0.0007851354182075908 0.00061343662850152933 -0.00098576360493460411 -0.0011864758556013922 0.00021470716780650509 -0.00035633129465813214 0.00040758930852655248 -0.00074326094441387928 0.00044754384070324975 -0.00064686464126022312 0.00040642321498504804 0.00020882389528817071 2.7198849037462118e-05 -0.00032047680573779597 0 0.00051687033921106365 0 -7.6416782022378665e-05
leaf_weight=24 22 36 20 30 27 65 38 25 30 22 21 21 21 20 42 27 24 22 20 35 83 56 58 30 29 25 21 685 91 31 23 53 31
leaf_count=24 22 36 20 30 27 65 38 25 30 22 21 21 21 20 42 27 24 22 20 35 83 56 58 30 29 25 21 685 91 31 23 53 31
internal_value=0 -7.81165e-05 0.000570064 -0.000186369 -0.000344125 2.30455e-05 7.16424e-05 0.000440917 0.000664492 0.00118633 -0.000102343 -4.30546e-05 -0.000126374 4.04013e-05 -0.000378971 1.2172e-05 5.08911e-05 -0.000244898 -0.000209305 -0.000333136 -0.000131252 0 -0.000507659 3.82367e-05 -3.2172e-05 0 1.85677e-05 5.64678e-05 -0.000162446 0.000228796 0.000181614 -0.00012898 -0.000579605
internal_weight=1808 355 42 313 201 1453 1085 135 97 47 368 347 326 50 121 950 848 102 174 138 118 205 100 112 82 49 821 709 112 87 53 118 53
internal_count=1808 355 42 313 201 1453 1085 135 97 47 368 347 326 50 121 950 848 102 174 138 118 205 100 112 82 49 821 709 112 87 53 118 53
is_linear=0
shrinkage=0.298099


Tree=33
num_leaves=21
num_cat=0
split_feature=12 10 10 1 12 10 15 5 1 11 4 7 10 2 2 1 4 1 13 10
split_gain=3.59311e-05 4.85793e-05 2.5112e-05 0.000145755 0.000137882 9.54051e-05 7.16036e-05 6.1446e-05 0.000393758 0.000285338 0.000155384 0.000255462 0.000184439 0.00011495 5.87544e-05 7.00234e-05 5.84489e-05 7.5053e-05 4.06474e-05 5.63005e-06
threshold=7.6185655432875903 7.609547399787318 7.4757643126632631 13.738089265061442 7.4594771297192795 7.4660845243445051 1.4800000000000002 13.604171861344627 13.722846722649283 9.5886080347541913 13.544357572467691 0.0057543883830882157 7.3227613817240949 13.732672132131336 13.7741674586548 13.837761047339777 13.743477210694323 13.803943793667427 9.5693565516942716 7.4729781735011054
decision_type=2 2 2 2 2 2 2 2 2 2 2 2 2 2 2 2 2 2 2 2
left_child=1 2 4 -4 7 -6 14 10 9 -9 12 -12 -1 -10 -5 -16 18 -18 -8 -7
right_child=-2 -3 3 6 5 19 16 8 13 -11 11 -13 -14 -15 15 -17 17 -19 -20 -21
leaf_value=-2.1903213333926767e-05 -0.00039005479734844869 0.00041175347401755134 0.00062220195454430803 -0.00043742917550045052 -0.00073806565842943835 0 -0.00055244766137446167 0 -0.00058369297475873415 0.0017858389292047432 0 -0.00095790666529659192 0.00085818716530713446 4.6601047677686502e-05 0.00016146370099190995 -0.00036571243102622271 0.00017152500418948595 0 0 -0.00015744167171264349
leaf_weight=310 20 26 36 52 40 33 21 21 29 20 46 41 22 153 58 35 361 431 33 20
leaf_count=310 20 26 36 52 40 33 21 21 29 20 46 41 22 153 58 35 361 431 33 20
internal_value=1.86897e-07 8.26841e-06 0 3.23149e-05 -3.9703e-05 -0.000379376 4.14156e-06 0 0.000135261 0.000973297 -5.73148e-05 -0.000416007 1.70648e-05 -1.82277e-05 -0.000181144 0 4.37009e-05 7.06746e-05 -0.000229469 0
internal_weight=1808 1788 1762 1027 735 93 991 642 223 41 419 87 332 182 145 93 846 792 54 53
internal_count=1808 1788 1762 1027 735 93 991 642 223 41 419 87 332 182 145 93 846 792 54 53
is_linear=0
shrinkage=0.298099


Tree=34
num_leaves=28
num_cat=0
split_feature=0 7 10 12 12 9 13 16 10 12 11 11 9 7 0 16 0 12 7 0 10 9 18 7 12 13 12
split_gain=5.20083e-05 7.43675e-05 5.64839e-05 0.000184359 0.000117337 0.000112972 0.000108075 4.99072e-05 3.68504e-05 0.00014933 5.75632e-05 0.000109965 0.000103745 4.70561e-05 7.91948e-05 0.000139268 8.27795e-05 7.57546e-05 7.04608e-05 9.26315e-05 9.15734e-05 7.40884e-05 4.24887e-05 2.86687e-05 1.52637e-05 2.69389e-05 1.06771e-05
threshold=0.0052224411881924846 0.010465815188052873 7.512445486466496 7.5476282535228068 7.4447748264035711 0.004705471590432767 9.5766487624799073 2.3000000000000003 7.5714375901458473 7.565044683267069 9.6100288330454688 9.6511434684885433 0.010558096342467743 0.0080199043516648756 -0.0042757960842303424 2.1850000000000005 -0.0021265298447152854 7.4619535546207709 0.0068716171703449612 -0.011119007309916105 7.4503148365819483 0.0043930212023683074 8.5000000000000018 0.0043090785167105173 7.5881388489718509 9.5842287979994296 7.4900853822162299
decision_type=2 2 2 2 2 2 2 2 2 2 2 2 2 2 2 2 2 2 2 2 2 2 2 2 2 2 2
left_child=8 2 4 -4 5 -2 -6 -7 9 13 24 12 -12 18 15 -15 -16 -18 19 -1 -20 -21 -11 -5 25 -10 -22
right_child=1 -3 3 23 6 7 -8 -9 10 22 11 -13 -14 14 16 -17 17 -19 20 21 26 -23 -24 -25 -26 -27 -28
leaf_value=0.0005242247781913975 -0.00043919387991773242 -0.00052305723612900334 0.00070629481220938124 0 0 0.00053242187954829177 -0.00068331783881700242 0 0.00032729536364430305 -0.00070954438988860057 0.00066771282563548781 -4.5272795870799043e-05 0 0.00096550029451333201 -0.00049362237267417883 0 0.00037282822021585848 0 -0.00060888958557851335 0.00014065859293766955 0.00012046362434712031 -4.6127932708208608e-05 0 -0.00028130465015316738 -0.00015612129265846648 0 -0.00012209808032585858
leaf_weight=32 22 37 34 23 30 36 51 23 25 32 63 27 20 26 20 20 66 76 37 263 27 647 22 40 43 29 37
leaf_count=32 22 37 34 23 30 36 51 23 25 32 63 27 20 26 20 20 66 76 37 263 27 647 22 40 43 29 37
internal_value=0 -0.000112926 -2.86399e-05 0.000115745 -0.000155665 2.76531e-05 -0.00041962 0.000313646 2.3633e-05 0 0.000141004 0.0002895 0.000477302 2.59537e-05 0.000155352 0.000510421 1.35268e-05 0.000131743 0 2.55121e-05 -0.000236264 6.49221e-07 -0.000478909 -0.00010003 0 7.48829e-05 0
internal_weight=1808 296 259 97 162 81 81 59 1512 1305 207 110 83 1251 208 46 162 142 1043 942 101 910 54 63 97 54 64
internal_count=1808 296 259 97 162 81 81 59 1512 1305 207 110 83 1251 208 46 162 142 1043 942 101 910 54 63 97 54 64
is_linear=0
shrinkage=0.298099


Tree=35
num_leaves=12
num_cat=0
split_feature=12 12 12 13 11 13 11 12 7 11 7
split_gain=2.08946e-05 5.14055e-05 5.15867e-05 2.47795e-05 6.77136e-05 6.00267e-05 0.00010466 7.9524e-05 5.37275e-05 5.22035e-05 2.01526e-05
threshold=7.6107017796264289 7.6028330665717183 7.5958069980380136 9.6610656069219356 9.6525294939245754 9.639801743639584 9.6367512440670478 7.4833259648608852 0.0078286942820661089 9.6693448905384685 0.0049266650598422954
decision_type=2 2 2 2 2 2 2 2 2 2 2
left_child=1 2 3 4 5 6 -1 -7 10 -5 -6
right_child=-2 -3 -4 9 8 7 -8 -9 -10 -11 -12
leaf_value=0 -0.00022327357511004817 0.00043469763853264728 -0.00042653703604013366 0 0.00023011167383913466 0 0.00051186790269569819 -0.00051440939662360024 0.00073910835975086954 -0.00047591849388594514 -3.9351485206362423e-05
leaf_weight=1488 37 24 25 28 33 20 36 46 20 29 22
leaf_count=1488 37 24 25 28 33 20 36 46 20 29 22
internal_value=0 1.32884e-06 -9.06588e-07 1.49973e-06 1.18751e-05 0 1.08668e-05 -0.000279065 0.00028837 -0.000185657 3.40817e-06
internal_weight=1808 1771 1747 1722 1665 1590 1524 66 75 57 55
internal_count=1808 1771 1747 1722 1665 1590 1524 66 75 57 55
is_linear=0
shrinkage=0.298099


Tree=36
num_leaves=42
num_cat=0
split_feature=10 6 8 6 1 13 10 16 10 2 8 1 8 1 9 9 13 8 8 1 13 2 9 4 8 8 10 9 8 8 9 8 1 14 1 9 15 13 16 1 8
split_gain=1.36051e-05 8.22487e-05 0.000404158 0.000253684 0.00010452 8.14309e-05 0.000123273 0.00010302 5.72582e-05 5.65022e-05 0.000113646 5.51498e-05 0.000110502 4.75745e-05 8.15864e-05 9.08423e-05 3.55598e-05 8.85488e-05 0.000136088 0.000100837 6.36481e-05 6.30763e-05 0.000117034 0.000104722 0.000204303 7.10033e-05 6.30596e-05 5.12184e-05 7.43834e-05 4.54744e-05 4.2406e-05 4.00467e-05 3.21383e-05 3.05164e-05 2.85163e-05 2.47636e-05 2.1627e-05 1.57935e-05 1.19403e-05 5.9935e-06 4.06387e-06
threshold=7.4619535546207709 13.613729758483045 13.560585145192201 13.691630119193567 13.545668189207626 9.5766487624799073 7.4474394580020764 2.1250000000000004 7.3502945669022273 13.531156054857005 13.537142830863997 13.523150671650429 13.465126673170916 13.74132551478216 0.0080451514306677102 0.0051096030534082985 9.5721461427946064 13.768186757570023 13.752421615714963 13.771035931234318 9.5678847122694375 13.799889048094309 0.0061295826542171637 13.829906316795647 13.838581110300881 13.8439560269544 7.4833259648608852 0.0065815545314503428 13.809579615597361 13.802113639901494 0.0056588281465390251 13.74683573426648 13.758410825801759 3.6250000000000004 13.753102956218294 0.0066881260480821545 1.7150000000000001 9.6396684802164607 2.1150000000000007 13.75522948606301 13.756258151657553
decision_type=2 2 2 2 2 2 2 2 2 2 2 2 2 2 2 2 2 2 2 2 2 2 2 2 2 2 2 2 2 2 2 2 2 2 2 2 2 2 2 2 2
left_child=1 2 4 -3 9 -5 34 33 -6 11 -11 12 -1 14 15 -2 17 18 20 -19 36 22 31 29 -25 -26 -24 -21 -29 -23 -31 -18 -33 -8 37 -36 -15 -7 -13 -20 -28
right_child=13 3 -4 5 8 6 7 -9 -10 10 -12 38 -14 16 -16 -17 21 19 39 27 -22 23 26 24 25 -27 40 28 -30 30 -32 32 -34 -35 35 -37 -38 -39 -40 -41 -42
leaf_value=-6.1949531161360568e-05 0 -0.0011855439991060061 0.0010367373337188087 0.00030556068132468745 -0.00075655225744731278 0 0 -0.0010298262996470064 0 0.00070047642854429489 0 -0.00053186236179366428 0.0004949602005100192 -0.00042065765420576303 -8.1238865102183368e-05 0.0006400914826722924 -0.0003780422512964797 0.00048463759967413641 -3.5900670924805559e-05 0.00012916702914358774 0.00035116238285993903 0 0 0.00067375437716620597 -0.00040725205826036814 2.109780346441583e-05 0.00019209254828124399 -0.00049431789434862823 0 0 -0.00049122295334306197 0.00034274446812813215 0 -0.00035328465162912933 0 -0.00031121539126336729 0 0.00033189447686631505 0 -0.00077061976216708601 0.00075920685736566404
leaf_weight=185 25 21 33 35 26 26 21 23 28 30 31 22 37 23 22 48 24 37 23 32 28 32 34 42 37 334 48 45 21 40 67 25 67 22 28 30 25 29 28 38 36
leaf_count=185 25 21 33 35 26 26 21 23 28 30 31 22 37 23 22 48 24 37 23 32 28 32 34 42 37 334 48 45 21 40 67 25 67 22 28 30 25 29 28 38 36
internal_value=0 -3.64648e-05 2.95171e-05 -0.000182277 -3.9839e-05 -5.21977e-05 -0.000159085 -0.000483772 -0.000427417 3.47859e-06 0.000277487 -3.39614e-05 1.60865e-06 1.71152e-05 0.000219008 0.000399311 0 -9.3896e-05 -0.000271062 3.7382e-05 0 3.1097e-05 0.000163615 -1.32079e-05 4.92004e-05 -4.08859e-06 0.000375558 -6.51045e-05 -0.000258737 -0.000245696 -0.000340721 0 3.3342e-05 -3.63082e-05 0 -0.000111461 -0.000212732 0.000181167 -0.000322338 -0.000601994 0.000514368
internal_weight=1808 655 420 235 387 214 179 66 54 333 61 272 222 1153 95 73 1058 272 137 135 76 786 234 552 413 371 118 98 66 139 107 116 92 43 113 58 48 55 50 61 84
internal_count=1808 655 420 235 387 214 179 66 54 333 61 272 222 1153 95 73 1058 272 137 135 76 786 234 552 413 371 118 98 66 139 107 116 92 43 113 58 48 55 50 61 84
is_linear=0
shrinkage=0.298099


Tree=37
num_leaves=39
num_cat=0
split_feature=13 6 7 11 2 18 13 10 2 10 3 11 13 13 13 16 2 2 2 13 15 13 3 15 15 10 6 10 10 8 16 6 11 18 5 8 7 5
split_gain=2.26475e-05 0.000203988 8.10301e-05 8.58543e-05 6.07237e-05 6.03453e-05 9.07866e-05 7.78758e-05 8.24628e-05 6.29421e-05 5.99564e-05 9.75001e-05 5.94363e-05 3.94402e-05 4.98162e-05 3.57378e-05 6.39079e-05 0.000103023 9.38186e-05 7.0968e-05 0.000117875 6.36851e-05 5.32527e-05 0.000108566 4.14286e-05 7.60876e-05 3.62356e-05 3.28073e-05 2.39878e-05 2.74761e-05 2.23358e-05 3.99469e-05 2.00705e-05 1.83554e-05 2.96964e-05 1.40908e-05 4.12318e-06 2.12815e-06
threshold=9.5923926736567982 13.724408425939133 0.0092284661722068662 9.5522414144549561 13.738089265061442 8.5000000000000018 9.5634941231711128 7.3227613817240949 13.772080863694045 7.492481704982473 13.611556513084624 9.5696393678709857 9.5604160874397106 9.6088479972634904 9.6115865919498571 2.5100000000000002 13.756291057587051 13.768942784946647 13.795817794597129 9.5235857637396641 1.4800000000000002 9.5802819186471435 13.40791811822765 2.7700000000000005 2.7700000000000005 7.4555963008608535 13.40258277502425 7.5261357967608076 7.4757643126632631 13.873753496033782 2.1150000000000007 13.53245759120467 9.5848857055669026 2.5000000000000004 13.881766244254731 13.840107197664967 0.0031573288545003919 13.529826266839127
decision_type=2 2 2 2 2 2 2 2 2 2 2 2 2 2 2 2 2 2 2 2 2 2 2 2 2 2 2 2 2 2 2 2 2 2 2 2 2 2
left_child=2 -2 5 -4 -3 15 7 30 12 36 -5 -12 -9 28 -15 16 19 21 -19 -1 -21 -18 23 -17 25 -24 -25 -11 -6 -30 31 -7 -13 35 -35 -16 -8 -32
right_child=1 4 3 10 13 6 9 8 -10 27 11 32 -14 14 33 22 17 18 -20 20 -22 -23 24 26 -26 -27 -28 -29 29 -31 37 -33 -34 34 -36 -37 -38 -39
leaf_value=-0.00013376694871846081 0.00092884966144570174 -0.00043395137276730218 2.6829190972522704e-05 0 0 0 0 0.00066234783662946003 -2.7821963515591013e-05 0.00020007103894195593 -0.00098861983060253189 0 0 -0.00033008218912410487 0 0.0007124906314374894 -0.00048022070551662354 0.00036486870733364805 -6.3074394829508009e-05 0 0.00042035093521019737 0 -0.00057856093874864413 -0.00030577825393548563 0 0 6.8376864612912919e-05 -0.00026872668318559572 0.00026877268488021766 0 -8.2033831642151593e-05 -0.00057382389642110781 -0.00031348417822398412 0.00011351850478664854 -3.2562528243384376e-05 -0.00024728865876739997 -0.00069874037096718795 2.7388792328441188e-05
leaf_weight=24 22 26 33 34 30 24 21 38 27 20 30 25 23 40 21 20 54 78 62 79 151 20 44 32 30 24 45 29 118 20 25 25 21 259 138 34 36 26
leaf_count=24 22 26 33 34 30 24 21 38 27 20 30 25 23 40 21 20 54 78 62 79 151 20 44 32 30 24 45 29 118 20 25 25 21 259 138 34 36 26
internal_value=0 3.78027e-05 -3.01562e-05 -0.000239326 0 0 -0.000111218 0 0.000217267 -0.000332036 -0.000378756 -0.000526702 0.000432968 2.6551e-05 -3.4892e-06 5.09795e-05 0.000100043 0 0.000128615 0.000201934 0.000265606 -0.000303564 -3.30706e-05 7.85011e-05 -0.000210409 -0.00034314 -2.28833e-06 0 0.000153527 0.000210033 -0.000165908 -0.000310521 -8.03566e-05 1.09947e-05 4.61944e-05 -0.000123246 -0.000550028 0
internal_weight=1808 708 1100 143 686 957 294 188 88 106 110 76 61 660 492 663 468 214 140 254 230 74 195 97 98 68 77 49 168 138 100 49 46 452 397 55 57 51
internal_count=1808 708 1100 143 686 957 294 188 88 106 110 76 61 660 492 663 468 214 140 254 230 74 195 97 98 68 77 49 168 138 100 49 46 452 397 55 57 51
is_linear=0
shrinkage=0.298099


Tree=38
num_leaves=39
num_cat=0
split_feature=0 13 4 8 0 16 9 13 13 12 4 9 13 16 15 15 9 9 15 19 0 13 15 0 12 8 15 1 0 12 16 12 4 3 0 16 13 9
split_gain=4.97812e-05 3.93429e-05 9.6065e-05 5.00789e-05 4.72277e-05 4.62074e-05 6.84625e-05 3.55455e-05 0.000133028 0.00010302 6.99714e-05 7.48734e-05 6.14809e-05 5.49911e-05 3.65848e-05 4.73632e-05 3.53585e-05 4.91569e-05 5.39028e-05 3.11354e-05 8.52023e-05 6.11098e-05 6.16333e-05 4.38723e-05 4.00801e-05 3.82504e-05 2.94323e-05 2.78106e-05 1.96792e-05 1.965e-05 1.69346e-05 9.22071e-06 6.4947e-06 3.82586e-05 4.16353e-06 3.93395e-06 3.33959e-06 1.41159e-07
threshold=0.001023548244710071 9.5906128645813826 13.784535620676236 13.768981158573867 0.0073458359722966557 1.6900000000000002 0.0063765057833064633 9.5528407529962909 9.5506516621785806 7.5015764771816373 13.527161374005926 0.008445070418185336 9.5599368356519054 3.1550000000000007 3.1050000000000004 1.6700000000000002 0.010347747386377218 0.0075085623542271397 3.3000000000000003 2.5000000000000004 -0.0020232687849990323 9.5700267631826836 4.1650000000000009 -0.0028544269418819819 7.4859853125279798 13.767140451605224 2.3800000000000003 13.417269017729554 0.0063741971310564702 7.4757643126632631 2.1250000000000004 7.5688724277071158 13.907633742873733 13.867628399599781 0.0054525908033502555 2.27 9.5680427810313482 0.0086310054093986666
decision_type=2 2 2 2 2 2 2 2 2 2 2 2 2 2 2 2 2 2 2 2 2 2 2 2 2 2 2 2 2 2 2 2 2 2 2 2 2 2
left_child=7 3 4 16 -3 6 -4 8 9 10 -1 35 14 19 15 -9 17 18 29 21 23 25 -23 -21 -22 -14 -15 -17 -18 -2 36 -5 33 -7 -35 -12 -19 -8
right_child=1 2 5 31 -6 32 37 12 -10 -11 11 -13 13 26 -16 27 28 30 -20 20 24 22 -24 -25 -26 -27 -28 -29 -30 -31 -32 -33 -34 34 -36 -37 -38 -39
leaf_value=-6.4363728224000518e-05 -0.00040766226076749482 0 -0.00066054549682538304 0.00013067548697663658 0.00063793774259227206 -2.3855575659532972e-05 0 0 0.0006432054398782458 -0.00049418069834706918 2.0197831416845554e-05 0 0.0004728962123539801 0 0 0 -3.5687819867319121e-05 -0.0001212579729387711 4.4245629136487848e-05 0 0 -6.2882068006782726e-05 0.00020771895872776953 0.00037554849722020757 -0.00026004269664811294 0 0.00038524151662942325 -0.00071872263488758931 -0.00075059144759730709 -3.7731067351651181e-05 0.00024674776532504722 0 -9.8970569396026405e-05 0.00044156393750646218 0 0.0008315269388381966 0 -2.4929740558045132e-05
leaf_weight=35 81 38 27 48 27 33 22 20 38 28 21 28 47 25 41 21 32 20 20 132 89 259 103 37 160 21 56 28 24 70 26 26 20 21 22 22 20 20
leaf_count=35 81 38 27 48 27 33 22 20 38 28 21 28 47 25 41 21 32 20 20 132 89 259 103 37 160 21 56 28 24 70 26 26 20 21 22 22 20 20
internal_value=-4.77989e-06 -7.81582e-05 0 -0.000139487 0.000324549 -0.000100571 -0.000288965 2.59721e-05 0.000151953 0 0.000146273 0.000342372 0 2.99973e-05 -0.000204929 -0.000337455 -0.000198833 -0.000108964 -0.000203586 0 -4.9979e-05 6.32727e-05 0 8.91823e-05 -0.000170812 0.000323887 0.000265503 -0.000495739 -0.00046055 -0.000279914 3.67329e-05 6.77308e-06 0 7.05733e-05 0.00029509 0.000589319 0 0
internal_weight=1808 597 230 367 65 165 69 1211 172 134 106 71 1039 929 110 69 293 237 171 848 418 430 362 169 249 68 81 49 56 151 66 74 96 76 43 43 40 42
internal_count=1808 597 230 367 65 165 69 1211 172 134 106 71 1039 929 110 69 293 237 171 848 418 430 362 169 249 68 81 49 56 151 66 74 96 76 43 43 40 42
is_linear=0
shrinkage=0.298099


Tree=39
num_leaves=33
num_cat=0
split_feature=0 7 18 0 0 7 9 11 2 11 2 7 18 9 13 11 11 0 0 6 18 7 8 2 18 5 2 9 7 5 0 9
split_gain=2.81827e-05 3.32521e-05 6.34227e-05 5.83437e-05 9.47533e-05 6.32833e-05 0.000100931 7.4677e-05 3.82513e-05 4.17287e-05 3.82464e-05 3.71267e-05 7.48235e-05 3.30162e-05 1.64541e-05 7.01312e-05 4.51101e-05 6.57575e-05 8.25618e-05 6.12424e-05 1.97217e-05 5.09374e-05 2.66944e-05 9.00134e-05 8.25088e-05 1.52473e-05 8.84401e-05 5.89361e-05 2.67626e-05 1.24624e-05 6.12078e-06 3.71801e-06
threshold=0.001023548244710071 0.0048107333882813482 1.5000000000000002 0.012678461798070197 0.010676734655553412 0.0062259265156536783 0.0066881260480821545 9.5558951902987932 13.520467905588465 9.6056810607460452 13.812004292755356 0.0022535887510928706 4.5000000000000009 0.0058033262818761389 9.5528407529962909 9.5523863320570221 9.5599368356519054 -0.0013386888853581522 -0.0053872208591743123 13.405368996632985 1.5000000000000002 0.0041436041662963772 13.729891628760257 13.624955013254473 3.5000000000000004 13.529826266839127 13.552195630308796 0.005525886625581981 0.0085254478195044281 13.466661799134894 0.0050633071489052392 0.0051628769806151527
decision_type=2 2 2 2 2 2 2 2 2 2 2 2 2 2 2 2 2 2 2 2 2 2 2 2 2 2 2 2 2 2 2 2
left_child=14 2 -2 4 5 10 -7 -8 -4 11 13 -10 -13 -3 15 25 17 18 -16 -18 21 -21 23 -22 -24 29 -27 -28 -29 -1 31 -11
right_child=1 3 8 -5 -6 6 7 -9 9 30 -12 12 -14 -15 16 -17 19 -19 -20 20 22 -23 24 -25 -26 26 27 28 -30 -31 -32 -33
leaf_value=0 -0.00061957534228282592 0 0.00015739454566362506 -0.00033116910371204592 0.0006830600411606389 0.00033193252164399455 2.0843737007463136e-05 -0.00036747333736282328 0 -0.00011810322270312999 0 0 -0.0004411961937210528 0.00050134216202985145 -0.00037618277507535245 0.00050271839955679789 0.00049949143853048332 -0.00039824586837545399 0.00038528119373551582 0 0 -0.0004923272630593217 0.00032295146617453136 -0.00054770528260609098 2.8768549835239879e-06 0.00063529380670642799 0.0003226033451195681 -0.00045041948009797637 0 -0.00025530579804235594 0.00011560013013310918 0
leaf_weight=25 25 21 36 38 20 27 26 105 29 24 21 33 88 41 20 32 24 58 30 20 72 24 87 30 674 21 20 27 20 27 40 23
leaf_count=25 25 21 36 38 20 27 26 105 29 24 21 33 88 41 20 32 24 58 30 20 72 24 87 30 674 21 20 27 20 27 40 23
internal_value=-3.10969e-06 -5.90532e-05 -0.000129976 0 6.17813e-05 0 -0.000100728 -0.000240362 -6.06874e-05 -0.00012163 0.000219795 -0.000219214 -0.000294583 0.00034537 1.90457e-05 0.000105088 0 -0.000176874 0 2.58899e-05 6.01204e-06 -0.000173842 2.28339e-05 -0.000101638 4.81755e-05 0 8.84904e-05 0 -0.000257835 -0.000112836 0 -1.2115e-05
internal_weight=1808 597 298 299 261 241 158 131 273 237 83 150 121 62 1211 172 1039 108 50 931 907 44 863 102 761 140 88 67 47 52 87 47
internal_count=1808 597 298 299 261 241 158 131 273 237 83 150 121 62 1211 172 1039 108 50 931 907 44 863 102 761 140 88 67 47 52 87 47
is_linear=0
shrinkage=0.298099


Tree=40
num_leaves=29
num_cat=0
split_feature=5 2 2 10 12 7 12 10 12 4 4 16 6 10 2 4 4 4 15 1 7 7 7 5 7 6 4 10
split_gain=2.36401e-05 0.000227619 9.44079e-05 1.76844e-05 5.78954e-05 0.00015439 5.43535e-05 6.86953e-05 0.000108119 7.37484e-05 4.61029e-05 4.02819e-05 3.92712e-05 3.90793e-05 2.1733e-05 3.53536e-05 1.85162e-05 3.05902e-05 1.65271e-05 1.81097e-05 4.34555e-05 0.000141267 3.19327e-05 3.01974e-05 2.82465e-05 2.12965e-05 2.04793e-05 2.41149e-07
threshold=13.604171861344627 13.69503624543947 13.568970224174638 7.4637789067363611 7.454421872431392 0.0048828709826774291 7.4807328198215615 7.4914446726161303 7.4964221072604387 13.746696098520232 13.734842508011862 2.1150000000000007 13.743091167919859 7.5015764771816373 13.771035931234318 13.756291057587051 13.733757908888089 13.784535620676236 3.4800000000000009 13.406413792797006 0.0034991295871543465 0.0028944767257138237 0.0035754838159836478 13.524489360535787 0.010112338349195541 13.40258277502425 13.409420184061714 7.4563794504405694
decision_type=2 2 2 2 2 2 2 2 2 2 2 2 2 2 2 2 2 2 2 2 2 2 2 2 2 2 2 2
left_child=2 -2 18 4 10 -6 16 11 9 -9 -3 12 -8 -10 15 -12 -5 -18 19 22 21 23 25 -21 26 -1 -22 -7
right_child=1 3 -4 6 5 27 7 8 13 -11 14 -13 -14 -15 -16 -17 17 -19 -20 20 24 -23 -24 -25 -26 -27 -28 -29
leaf_value=-0.00024948696383655673 0.00096668241258485166 0.00033621080068247191 -0.00066929435740469695 0 -0.00084313150105869194 0 0 0 -0.00023396331212858406 0.00067197116202617486 0 0 -0.00042583062725223711 1.7056198202625726e-05 9.0835786026169425e-05 -0.00034094325573679309 0.00043725889920538782 0 0.00016151579765179809 -0.00039603318207388966 0 0.00063583466847372879 0.00034748213632058549 0 0 5.1923622719695115e-05 -0.00025457560532950716 3.1805733587842346e-05
leaf_weight=29 22 33 22 26 28 20 26 20 59 37 62 25 69 801 20 45 50 25 31 25 20 28 24 30 23 28 159 21
